svm_type c_svc
kernel_type linear
nr_class 2
total_sv 16120
rho 0.5090845684220581
label 1 -1
nr_sv 7042 9078
SV
0.5087890625 3:1.0 
1.0 3:1.0 
1.0 27:1.0 
1.0 27:1.0 
1.0 39:1.0 
0.5087890625 23:1.0 
1.0 42:1.0 
1.0 23:1.0 
1.0 13:1.0 
0.5087890625 45:1.0 
0.5087890625 47:1.0 
1.0 45:1.0 
1.0 45:1.0 
1.0 45:1.0 
1.0 47:1.0 
1.0 13:1.0 
1.0 13:1.0 
0.5087890625 80:1.0 
1.0 13:1.0 
1.0 94:1.0 
1.0 13:1.0 
1.0 23:1.0 
0.5087890625 116:1.0 
1.0 116:1.0 
1.0 127:1.0 
1.0 176:1.0 
1.0 233:1.0 
1.0 253:1.0 
1.0 302:1.0 
1.0 314:1.0 
1.0 95:1.0 
0.5087890625 324:1.0 
1.0 361:1.0 
1.0 377:1.0 
0.5087890625 384:1.0 
1.0 401:1.0 
1.0 427:1.0 
0.5087890625 431:1.0 
0.5087890625 432:1.0 
1.0 37:1.0 
1.0 37:1.0 
1.0 37:1.0 
1.0 37:1.0 
1.0 461:1.0 
1.0 37:1.0 
1.0 472:1.0 
1.0 474:1.0 
1.0 481:1.0 
0.5087890625 355:1.0 
1.0 503:1.0 
1.0 37:1.0 
1.0 224:1.0 
1.0 512:1.0 
0.5087890625 517:1.0 
1.0 518:1.0 
1.0 519:1.0 
1.0 522:1.0 
1.0 37:1.0 
1.0 37:1.0 
0.5087890625 546:1.0 
1.0 546:1.0 
0.5087890625 555:1.0 
1.0 13:1.0 
0.5087890625 558:1.0 
0.5087890625 471:1.0 
1.0 13:1.0 
1.0 471:1.0 
0.5087890625 576:1.0 
1.0 578:1.0 
1.0 579:1.0 
1.0 369:1.0 
1.0 34:1.0 
1.0 590:1.0 
1.0 591:1.0 
1.0 41:1.0 
1.0 592:1.0 
1.0 187:1.0 
1.0 594:1.0 
1.0 4:1.0 
1.0 590:1.0 
1.0 599:1.0 
1.0 224:1.0 
1.0 608:1.0 
1.0 610:1.0 
1.0 612:1.0 
1.0 41:1.0 
1.0 1:1.0 
0.5087890625 619:1.0 
1.0 620:1.0 
1.0 621:1.0 
1.0 592:1.0 
1.0 187:1.0 
1.0 625:1.0 
1.0 186:1.0 
1.0 627:1.0 
1.0 628:1.0 
1.0 629:1.0 
1.0 41:1.0 
1.0 594:1.0 
0.5087890625 631:1.0 
1.0 4:1.0 
1.0 18:1.0 
1.0 4:1.0 
1.0 476:1.0 
1.0 4:1.0 
1.0 18:1.0 
1.0 269:1.0 
1.0 18:1.0 
1.0 4:1.0 
1.0 93:1.0 
1.0 649:1.0 
1.0 651:1.0 
1.0 103:1.0 
1.0 652:1.0 
1.0 232:1.0 
1.0 46:1.0 
1.0 654:1.0 
1.0 41:1.0 
1.0 592:1.0 
1.0 187:1.0 
1.0 657:1.0 
1.0 660:1.0 
1.0 20:1.0 
1.0 4:1.0 
1.0 379:1.0 
1.0 13:1.0 
1.0 23:1.0 
1.0 670:1.0 
1.0 338:1.0 
1.0 13:1.0 
0.5087890625 334:1.0 
1.0 237:1.0 
1.0 46:1.0 
1.0 379:1.0 
1.0 472:1.0 
0.5087890625 184:1.0 
1.0 677:1.0 
1.0 680:1.0 
1.0 684:1.0 
1.0 237:1.0 
1.0 369:1.0 
1.0 9:1.0 
1.0 379:1.0 
1.0 699:1.0 
1.0 706:1.0 
1.0 453:1.0 
1.0 9:1.0 
1.0 41:1.0 
1.0 232:1.0 
1.0 39:1.0 
1.0 4:1.0 
1.0 13:1.0 
1.0 527:1.0 
0.5087890625 722:1.0 
0.5087890625 12:1.0 
1.0 723:1.0 
1.0 20:1.0 
0.5087890625 164:1.0 
1.0 41:1.0 
1.0 592:1.0 
1.0 187:1.0 
1.0 12:1.0 
1.0 723:1.0 
1.0 27:1.0 
1.0 6:1.0 
1.0 27:1.0 
0.5087890625 736:1.0 
1.0 27:1.0 
1.0 736:1.0 
1.0 738:1.0 
1.0 3:1.0 
1.0 740:1.0 
1.0 742:1.0 
1.0 723:1.0 
0.5087890625 678:1.0 
1.0 745:1.0 
1.0 379:1.0 
1.0 505:1.0 
1.0 750:1.0 
1.0 41:1.0 
1.0 592:1.0 
1.0 187:1.0 
1.0 232:1.0 
1.0 385:1.0 
1.0 10:1.0 
1.0 311:1.0 
1.0 760:1.0 
1.0 760:1.0 
1.0 10:1.0 
1.0 379:1.0 
1.0 760:1.0 
1.0 379:1.0 
1.0 288:1.0 
1.0 117:1.0 
1.0 13:1.0 
1.0 478:1.0 
1.0 142:1.0 
0.5087890625 747:1.0 
1.0 773:1.0 
0.5087890625 777:1.0 
1.0 379:1.0 
1.0 1:1.0 
1.0 786:1.0 
0.5087890625 655:1.0 
1.0 4:1.0 
0.5087890625 293:1.0 
1.0 590:1.0 
1.0 13:1.0 
1.0 6:1.0 
1.0 164:1.0 
1.0 328:1.0 
1.0 9:1.0 
1.0 799:1.0 
1.0 806:1.0 
1.0 4:1.0 
0.5087890625 687:1.0 
1.0 816:1.0 
1.0 253:1.0 
1.0 367:1.0 
1.0 316:1.0 
1.0 722:1.0 
1.0 23:1.0 
1.0 4:1.0 
0.5087890625 826:1.0 
0.5087890625 830:1.0 
1.0 164:1.0 
1.0 834:1.0 
1.0 838:1.0 
1.0 839:1.0 
1.0 841:1.0 
1.0 239:1.0 
1.0 678:1.0 
1.0 843:1.0 
0.5087890625 152:1.0 
1.0 826:1.0 
0.5087890625 846:1.0 
0.5087890625 664:1.0 
1.0 657:1.0 
1.0 142:1.0 
1.0 747:1.0 
1.0 16:1.0 
1.0 103:1.0 
0.5087890625 697:1.0 
1.0 229:1.0 
0.5087890625 683:1.0 
1.0 684:1.0 
1.0 687:1.0 
1.0 20:1.0 
1.0 385:1.0 
1.0 12:1.0 
1.0 723:1.0 
1.0 6:1.0 
1.0 109:1.0 
1.0 655:1.0 
1.0 41:1.0 
1.0 592:1.0 
1.0 187:1.0 
1.0 232:1.0 
1.0 547:1.0 
0.5087890625 639:1.0 
1.0 853:1.0 
1.0 142:1.0 
0.5087890625 864:1.0 
0.5087890625 866:1.0 
1.0 869:1.0 
0.5087890625 870:1.0 
1.0 202:1.0 
1.0 871:1.0 
1.0 872:1.0 
1.0 878:1.0 
1.0 507:1.0 
1.0 864:1.0 
1.0 883:1.0 
1.0 884:1.0 
0.5087890625 886:1.0 
1.0 887:1.0 
1.0 275:1.0 
0.5087890625 891:1.0 
1.0 893:1.0 
1.0 894:1.0 
1.0 250:1.0 
1.0 367:1.0 
1.0 806:1.0 
1.0 905:1.0 
1.0 907:1.0 
1.0 866:1.0 
1.0 910:1.0 
1.0 870:1.0 
0.5087890625 696:1.0 
1.0 917:1.0 
1.0 849:1.0 
1.0 921:1.0 
1.0 923:1.0 
1.0 311:1.0 
1.0 117:1.0 
1.0 935:1.0 
0.5087890625 936:1.0 
0.5087890625 937:1.0 
1.0 109:1.0 
1.0 378:1.0 
1.0 117:1.0 
1.0 935:1.0 
1.0 936:1.0 
1.0 937:1.0 
1.0 109:1.0 
1.0 937:1.0 
1.0 37:1.0 
1.0 944:1.0 
0.5087890625 945:1.0 
1.0 252:1.0 
1.0 806:1.0 
1.0 947:1.0 
1.0 141:1.0 
0.5087890625 950:1.0 
1.0 952:1.0 
1.0 950:1.0 
1.0 953:1.0 
0.5087890625 946:1.0 
1.0 957:1.0 
1.0 117:1.0 
1.0 961:1.0 
1.0 378:1.0 
1.0 37:1.0 
1.0 378:1.0 
1.0 252:1.0 
1.0 944:1.0 
1.0 883:1.0 
1.0 253:1.0 
1.0 974:1.0 
1.0 976:1.0 
1.0 977:1.0 
1.0 9:1.0 
0.5087890625 984:1.0 
0.5087890625 988:1.0 
1.0 18:1.0 
0.5087890625 983:1.0 
0.5087890625 989:1.0 
1.0 988:1.0 
1.0 1:1.0 
1.0 993:1.0 
1.0 232:1.0 
1.0 27:1.0 
1.0 996:1.0 
1.0 984:1.0 
1.0 232:1.0 
1.0 13:1.0 
0.5087890625 997:1.0 
1.0 232:1.0 
1.0 27:1.0 
1.0 475:1.0 
1.0 1002:1.0 
1.0 1004:1.0 
1.0 1005:1.0 
1.0 1008:1.0 
0.5087890625 1009:1.0 
1.0 37:1.0 
1.0 1011:1.0 
1.0 1012:1.0 
1.0 599:1.0 
1.0 565:1.0 
1.0 989:1.0 
1.0 1009:1.0 
0.5087890625 1016:1.0 
1.0 39:1.0 
1.0 37:1.0 
1.0 1018:1.0 
1.0 252:1.0 
1.0 1019:1.0 
0.5087890625 1020:1.0 
1.0 945:1.0 
1.0 37:1.0 
1.0 1023:1.0 
1.0 18:1.0 
1.0 378:1.0 
0.5087890625 979:1.0 
1.0 1026:1.0 
0.5087890625 1027:1.0 
0.5087890625 1032:1.0 
0.5087890625 1033:1.0 
0.5087890625 1029:1.0 
1.0 1009:1.0 
1.0 1020:1.0 
1.0 899:1.0 
1.0 1040:1.0 
1.0 1042:1.0 
1.0 316:1.0 
1.0 979:1.0 
1.0 1046:1.0 
1.0 979:1.0 
1.0 1048:1.0 
1.0 565:1.0 
1.0 1051:1.0 
1.0 338:1.0 
0.5087890625 1053:1.0 
1.0 979:1.0 
1.0 1056:1.0 
1.0 13:1.0 
1.0 979:1.0 
1.0 1057:1.0 
1.0 779:1.0 
1.0 946:1.0 
1.0 9:1.0 
1.0 37:1.0 
1.0 1062:1.0 
1.0 1066:1.0 
1.0 1067:1.0 
1.0 1068:1.0 
1.0 1069:1.0 
1.0 310:1.0 
1.0 816:1.0 
1.0 1032:1.0 
1.0 117:1.0 
1.0 1075:1.0 
1.0 1082:1.0 
1.0 27:1.0 
1.0 117:1.0 
0.5087890625 1084:1.0 
1.0 1098:1.0 
1.0 1099:1.0 
0.5087890625 1100:1.0 
1.0 683:1.0 
1.0 1105:1.0 
1.0 1106:1.0 
1.0 761:1.0 
1.0 1113:1.0 
1.0 1116:1.0 
1.0 565:1.0 
1.0 1122:1.0 
0.5087890625 1130:1.0 
0.5087890625 1133:1.0 
1.0 1142:1.0 
1.0 1152:1.0 
1.0 1154:1.0 
1.0 629:1.0 
0.5087890625 702:1.0 
1.0 1163:1.0 
1.0 472:1.0 
0.5087890625 422:1.0 
1.0 239:1.0 
1.0 522:1.0 
1.0 239:1.0 
1.0 702:1.0 
1.0 232:1.0 
1.0 37:1.0 
0.5087890625 1175:1.0 
1.0 1176:1.0 
1.0 223:1.0 
1.0 109:1.0 
1.0 702:1.0 
0.5087890625 1179:1.0 
1.0 1130:1.0 
1.0 244:1.0 
0.5087890625 342:1.0 
1.0 1185:1.0 
1.0 117:1.0 
1.0 1186:1.0 
1.0 244:1.0 
0.5087890625 1187:1.0 
1.0 1192:1.0 
1.0 998:1.0 
1.0 1195:1.0 
1.0 1197:1.0 
1.0 1154:1.0 
1.0 1199:1.0 
0.5087890625 1194:1.0 
1.0 114:1.0 
1.0 899:1.0 
0.5087890625 343:1.0 
1.0 343:1.0 
1.0 1133:1.0 
1.0 1187:1.0 
1.0 13:1.0 
0.5087890625 1220:1.0 
1.0 1222:1.0 
1.0 16:1.0 
0.5087890625 1230:1.0 
0.5087890625 1231:1.0 
1.0 1235:1.0 
1.0 1194:1.0 
1.0 13:1.0 
1.0 1241:1.0 
1.0 1242:1.0 
1.0 13:1.0 
0.5087890625 1243:1.0 
1.0 37:1.0 
1.0 1245:1.0 
1.0 1249:1.0 
1.0 567:1.0 
0.5087890625 1252:1.0 
1.0 1253:1.0 
1.0 1254:1.0 
1.0 232:1.0 
0.5087890625 1260:1.0 
0.5087890625 782:1.0 
1.0 1263:1.0 
0.5087890625 1264:1.0 
0.5087890625 1266:1.0 
1.0 1268:1.0 
1.0 9:1.0 
1.0 204:1.0 
1.0 1270:1.0 
1.0 1271:1.0 
1.0 232:1.0 
1.0 1273:1.0 
0.5087890625 1250:1.0 
1.0 883:1.0 
1.0 1277:1.0 
1.0 1281:1.0 
1.0 1283:1.0 
1.0 782:1.0 
1.0 13:1.0 
1.0 782:1.0 
0.5087890625 1286:1.0 
1.0 478:1.0 
1.0 1154:1.0 
1.0 782:1.0 
1.0 1289:1.0 
1.0 554:1.0 
1.0 117:1.0 
0.5087890625 74:1.0 
1.0 782:1.0 
1.0 1292:1.0 
1.0 74:1.0 
1.0 1295:1.0 
1.0 1296:1.0 
1.0 39:1.0 
1.0 1301:1.0 
1.0 117:1.0 
0.5087890625 733:1.0 
1.0 1305:1.0 
1.0 1179:1.0 
0.5087890625 1307:1.0 
1.0 37:1.0 
1.0 10:1.0 
1.0 1310:1.0 
1.0 702:1.0 
0.5087890625 1311:1.0 
1.0 1313:1.0 
1.0 1315:1.0 
1.0 1316:1.0 
1.0 1317:1.0 
1.0 940:1.0 
1.0 4:1.0 
1.0 10:1.0 
1.0 1329:1.0 
1.0 1336:1.0 
1.0 1337:1.0 
1.0 288:1.0 
1.0 27:1.0 
1.0 367:1.0 
1.0 1342:1.0 
1.0 37:1.0 
1.0 96:1.0 
1.0 13:1.0 
1.0 594:1.0 
1.0 427:1.0 
0.5087890625 1351:1.0 
1.0 13:1.0 
1.0 1352:1.0 
1.0 1353:1.0 
0.5087890625 1354:1.0 
1.0 13:1.0 
1.0 979:1.0 
1.0 1359:1.0 
1.0 395:1.0 
1.0 1362:1.0 
1.0 13:1.0 
1.0 46:1.0 
1.0 18:1.0 
0.5087890625 645:1.0 
1.0 1386:1.0 
1.0 142:1.0 
1.0 288:1.0 
1.0 367:1.0 
1.0 1393:1.0 
1.0 471:1.0 
1.0 1342:1.0 
1.0 96:1.0 
1.0 13:1.0 
0.5087890625 1399:1.0 
1.0 367:1.0 
1.0 427:1.0 
1.0 13:1.0 
1.0 427:1.0 
0.5087890625 1403:1.0 
1.0 1351:1.0 
1.0 13:1.0 
1.0 1352:1.0 
1.0 46:1.0 
0.5087890625 1322:1.0 
1.0 1406:1.0 
1.0 979:1.0 
1.0 13:1.0 
1.0 13:1.0 
1.0 13:1.0 
1.0 1409:1.0 
1.0 18:1.0 
0.5087890625 795:1.0 
1.0 1414:1.0 
0.5087890625 1419:1.0 
1.0 293:1.0 
1.0 39:1.0 
0.5087890625 1434:1.0 
1.0 1436:1.0 
1.0 1437:1.0 
1.0 375:1.0 
1.0 1439:1.0 
1.0 13:1.0 
1.0 43:1.0 
1.0 39:1.0 
1.0 293:1.0 
0.5087890625 1196:1.0 
0.5087890625 1449:1.0 
1.0 1451:1.0 
1.0 576:1.0 
1.0 1453:1.0 
1.0 1455:1.0 
1.0 180:1.0 
1.0 1456:1.0 
1.0 1235:1.0 
1.0 830:1.0 
1.0 1457:1.0 
1.0 983:1.0 
1.0 375:1.0 
1.0 742:1.0 
1.0 1462:1.0 
1.0 18:1.0 
1.0 375:1.0 
1.0 1465:1.0 
1.0 1466:1.0 
1.0 696:1.0 
1.0 180:1.0 
1.0 180:1.0 
1.0 1042:1.0 
1.0 1477:1.0 
0.5087890625 1480:1.0 
1.0 1474:1.0 
1.0 1481:1.0 
1.0 657:1.0 
1.0 883:1.0 
1.0 657:1.0 
1.0 1484:1.0 
1.0 189:1.0 
1.0 384:1.0 
1.0 478:1.0 
1.0 142:1.0 
1.0 375:1.0 
0.5087890625 1460:1.0 
1.0 1491:1.0 
1.0 472:1.0 
1.0 1497:1.0 
1.0 1498:1.0 
1.0 275:1.0 
1.0 1503:1.0 
0.5087890625 1041:1.0 
0.5087890625 1085:1.0 
1.0 1449:1.0 
1.0 113:1.0 
1.0 113:1.0 
1.0 1518:1.0 
1.0 1520:1.0 
1.0 1522:1.0 
1.0 293:1.0 
1.0 1220:1.0 
1.0 232:1.0 
1.0 1524:1.0 
1.0 311:1.0 
1.0 43:1.0 
1.0 625:1.0 
1.0 945:1.0 
1.0 1529:1.0 
1.0 142:1.0 
1.0 1:1.0 
1.0 43:1.0 
0.5087890625 1538:1.0 
1.0 1520:1.0 
1.0 93:1.0 
1.0 1543:1.0 
1.0 883:1.0 
1.0 207:1.0 
1.0 1545:1.0 
1.0 142:1.0 
1.0 1019:1.0 
1.0 1550:1.0 
1.0 13:1.0 
1.0 311:1.0 
1.0 1557:1.0 
1.0 18:1.0 
1.0 232:1.0 
1.0 1558:1.0 
1.0 117:1.0 
1.0 13:1.0 
1.0 236:1.0 
1.0 311:1.0 
1.0 1524:1.0 
1.0 883:1.0 
1.0 1577:1.0 
1.0 1085:1.0 
0.5087890625 793:1.0 
1.0 696:1.0 
0.5087890625 1515:1.0 
1.0 9:1.0 
1.0 1584:1.0 
1.0 1588:1.0 
1.0 1591:1.0 
0.5087890625 1592:1.0 
1.0 1515:1.0 
1.0 702:1.0 
0.5087890625 1594:1.0 
1.0 1596:1.0 
1.0 1597:1.0 
1.0 928:1.0 
1.0 1598:1.0 
1.0 1174:1.0 
1.0 350:1.0 
0.5087890625 1554:1.0 
1.0 1606:1.0 
1.0 779:1.0 
0.5087890625 1609:1.0 
1.0 1194:1.0 
1.0 1616:1.0 
1.0 709:1.0 
1.0 286:1.0 
1.0 740:1.0 
1.0 13:1.0 
1.0 1194:1.0 
1.0 13:1.0 
1.0 1639:1.0 
0.5087890625 622:1.0 
1.0 6:1.0 
0.5087890625 1643:1.0 
1.0 385:1.0 
1.0 567:1.0 
1.0 567:1.0 
1.0 567:1.0 
0.5087890625 1184:1.0 
1.0 1184:1.0 
0.5087890625 1649:1.0 
1.0 1653:1.0 
1.0 1654:1.0 
1.0 1453:1.0 
1.0 43:1.0 
1.0 311:1.0 
1.0 1667:1.0 
1.0 316:1.0 
1.0 244:1.0 
1.0 244:1.0 
1.0 453:1.0 
0.5087890625 1677:1.0 
1.0 1679:1.0 
1.0 13:1.0 
1.0 13:1.0 
1.0 1691:1.0 
1.0 633:1.0 
1.0 316:1.0 
1.0 41:1.0 
1.0 13:1.0 
1.0 657:1.0 
1.0 478:1.0 
1.0 229:1.0 
1.0 202:1.0 
1.0 202:1.0 
1.0 629:1.0 
1.0 244:1.0 
1.0 9:1.0 
0.5087890625 1675:1.0 
1.0 1479:1.0 
1.0 1714:1.0 
1.0 13:1.0 
1.0 1717:1.0 
1.0 1718:1.0 
1.0 3:1.0 
1.0 1724:1.0 
1.0 1725:1.0 
1.0 1728:1.0 
1.0 1729:1.0 
1.0 1737:1.0 
1.0 1738:1.0 
1.0 1739:1.0 
1.0 679:1.0 
0.5087890625 267:1.0 
0.5087890625 50:1.0 
1.0 1742:1.0 
1.0 1743:1.0 
1.0 37:1.0 
1.0 1742:1.0 
1.0 1743:1.0 
1.0 202:1.0 
1.0 10:1.0 
1.0 998:1.0 
1.0 9:1.0 
1.0 690:1.0 
1.0 594:1.0 
1.0 1746:1.0 
1.0 1749:1.0 
1.0 37:1.0 
1.0 43:1.0 
1.0 1742:1.0 
1.0 1743:1.0 
1.0 9:1.0 
1.0 1755:1.0 
0.5087890625 1756:1.0 
1.0 232:1.0 
1.0 887:1.0 
1.0 37:1.0 
1.0 944:1.0 
1.0 10:1.0 
1.0 37:1.0 
1.0 37:1.0 
1.0 809:1.0 
1.0 369:1.0 
0.5087890625 695:1.0 
1.0 95:1.0 
1.0 3:1.0 
1.0 1765:1.0 
1.0 1756:1.0 
0.5087890625 1744:1.0 
1.0 679:1.0 
1.0 267:1.0 
1.0 1767:1.0 
1.0 702:1.0 
1.0 679:1.0 
1.0 1756:1.0 
1.0 1744:1.0 
1.0 679:1.0 
1.0 13:1.0 
1.0 1:1.0 
1.0 820:1.0 
1.0 1778:1.0 
1.0 227:1.0 
1.0 96:1.0 
1.0 207:1.0 
1.0 1781:1.0 
1.0 883:1.0 
1.0 983:1.0 
1.0 820:1.0 
0.5087890625 1782:1.0 
1.0 1786:1.0 
0.5087890625 1682:1.0 
0.5087890625 1788:1.0 
1.0 1791:1.0 
1.0 95:1.0 
0.5087890625 1792:1.0 
1.0 95:1.0 
1.0 1292:1.0 
1.0 478:1.0 
1.0 1292:1.0 
0.5087890625 1797:1.0 
1.0 1792:1.0 
1.0 1797:1.0 
1.0 1801:1.0 
1.0 478:1.0 
1.0 1803:1.0 
1.0 1250:1.0 
1.0 113:1.0 
1.0 1399:1.0 
1.0 1250:1.0 
1.0 1:1.0 
1.0 275:1.0 
1.0 1791:1.0 
1.0 37:1.0 
1.0 1029:1.0 
1.0 113:1.0 
1.0 1815:1.0 
1.0 27:1.0 
1.0 13:1.0 
1.0 1681:1.0 
1.0 1817:1.0 
1.0 1818:1.0 
1.0 1820:1.0 
1.0 95:1.0 
1.0 1231:1.0 
1.0 34:1.0 
0.5087890625 1822:1.0 
1.0 1824:1.0 
1.0 1:1.0 
1.0 95:1.0 
1.0 30:1.0 
1.0 232:1.0 
0.5087890625 1829:1.0 
1.0 13:1.0 
1.0 113:1.0 
0.5087890625 24:1.0 
1.0 13:1.0 
1.0 224:1.0 
1.0 46:1.0 
1.0 13:1.0 
0.5087890625 1775:1.0 
1.0 30:1.0 
0.5087890625 1835:1.0 
1.0 3:1.0 
1.0 4:1.0 
1.0 1837:1.0 
1.0 24:1.0 
1.0 1839:1.0 
1.0 27:1.0 
1.0 1782:1.0 
1.0 13:1.0 
1.0 997:1.0 
1.0 1775:1.0 
1.0 1842:1.0 
1.0 1682:1.0 
1.0 1843:1.0 
1.0 9:1.0 
1.0 10:1.0 
1.0 109:1.0 
1.0 10:1.0 
1.0 1829:1.0 
1.0 232:1.0 
0.5087890625 26:1.0 
1.0 527:1.0 
1.0 109:1.0 
1.0 1775:1.0 
0.5087890625 1845:1.0 
1.0 695:1.0 
1.0 478:1.0 
1.0 1847:1.0 
1.0 27:1.0 
0.5087890625 1849:1.0 
1.0 1:1.0 
1.0 1:1.0 
1.0 478:1.0 
1.0 1204:1.0 
1.0 1845:1.0 
0.5087890625 851:1.0 
1.0 385:1.0 
1.0 50:1.0 
1.0 1869:1.0 
1.0 232:1.0 
1.0 695:1.0 
1.0 9:1.0 
0.5087890625 1872:1.0 
1.0 28:1.0 
1.0 1880:1.0 
1.0 232:1.0 
0.5087890625 1884:1.0 
1.0 1872:1.0 
0.5087890625 1890:1.0 
1.0 695:1.0 
1.0 723:1.0 
1.0 695:1.0 
1.0 1174:1.0 
1.0 1890:1.0 
1.0 18:1.0 
1.0 1904:1.0 
1.0 1029:1.0 
0.5087890625 1856:1.0 
1.0 311:1.0 
1.0 253:1.0 
1.0 1906:1.0 
1.0 554:1.0 
1.0 1856:1.0 
0.5087890625 1585:1.0 
1.0 1555:1.0 
1.0 1916:1.0 
1.0 239:1.0 
1.0 250:1.0 
1.0 1918:1.0 
1.0 13:1.0 
1.0 1566:1.0 
1.0 96:1.0 
1.0 232:1.0 
1.0 9:1.0 
1.0 207:1.0 
1.0 1920:1.0 
1.0 1921:1.0 
0.5087890625 1922:1.0 
0.5087890625 1923:1.0 
0.5087890625 1928:1.0 
1.0 13:1.0 
1.0 16:1.0 
1.0 1934:1.0 
1.0 1935:1.0 
1.0 13:1.0 
0.5087890625 1936:1.0 
1.0 883:1.0 
1.0 1938:1.0 
1.0 1122:1.0 
1.0 883:1.0 
0.5087890625 1940:1.0 
1.0 1940:1.0 
1.0 30:1.0 
1.0 13:1.0 
1.0 1936:1.0 
1.0 37:1.0 
1.0 565:1.0 
1.0 883:1.0 
1.0 1944:1.0 
1.0 883:1.0 
1.0 1196:1.0 
0.5087890625 1930:1.0 
1.0 1948:1.0 
1.0 13:1.0 
1.0 1949:1.0 
1.0 1923:1.0 
1.0 1928:1.0 
1.0 13:1.0 
1.0 253:1.0 
1.0 1954:1.0 
1.0 142:1.0 
1.0 478:1.0 
1.0 37:1.0 
1.0 1958:1.0 
1.0 1959:1.0 
0.5087890625 494:1.0 
0.5087890625 201:1.0 
1.0 1:1.0 
1.0 113:1.0 
1.0 543:1.0 
1.0 543:1.0 
1.0 232:1.0 
1.0 1962:1.0 
1.0 1:1.0 
1.0 239:1.0 
1.0 998:1.0 
1.0 1968:1.0 
1.0 1185:1.0 
1.0 37:1.0 
1.0 1972:1.0 
1.0 1973:1.0 
1.0 13:1.0 
1.0 883:1.0 
1.0 338:1.0 
0.5087890625 1874:1.0 
1.0 883:1.0 
0.5087890625 1981:1.0 
1.0 1982:1.0 
1.0 207:1.0 
1.0 1985:1.0 
1.0 1985:1.0 
1.0 117:1.0 
1.0 342:1.0 
1.0 117:1.0 
1.0 1986:1.0 
0.5087890625 1384:1.0 
1.0 9:1.0 
1.0 1874:1.0 
1.0 26:1.0 
1.0 740:1.0 
1.0 34:1.0 
1.0 136:1.0 
1.0 1996:1.0 
1.0 478:1.0 
1.0 1998:1.0 
1.0 232:1.0 
1.0 46:1.0 
1.0 109:1.0 
1.0 37:1.0 
1.0 1922:1.0 
1.0 1558:1.0 
1.0 2002:1.0 
1.0 202:1.0 
1.0 1930:1.0 
0.5087890625 2003:1.0 
1.0 253:1.0 
1.0 253:1.0 
1.0 37:1.0 
1.0 793:1.0 
1.0 253:1.0 
1.0 37:1.0 
1.0 983:1.0 
1.0 37:1.0 
1.0 37:1.0 
1.0 117:1.0 
1.0 851:1.0 
1.0 46:1.0 
1.0 37:1.0 
1.0 37:1.0 
1.0 9:1.0 
1.0 37:1.0 
1.0 136:1.0 
1.0 2012:1.0 
1.0 224:1.0 
1.0 1498:1.0 
1.0 2014:1.0 
1.0 695:1.0 
1.0 695:1.0 
1.0 201:1.0 
1.0 37:1.0 
1.0 1765:1.0 
0.5087890625 2019:1.0 
1.0 37:1.0 
1.0 2022:1.0 
1.0 202:1.0 
1.0 37:1.0 
1.0 13:1.0 
1.0 702:1.0 
1.0 13:1.0 
1.0 13:1.0 
0.5087890625 2028:1.0 
0.5087890625 559:1.0 
1.0 4:1.0 
1.0 2031:1.0 
0.5087890625 2032:1.0 
1.0 559:1.0 
1.0 4:1.0 
1.0 2036:1.0 
0.5087890625 1760:1.0 
1.0 1175:1.0 
1.0 702:1.0 
1.0 27:1.0 
1.0 883:1.0 
1.0 2041:1.0 
1.0 27:1.0 
1.0 27:1.0 
1.0 813:1.0 
0.5087890625 1553:1.0 
1.0 13:1.0 
1.0 554:1.0 
1.0 883:1.0 
0.5087890625 2039:1.0 
1.0 13:1.0 
1.0 1585:1.0 
1.0 369:1.0 
0.5087890625 1302:1.0 
0.5087890625 2047:1.0 
1.0 2048:1.0 
1.0 1524:1.0 
1.0 2051:1.0 
1.0 1308:1.0 
1.0 27:1.0 
1.0 18:1.0 
1.0 2047:1.0 
1.0 2057:1.0 
1.0 2058:1.0 
1.0 204:1.0 
1.0 2060:1.0 
1.0 128:1.0 
1.0 2068:1.0 
1.0 2073:1.0 
1.0 2074:1.0 
1.0 652:1.0 
1.0 702:1.0 
1.0 2082:1.0 
1.0 2085:1.0 
1.0 702:1.0 
1.0 9:1.0 
1.0 1293:1.0 
1.0 1353:1.0 
1.0 629:1.0 
1.0 696:1.0 
1.0 2095:1.0 
1.0 472:1.0 
1.0 1524:1.0 
1.0 1518:1.0 
1.0 113:1.0 
1.0 37:1.0 
0.5087890625 2106:1.0 
1.0 232:1.0 
0.5087890625 665:1.0 
1.0 2110:1.0 
0.5087890625 1132:1.0 
1.0 2112:1.0 
1.0 2113:1.0 
1.0 2098:1.0 
1.0 34:1.0 
1.0 654:1.0 
1.0 1479:1.0 
1.0 1973:1.0 
1.0 43:1.0 
1.0 24:1.0 
1.0 46:1.0 
1.0 2123:1.0 
1.0 2124:1.0 
1.0 1307:1.0 
1.0 232:1.0 
1.0 18:1.0 
0.5087890625 2130:1.0 
1.0 367:1.0 
0.5087890625 1794:1.0 
0.5087890625 1013:1.0 
1.0 239:1.0 
1.0 547:1.0 
1.0 13:1.0 
1.0 745:1.0 
1.0 695:1.0 
1.0 232:1.0 
1.0 109:1.0 
0.5087890625 857:1.0 
0.5087890625 1031:1.0 
1.0 695:1.0 
1.0 1116:1.0 
1.0 13:1.0 
1.0 1481:1.0 
1.0 1543:1.0 
1.0 1122:1.0 
1.0 1122:1.0 
1.0 103:1.0 
1.0 324:1.0 
1.0 1920:1.0 
1.0 232:1.0 
1.0 13:1.0 
1.0 1543:1.0 
1.0 2167:1.0 
1.0 41:1.0 
1.0 13:1.0 
1.0 1743:1.0 
1.0 2172:1.0 
1.0 13:1.0 
1.0 109:1.0 
1.0 13:1.0 
1.0 18:1.0 
0.5087890625 2054:1.0 
1.0 1204:1.0 
1.0 13:1.0 
1.0 883:1.0 
0.5087890625 2196:1.0 
0.5087890625 2197:1.0 
0.5087890625 2198:1.0 
1.0 527:1.0 
1.0 2199:1.0 
1.0 1042:1.0 
1.0 2124:1.0 
1.0 2201:1.0 
1.0 2196:1.0 
1.0 1353:1.0 
0.5087890625 1094:1.0 
1.0 594:1.0 
1.0 13:1.0 
1.0 1699:1.0 
1.0 891:1.0 
1.0 27:1.0 
0.5087890625 1799:1.0 
0.5087890625 673:1.0 
0.5087890625 2212:1.0 
1.0 779:1.0 
1.0 2214:1.0 
1.0 740:1.0 
1.0 13:1.0 
1.0 3:1.0 
1.0 109:1.0 
0.5087890625 336:1.0 
1.0 1799:1.0 
1.0 13:1.0 
1.0 13:1.0 
0.5087890625 1710:1.0 
1.0 30:1.0 
0.5087890625 2220:1.0 
1.0 13:1.0 
1.0 2221:1.0 
1.0 113:1.0 
1.0 2220:1.0 
0.5087890625 211:1.0 
1.0 1:1.0 
0.5087890625 2223:1.0 
1.0 13:1.0 
1.0 13:1.0 
0.5087890625 544:1.0 
1.0 244:1.0 
1.0 229:1.0 
1.0 6:1.0 
1.0 1243:1.0 
0.5087890625 2236:1.0 
1.0 26:1.0 
1.0 2240:1.0 
1.0 795:1.0 
1.0 742:1.0 
1.0 1765:1.0 
1.0 13:1.0 
1.0 13:1.0 
1.0 2246:1.0 
1.0 13:1.0 
0.5087890625 2250:1.0 
1.0 338:1.0 
1.0 629:1.0 
1.0 93:1.0 
1.0 2252:1.0 
1.0 652:1.0 
1.0 1404:1.0 
1.0 472:1.0 
0.5087890625 1210:1.0 
1.0 475:1.0 
1.0 13:1.0 
1.0 2262:1.0 
1.0 475:1.0 
1.0 1477:1.0 
1.0 1474:1.0 
1.0 13:1.0 
1.0 136:1.0 
1.0 13:1.0 
1.0 652:1.0 
1.0 1616:1.0 
1.0 2270:1.0 
1.0 567:1.0 
1.0 252:1.0 
1.0 547:1.0 
1.0 2276:1.0 
0.5087890625 2268:1.0 
0.5087890625 415:1.0 
1.0 2281:1.0 
1.0 136:1.0 
1.0 2282:1.0 
1.0 2124:1.0 
0.5087890625 2163:1.0 
1.0 2290:1.0 
1.0 2291:1.0 
0.5087890625 2292:1.0 
0.5087890625 358:1.0 
0.5087890625 87:1.0 
1.0 293:1.0 
1.0 760:1.0 
1.0 231:1.0 
1.0 293:1.0 
1.0 293:1.0 
1.0 1534:1.0 
1.0 1085:1.0 
1.0 9:1.0 
1.0 24:1.0 
1.0 2304:1.0 
1.0 1:1.0 
1.0 2305:1.0 
1.0 2306:1.0 
1.0 2308:1.0 
1.0 1419:1.0 
1.0 2309:1.0 
1.0 2310:1.0 
1.0 940:1.0 
1.0 683:1.0 
1.0 1263:1.0 
1.0 24:1.0 
1.0 813:1.0 
0.5087890625 1172:1.0 
1.0 629:1.0 
1.0 883:1.0 
1.0 336:1.0 
1.0 13:1.0 
1.0 44:1.0 
1.0 1778:1.0 
1.0 18:1.0 
1.0 983:1.0 
1.0 2319:1.0 
1.0 2321:1.0 
0.5087890625 648:1.0 
1.0 2328:1.0 
1.0 2334:1.0 
0.5087890625 508:1.0 
1.0 23:1.0 
1.0 44:1.0 
1.0 527:1.0 
1.0 2338:1.0 
1.0 2339:1.0 
1.0 2340:1.0 
1.0 13:1.0 
1.0 2342:1.0 
1.0 2343:1.0 
1.0 2345:1.0 
1.0 849:1.0 
1.0 2348:1.0 
0.5087890625 580:1.0 
1.0 18:1.0 
1.0 983:1.0 
1.0 2349:1.0 
1.0 251:1.0 
1.0 2350:1.0 
1.0 648:1.0 
1.0 2352:1.0 
1.0 1509:1.0 
1.0 2358:1.0 
0.5087890625 959:1.0 
1.0 1509:1.0 
0.5087890625 2347:1.0 
0.5087890625 2363:1.0 
1.0 1439:1.0 
1.0 1132:1.0 
1.0 2379:1.0 
1.0 2390:1.0 
1.0 2392:1.0 
1.0 316:1.0 
1.0 2396:1.0 
0.5087890625 607:1.0 
1.0 201:1.0 
1.0 2399:1.0 
1.0 9:1.0 
1.0 2401:1.0 
1.0 2408:1.0 
1.0 26:1.0 
1.0 24:1.0 
1.0 355:1.0 
0.5087890625 2404:1.0 
1.0 750:1.0 
1.0 433:1.0 
1.0 2411:1.0 
1.0 239:1.0 
1.0 2414:1.0 
1.0 1009:1.0 
1.0 2415:1.0 
1.0 2417:1.0 
1.0 26:1.0 
1.0 1204:1.0 
1.0 2418:1.0 
1.0 87:1.0 
1.0 2423:1.0 
1.0 2424:1.0 
1.0 2425:1.0 
1.0 2428:1.0 
0.5087890625 2406:1.0 
0.5087890625 2436:1.0 
0.5087890625 1121:1.0 
1.0 2446:1.0 
1.0 899:1.0 
0.5087890625 1035:1.0 
1.0 899:1.0 
1.0 2453:1.0 
1.0 899:1.0 
1.0 2446:1.0 
1.0 2446:1.0 
0.5087890625 2455:1.0 
1.0 2457:1.0 
1.0 2470:1.0 
1.0 2472:1.0 
0.5087890625 1991:1.0 
1.0 2479:1.0 
0.5087890625 2480:1.0 
1.0 2481:1.0 
1.0 702:1.0 
0.5087890625 2484:1.0 
1.0 2486:1.0 
0.5087890625 2487:1.0 
1.0 229:1.0 
1.0 24:1.0 
1.0 433:1.0 
0.5087890625 442:1.0 
1.0 2492:1.0 
1.0 2494:1.0 
1.0 2496:1.0 
1.0 2487:1.0 
1.0 24:1.0 
1.0 2498:1.0 
1.0 2500:1.0 
1.0 442:1.0 
1.0 2505:1.0 
1.0 2506:1.0 
1.0 442:1.0 
1.0 2404:1.0 
1.0 433:1.0 
0.5087890625 2508:1.0 
1.0 2509:1.0 
0.5087890625 896:1.0 
0.5087890625 2516:1.0 
1.0 2516:1.0 
1.0 355:1.0 
0.5087890625 2521:1.0 
1.0 142:1.0 
1.0 472:1.0 
1.0 431:1.0 
1.0 37:1.0 
1.0 2526:1.0 
1.0 2527:1.0 
1.0 2528:1.0 
1.0 680:1.0 
1.0 472:1.0 
1.0 2500:1.0 
1.0 2532:1.0 
1.0 2508:1.0 
0.5087890625 2461:1.0 
1.0 1035:1.0 
0.5087890625 2533:1.0 
1.0 27:1.0 
1.0 224:1.0 
1.0 2538:1.0 
0.5087890625 1036:1.0 
1.0 1036:1.0 
1.0 1035:1.0 
1.0 2541:1.0 
1.0 2542:1.0 
1.0 37:1.0 
1.0 680:1.0 
1.0 2543:1.0 
1.0 2500:1.0 
1.0 252:1.0 
1.0 2544:1.0 
1.0 2547:1.0 
1.0 2549:1.0 
1.0 979:1.0 
1.0 2552:1.0 
1.0 654:1.0 
1.0 2481:1.0 
1.0 433:1.0 
1.0 9:1.0 
1.0 2498:1.0 
1.0 2538:1.0 
1.0 994:1.0 
1.0 26:1.0 
1.0 26:1.0 
1.0 275:1.0 
0.5087890625 2560:1.0 
1.0 2561:1.0 
1.0 224:1.0 
1.0 378:1.0 
1.0 2567:1.0 
0.5087890625 2569:1.0 
1.0 567:1.0 
1.0 472:1.0 
0.5087890625 2444:1.0 
1.0 1035:1.0 
0.5087890625 165:1.0 
0.5087890625 2579:1.0 
1.0 2514:1.0 
1.0 2586:1.0 
1.0 567:1.0 
1.0 2567:1.0 
1.0 654:1.0 
1.0 2591:1.0 
1.0 3:1.0 
1.0 2593:1.0 
1.0 2514:1.0 
1.0 740:1.0 
0.5087890625 2594:1.0 
1.0 2599:1.0 
0.5087890625 2600:1.0 
1.0 2538:1.0 
1.0 2610:1.0 
1.0 543:1.0 
1.0 2624:1.0 
1.0 1973:1.0 
1.0 367:1.0 
1.0 2639:1.0 
1.0 2579:1.0 
0.5087890625 2443:1.0 
0.5087890625 399:1.0 
1.0 750:1.0 
1.0 2418:1.0 
1.0 673:1.0 
1.0 946:1.0 
1.0 673:1.0 
0.5087890625 1547:1.0 
0.5087890625 2388:1.0 
1.0 508:1.0 
0.5087890625 797:1.0 
0.5087890625 956:1.0 
1.0 1675:1.0 
1.0 316:1.0 
1.0 2680:1.0 
1.0 795:1.0 
1.0 2681:1.0 
1.0 2252:1.0 
1.0 956:1.0 
1.0 2695:1.0 
1.0 2696:1.0 
1.0 2543:1.0 
1.0 2436:1.0 
1.0 622:1.0 
1.0 2724:1.0 
0.5087890625 2725:1.0 
1.0 113:1.0 
1.0 2418:1.0 
0.5087890625 115:1.0 
0.5087890625 2615:1.0 
1.0 2735:1.0 
1.0 2739:1.0 
0.5087890625 452:1.0 
1.0 9:1.0 
1.0 2262:1.0 
1.0 2761:1.0 
0.5087890625 2765:1.0 
0.5087890625 2766:1.0 
1.0 2588:1.0 
1.0 2768:1.0 
1.0 2059:1.0 
1.0 298:1.0 
1.0 2770:1.0 
1.0 2771:1.0 
1.0 204:1.0 
1.0 2772:1.0 
1.0 252:1.0 
1.0 2481:1.0 
1.0 816:1.0 
1.0 253:1.0 
1.0 2773:1.0 
1.0 252:1.0 
1.0 1196:1.0 
1.0 2557:1.0 
1.0 113:1.0 
1.0 117:1.0 
1.0 2772:1.0 
1.0 13:1.0 
1.0 298:1.0 
1.0 13:1.0 
1.0 41:1.0 
1.0 298:1.0 
1.0 2779:1.0 
1.0 316:1.0 
1.0 298:1.0 
1.0 13:1.0 
1.0 2784:1.0 
1.0 2786:1.0 
0.5087890625 2787:1.0 
1.0 2788:1.0 
1.0 472:1.0 
1.0 838:1.0 
1.0 2791:1.0 
1.0 2793:1.0 
1.0 2794:1.0 
1.0 37:1.0 
1.0 207:1.0 
1.0 2059:1.0 
1.0 549:1.0 
1.0 2799:1.0 
1.0 13:1.0 
1.0 298:1.0 
1.0 2772:1.0 
1.0 2788:1.0 
1.0 13:1.0 
1.0 13:1.0 
1.0 549:1.0 
1.0 41:1.0 
1.0 2773:1.0 
1.0 298:1.0 
1.0 298:1.0 
1.0 2813:1.0 
1.0 13:1.0 
1.0 2816:1.0 
1.0 629:1.0 
1.0 9:1.0 
1.0 433:1.0 
1.0 543:1.0 
1.0 2816:1.0 
1.0 2498:1.0 
1.0 2477:1.0 
1.0 2823:1.0 
1.0 252:1.0 
1.0 782:1.0 
1.0 750:1.0 
1.0 2826:1.0 
1.0 252:1.0 
0.5087890625 2809:1.0 
1.0 13:1.0 
1.0 1555:1.0 
1.0 252:1.0 
1.0 2829:1.0 
1.0 2831:1.0 
1.0 1543:1.0 
1.0 2569:1.0 
1.0 2833:1.0 
1.0 816:1.0 
1.0 2772:1.0 
1.0 838:1.0 
1.0 2390:1.0 
1.0 2835:1.0 
1.0 200:1.0 
1.0 460:1.0 
1.0 13:1.0 
1.0 2837:1.0 
1.0 883:1.0 
1.0 1477:1.0 
1.0 472:1.0 
1.0 41:1.0 
1.0 1861:1.0 
1.0 18:1.0 
1.0 628:1.0 
1.0 2845:1.0 
1.0 10:1.0 
1.0 45:1.0 
1.0 2847:1.0 
1.0 159:1.0 
1.0 2849:1.0 
1.0 953:1.0 
1.0 2761:1.0 
1.0 2851:1.0 
1.0 2761:1.0 
1.0 2794:1.0 
1.0 2853:1.0 
1.0 2854:1.0 
1.0 2456:1.0 
0.5087890625 2861:1.0 
1.0 2865:1.0 
1.0 2761:1.0 
1.0 702:1.0 
1.0 702:1.0 
0.5087890625 688:1.0 
1.0 2870:1.0 
1.0 2871:1.0 
1.0 2872:1.0 
1.0 2874:1.0 
1.0 2876:1.0 
0.5087890625 2877:1.0 
1.0 2028:1.0 
0.5087890625 2879:1.0 
1.0 2880:1.0 
1.0 2876:1.0 
0.5087890625 2763:1.0 
1.0 2795:1.0 
1.0 2871:1.0 
0.5087890625 911:1.0 
1.0 2888:1.0 
1.0 2889:1.0 
1.0 2763:1.0 
1.0 561:1.0 
1.0 2847:1.0 
1.0 200:1.0 
1.0 2059:1.0 
1.0 2766:1.0 
1.0 200:1.0 
1.0 2763:1.0 
1.0 2865:1.0 
1.0 2761:1.0 
1.0 2763:1.0 
1.0 13:1.0 
1.0 2851:1.0 
1.0 2761:1.0 
1.0 2763:1.0 
1.0 13:1.0 
1.0 2763:1.0 
0.5087890625 168:1.0 
1.0 2849:1.0 
1.0 1364:1.0 
1.0 2895:1.0 
0.5087890625 1123:1.0 
1.0 2896:1.0 
1.0 13:1.0 
1.0 2897:1.0 
1.0 298:1.0 
1.0 13:1.0 
1.0 1743:1.0 
1.0 673:1.0 
1.0 2809:1.0 
1.0 252:1.0 
1.0 1765:1.0 
1.0 2899:1.0 
1.0 2763:1.0 
1.0 2763:1.0 
1.0 41:1.0 
1.0 1035:1.0 
1.0 2901:1.0 
0.5087890625 2904:1.0 
1.0 74:1.0 
1.0 13:1.0 
1.0 200:1.0 
1.0 2763:1.0 
1.0 503:1.0 
1.0 2763:1.0 
1.0 18:1.0 
1.0 2906:1.0 
1.0 2909:1.0 
1.0 316:1.0 
1.0 6:1.0 
1.0 2910:1.0 
1.0 2911:1.0 
1.0 13:1.0 
1.0 2912:1.0 
1.0 1024:1.0 
1.0 2917:1.0 
0.5087890625 2918:1.0 
1.0 2833:1.0 
1.0 433:1.0 
1.0 442:1.0 
1.0 37:1.0 
1.0 433:1.0 
1.0 41:1.0 
1.0 813:1.0 
1.0 442:1.0 
1.0 316:1.0 
1.0 2829:1.0 
1.0 1062:1.0 
1.0 2833:1.0 
1.0 316:1.0 
1.0 2940:1.0 
1.0 442:1.0 
1.0 1119:1.0 
1.0 442:1.0 
0.5087890625 1150:1.0 
1.0 2130:1.0 
0.5087890625 2969:1.0 
1.0 2970:1.0 
1.0 2971:1.0 
1.0 442:1.0 
0.5087890625 1574:1.0 
1.0 1663:1.0 
1.0 115:1.0 
1.0 2980:1.0 
1.0 2833:1.0 
1.0 1041:1.0 
1.0 2993:1.0 
1.0 2130:1.0 
1.0 442:1.0 
0.5087890625 1309:1.0 
1.0 1309:1.0 
1.0 2993:1.0 
1.0 433:1.0 
0.5087890625 3011:1.0 
1.0 452:1.0 
1.0 442:1.0 
0.5087890625 3019:1.0 
1.0 940:1.0 
1.0 2481:1.0 
1.0 433:1.0 
0.5087890625 2677:1.0 
1.0 433:1.0 
1.0 2492:1.0 
0.5087890625 768:1.0 
1.0 250:1.0 
1.0 2461:1.0 
1.0 37:1.0 
1.0 442:1.0 
1.0 3042:1.0 
1.0 3044:1.0 
1.0 335:1.0 
1.0 316:1.0 
1.0 2130:1.0 
1.0 3055:1.0 
1.0 325:1.0 
1.0 3056:1.0 
1.0 2833:1.0 
1.0 442:1.0 
1.0 3057:1.0 
1.0 997:1.0 
0.5087890625 1191:1.0 
1.0 37:1.0 
1.0 433:1.0 
1.0 37:1.0 
1.0 1812:1.0 
1.0 1812:1.0 
1.0 433:1.0 
0.5087890625 3076:1.0 
1.0 3078:1.0 
1.0 3079:1.0 
1.0 334:1.0 
1.0 1579:1.0 
1.0 2494:1.0 
1.0 37:1.0 
1.0 1191:1.0 
1.0 2494:1.0 
0.5087890625 2580:1.0 
1.0 2492:1.0 
1.0 851:1.0 
1.0 2580:1.0 
0.5087890625 3106:1.0 
0.5087890625 3108:1.0 
0.5087890625 1956:1.0 
1.0 3011:1.0 
1.0 998:1.0 
0.5087890625 1396:1.0 
1.0 1309:1.0 
1.0 998:1.0 
0.5087890625 1073:1.0 
1.0 1132:1.0 
1.0 37:1.0 
1.0 37:1.0 
1.0 3128:1.0 
1.0 3138:1.0 
1.0 3139:1.0 
1.0 1354:1.0 
1.0 2252:1.0 
1.0 3141:1.0 
0.5087890625 1623:1.0 
1.0 881:1.0 
1.0 348:1.0 
1.0 3156:1.0 
1.0 360:1.0 
1.0 3128:1.0 
1.0 3160:1.0 
1.0 3161:1.0 
0.5087890625 3162:1.0 
0.5087890625 3165:1.0 
0.5087890625 3167:1.0 
1.0 3168:1.0 
1.0 452:1.0 
1.0 160:1.0 
1.0 997:1.0 
1.0 3186:1.0 
1.0 3187:1.0 
0.5087890625 2:1.0 
1.0 3189:1.0 
1.0 1434:1.0 
1.0 335:1.0 
1.0 184:1.0 
1.0 379:1.0 
1.0 187:1.0 
1.0 1566:1.0 
1.0 2019:1.0 
1.0 316:1.0 
0.5087890625 2478:1.0 
1.0 702:1.0 
1.0 2338:1.0 
1.0 702:1.0 
1.0 415:1.0 
1.0 2763:1.0 
1.0 2461:1.0 
1.0 1354:1.0 
1.0 997:1.0 
1.0 2481:1.0 
0.5087890625 3207:1.0 
1.0 3208:1.0 
1.0 3209:1.0 
1.0 3006:1.0 
1.0 3212:1.0 
1.0 702:1.0 
1.0 3214:1.0 
1.0 3167:1.0 
1.0 1309:1.0 
1.0 3218:1.0 
1.0 2478:1.0 
1.0 187:1.0 
1.0 184:1.0 
1.0 184:1.0 
1.0 558:1.0 
1.0 335:1.0 
1.0 795:1.0 
1.0 2725:1.0 
1.0 335:1.0 
1.0 1566:1.0 
1.0 335:1.0 
1.0 782:1.0 
0.5087890625 3229:1.0 
1.0 782:1.0 
0.5087890625 1688:1.0 
1.0 168:1.0 
1.0 335:1.0 
1.0 3230:1.0 
1.0 1309:1.0 
0.5087890625 482:1.0 
1.0 3237:1.0 
1.0 2935:1.0 
1.0 3241:1.0 
1.0 2481:1.0 
1.0 3242:1.0 
0.5087890625 3243:1.0 
1.0 168:1.0 
1.0 37:1.0 
1.0 1962:1.0 
1.0 567:1.0 
0.5087890625 1990:1.0 
1.0 2481:1.0 
0.5087890625 2312:1.0 
0.5087890625 2815:1.0 
1.0 2481:1.0 
1.0 2481:1.0 
1.0 2481:1.0 
1.0 461:1.0 
1.0 168:1.0 
0.5087890625 469:1.0 
1.0 200:1.0 
1.0 2461:1.0 
1.0 1973:1.0 
1.0 3275:1.0 
1.0 3280:1.0 
0.5087890625 3281:1.0 
1.0 478:1.0 
1.0 200:1.0 
1.0 469:1.0 
1.0 461:1.0 
0.5087890625 305:1.0 
1.0 469:1.0 
1.0 375:1.0 
1.0 168:1.0 
1.0 452:1.0 
1.0 973:1.0 
1.0 469:1.0 
1.0 2763:1.0 
1.0 940:1.0 
0.5087890625 263:1.0 
1.0 1119:1.0 
1.0 452:1.0 
1.0 2478:1.0 
1.0 1009:1.0 
1.0 253:1.0 
1.0 469:1.0 
1.0 3317:1.0 
1.0 469:1.0 
1.0 37:1.0 
1.0 1396:1.0 
1.0 2481:1.0 
1.0 2677:1.0 
1.0 3322:1.0 
1.0 2478:1.0 
0.5087890625 2564:1.0 
1.0 335:1.0 
1.0 469:1.0 
1.0 2478:1.0 
1.0 469:1.0 
1.0 2481:1.0 
1.0 2833:1.0 
1.0 2478:1.0 
1.0 3335:1.0 
1.0 2130:1.0 
1.0 2478:1.0 
1.0 2481:1.0 
1.0 316:1.0 
1.0 200:1.0 
1.0 200:1.0 
1.0 768:1.0 
1.0 2481:1.0 
1.0 2478:1.0 
1.0 200:1.0 
1.0 200:1.0 
1.0 1123:1.0 
1.0 375:1.0 
1.0 367:1.0 
1.0 2828:1.0 
1.0 200:1.0 
1.0 375:1.0 
1.0 200:1.0 
1.0 2461:1.0 
1.0 2828:1.0 
1.0 2481:1.0 
1.0 2252:1.0 
1.0 3353:1.0 
1.0 928:1.0 
1.0 679:1.0 
1.0 367:1.0 
1.0 2481:1.0 
1.0 367:1.0 
1.0 3275:1.0 
1.0 200:1.0 
0.5087890625 990:1.0 
1.0 3380:1.0 
1.0 200:1.0 
1.0 2828:1.0 
0.5087890625 3383:1.0 
1.0 3385:1.0 
1.0 367:1.0 
1.0 335:1.0 
1.0 2828:1.0 
1.0 3383:1.0 
1.0 2481:1.0 
1.0 1396:1.0 
1.0 1172:1.0 
1.0 2446:1.0 
1.0 461:1.0 
1.0 2982:1.0 
1.0 3399:1.0 
0.5087890625 3400:1.0 
1.0 2481:1.0 
1.0 3281:1.0 
1.0 3402:1.0 
1.0 1084:1.0 
1.0 3404:1.0 
1.0 3404:1.0 
1.0 3404:1.0 
1.0 335:1.0 
1.0 461:1.0 
0.5087890625 3391:1.0 
1.0 2481:1.0 
1.0 1404:1.0 
1.0 3420:1.0 
1.0 1354:1.0 
0.5087890625 1025:1.0 
1.0 3186:1.0 
1.0 973:1.0 
1.0 3385:1.0 
0.5087890625 3327:1.0 
1.0 3438:1.0 
1.0 449:1.0 
0.5087890625 2936:1.0 
1.0 2481:1.0 
1.0 3439:1.0 
1.0 3440:1.0 
1.0 3442:1.0 
1.0 940:1.0 
1.0 3447:1.0 
1.0 314:1.0 
1.0 2481:1.0 
1.0 3457:1.0 
1.0 2478:1.0 
1.0 37:1.0 
1.0 1150:1.0 
1.0 2481:1.0 
1.0 3327:1.0 
1.0 2478:1.0 
1.0 1309:1.0 
0.5087890625 3461:1.0 
1.0 2580:1.0 
1.0 1191:1.0 
1.0 2478:1.0 
0.5087890625 3196:1.0 
1.0 1191:1.0 
1.0 469:1.0 
0.5087890625 3465:1.0 
1.0 433:1.0 
0.5087890625 500:1.0 
0.5087890625 3470:1.0 
1.0 316:1.0 
1.0 1991:1.0 
1.0 2481:1.0 
1.0 2763:1.0 
1.0 355:1.0 
1.0 2569:1.0 
0.5087890625 2286:1.0 
1.0 311:1.0 
1.0 314:1.0 
1.0 777:1.0 
0.5087890625 2513:1.0 
1.0 1252:1.0 
1.0 335:1.0 
1.0 1243:1.0 
0.5087890625 3430:1.0 
1.0 335:1.0 
1.0 997:1.0 
1.0 335:1.0 
1.0 311:1.0 
1.0 311:1.0 
1.0 680:1.0 
0.5087890625 1492:1.0 
1.0 478:1.0 
1.0 2813:1.0 
0.5087890625 3494:1.0 
1.0 87:1.0 
1.0 1616:1.0 
1.0 96:1.0 
0.5087890625 3496:1.0 
0.5087890625 948:1.0 
1.0 896:1.0 
1.0 2813:1.0 
1.0 1243:1.0 
0.5087890625 3094:1.0 
1.0 335:1.0 
1.0 1311:1.0 
0.5087890625 2248:1.0 
0.5087890625 2395:1.0 
1.0 3186:1.0 
0.5087890625 3507:1.0 
1.0 3239:1.0 
1.0 37:1.0 
1.0 1204:1.0 
0.5087890625 3478:1.0 
1.0 335:1.0 
1.0 3520:1.0 
1.0 335:1.0 
1.0 2793:1.0 
0.5087890625 1213:1.0 
1.0 3430:1.0 
1.0 3527:1.0 
1.0 3528:1.0 
1.0 3430:1.0 
1.0 2252:1.0 
1.0 2936:1.0 
1.0 2569:1.0 
1.0 1309:1.0 
1.0 3094:1.0 
1.0 702:1.0 
1.0 37:1.0 
1.0 360:1.0 
1.0 2763:1.0 
1.0 2763:1.0 
1.0 2763:1.0 
1.0 2851:1.0 
1.0 2761:1.0 
1.0 3020:1.0 
1.0 3536:1.0 
1.0 2761:1.0 
1.0 688:1.0 
1.0 2763:1.0 
1.0 2763:1.0 
1.0 375:1.0 
1.0 543:1.0 
0.5087890625 3067:1.0 
1.0 3430:1.0 
1.0 2763:1.0 
1.0 2763:1.0 
1.0 2763:1.0 
1.0 2761:1.0 
1.0 2763:1.0 
0.5087890625 1275:1.0 
1.0 3557:1.0 
0.5087890625 504:1.0 
0.5087890625 3564:1.0 
1.0 990:1.0 
1.0 3565:1.0 
1.0 3568:1.0 
1.0 3571:1.0 
1.0 3572:1.0 
1.0 494:1.0 
1.0 2725:1.0 
1.0 452:1.0 
0.5087890625 1357:1.0 
1.0 795:1.0 
1.0 3582:1.0 
0.5087890625 2842:1.0 
1.0 2600:1.0 
0.5087890625 1647:1.0 
1.0 3585:1.0 
1.0 1346:1.0 
1.0 452:1.0 
1.0 2761:1.0 
1.0 3588:1.0 
0.5087890625 3593:1.0 
1.0 3598:1.0 
1.0 2851:1.0 
1.0 1354:1.0 
1.0 3606:1.0 
1.0 1188:1.0 
0.5087890625 597:1.0 
1.0 1675:1.0 
1.0 263:1.0 
1.0 896:1.0 
1.0 504:1.0 
0.5087890625 1070:1.0 
1.0 335:1.0 
0.5087890625 2181:1.0 
0.5087890625 3145:1.0 
1.0 37:1.0 
1.0 2458:1.0 
1.0 504:1.0 
0.5087890625 2944:1.0 
0.5087890625 980:1.0 
1.0 1481:1.0 
0.5087890625 1546:1.0 
1.0 1546:1.0 
1.0 3642:1.0 
0.5087890625 185:1.0 
1.0 168:1.0 
1.0 619:1.0 
1.0 449:1.0 
1.0 3507:1.0 
0.5087890625 82:1.0 
1.0 3662:1.0 
1.0 2761:1.0 
1.0 688:1.0 
0.5087890625 850:1.0 
1.0 2763:1.0 
1.0 2763:1.0 
1.0 1172:1.0 
1.0 2763:1.0 
1.0 3681:1.0 
1.0 1039:1.0 
1.0 983:1.0 
1.0 2763:1.0 
1.0 983:1.0 
1.0 2763:1.0 
1.0 3685:1.0 
1.0 24:1.0 
1.0 335:1.0 
1.0 2763:1.0 
1.0 3186:1.0 
1.0 2763:1.0 
1.0 452:1.0 
1.0 2763:1.0 
1.0 2763:1.0 
1.0 1364:1.0 
1.0 335:1.0 
1.0 3141:1.0 
1.0 1364:1.0 
1.0 335:1.0 
1.0 2763:1.0 
1.0 3141:1.0 
0.5087890625 3525:1.0 
1.0 2763:1.0 
1.0 3475:1.0 
1.0 3536:1.0 
1.0 2763:1.0 
1.0 2763:1.0 
1.0 2181:1.0 
1.0 2763:1.0 
0.5087890625 992:1.0 
1.0 850:1.0 
1.0 1039:1.0 
1.0 2763:1.0 
1.0 2763:1.0 
1.0 3702:1.0 
1.0 335:1.0 
1.0 2763:1.0 
0.5087890625 685:1.0 
1.0 2763:1.0 
1.0 2761:1.0 
1.0 2223:1.0 
1.0 2181:1.0 
1.0 1822:1.0 
1.0 2763:1.0 
1.0 1760:1.0 
1.0 2763:1.0 
1.0 883:1.0 
0.5087890625 3100:1.0 
1.0 2763:1.0 
1.0 576:1.0 
1.0 3709:1.0 
0.5087890625 3534:1.0 
1.0 3681:1.0 
1.0 379:1.0 
1.0 2763:1.0 
1.0 3534:1.0 
1.0 3722:1.0 
1.0 657:1.0 
1.0 2763:1.0 
1.0 983:1.0 
0.5087890625 1370:1.0 
0.5087890625 99:1.0 
1.0 3737:1.0 
1.0 18:1.0 
1.0 27:1.0 
1.0 1094:1.0 
1.0 3701:1.0 
1.0 2944:1.0 
1.0 3740:1.0 
1.0 580:1.0 
1.0 3317:1.0 
1.0 1647:1.0 
1.0 3753:1.0 
1.0 3755:1.0 
0.5087890625 2875:1.0 
1.0 3438:1.0 
0.5087890625 3720:1.0 
1.0 2875:1.0 
1.0 3438:1.0 
1.0 3766:1.0 
1.0 1384:1.0 
0.5087890625 2890:1.0 
1.0 1404:1.0 
1.0 449:1.0 
1.0 3776:1.0 
0.5087890625 3777:1.0 
1.0 3145:1.0 
1.0 1119:1.0 
1.0 250:1.0 
1.0 3100:1.0 
1.0 3779:1.0 
1.0 360:1.0 
1.0 3239:1.0 
1.0 3781:1.0 
1.0 2763:1.0 
1.0 239:1.0 
1.0 2763:1.0 
0.5087890625 609:1.0 
1.0 2763:1.0 
0.5087890625 630:1.0 
1.0 3239:1.0 
1.0 2763:1.0 
0.5087890625 230:1.0 
1.0 2236:1.0 
1.0 1357:1.0 
1.0 1824:1.0 
1.0 795:1.0 
1.0 688:1.0 
1.0 452:1.0 
1.0 232:1.0 
1.0 2842:1.0 
1.0 2497:1.0 
1.0 2935:1.0 
1.0 2763:1.0 
1.0 1175:1.0 
0.5087890625 785:1.0 
1.0 3534:1.0 
1.0 3681:1.0 
1.0 2815:1.0 
1.0 2763:1.0 
1.0 630:1.0 
1.0 3797:1.0 
1.0 2763:1.0 
1.0 82:1.0 
1.0 956:1.0 
1.0 2763:1.0 
0.5087890625 780:1.0 
1.0 1357:1.0 
0.5087890625 848:1.0 
1.0 2765:1.0 
1.0 3494:1.0 
1.0 2763:1.0 
1.0 2763:1.0 
0.5087890625 1575:1.0 
1.0 3805:1.0 
1.0 1357:1.0 
1.0 2763:1.0 
0.5087890625 3807:1.0 
1.0 2763:1.0 
1.0 3812:1.0 
1.0 200:1.0 
1.0 504:1.0 
1.0 3475:1.0 
1.0 311:1.0 
0.5087890625 571:1.0 
1.0 3145:1.0 
0.5087890625 617:1.0 
1.0 2286:1.0 
1.0 2124:1.0 
1.0 504:1.0 
1.0 782:1.0 
1.0 2788:1.0 
1.0 3828:1.0 
1.0 168:1.0 
1.0 3830:1.0 
1.0 37:1.0 
0.5087890625 3102:1.0 
1.0 3833:1.0 
1.0 3835:1.0 
1.0 3838:1.0 
1.0 2816:1.0 
0.5087890625 3018:1.0 
1.0 571:1.0 
1.0 39:1.0 
1.0 2957:1.0 
1.0 2966:1.0 
1.0 3607:1.0 
1.0 9:1.0 
1.0 3607:1.0 
1.0 990:1.0 
1.0 695:1.0 
1.0 39:1.0 
1.0 795:1.0 
1.0 355:1.0 
1.0 99:1.0 
1.0 168:1.0 
1.0 1116:1.0 
1.0 973:1.0 
1.0 311:1.0 
1.0 1062:1.0 
1.0 504:1.0 
0.5087890625 3870:1.0 
1.0 3872:1.0 
1.0 3145:1.0 
1.0 3165:1.0 
1.0 2763:1.0 
1.0 2763:1.0 
1.0 253:1.0 
1.0 3873:1.0 
1.0 1575:1.0 
1.0 2223:1.0 
1.0 3145:1.0 
0.5087890625 3482:1.0 
1.0 113:1.0 
1.0 3878:1.0 
1.0 3879:1.0 
1.0 629:1.0 
0.5087890625 318:1.0 
1.0 316:1.0 
1.0 3145:1.0 
1.0 3891:1.0 
1.0 617:1.0 
1.0 622:1.0 
1.0 2481:1.0 
1.0 795:1.0 
1.0 1546:1.0 
0.5087890625 3895:1.0 
1.0 1579:1.0 
0.5087890625 3721:1.0 
1.0 318:1.0 
1.0 1175:1.0 
1.0 899:1.0 
1.0 617:1.0 
1.0 416:1.0 
1.0 543:1.0 
1.0 168:1.0 
1.0 3330:1.0 
0.5087890625 2269:1.0 
1.0 335:1.0 
0.5087890625 2752:1.0 
0.5087890625 2067:1.0 
1.0 1275:1.0 
1.0 1981:1.0 
1.0 504:1.0 
0.5087890625 575:1.0 
1.0 2815:1.0 
1.0 2815:1.0 
0.5087890625 825:1.0 
1.0 3482:1.0 
1.0 3438:1.0 
0.5087890625 3405:1.0 
1.0 168:1.0 
1.0 3108:1.0 
1.0 2567:1.0 
0.5087890625 3928:1.0 
0.5087890625 2810:1.0 
0.5087890625 2062:1.0 
1.0 3929:1.0 
1.0 3931:1.0 
1.0 2810:1.0 
1.0 990:1.0 
1.0 1575:1.0 
1.0 99:1.0 
0.5087890625 3939:1.0 
0.5087890625 3503:1.0 
0.5087890625 3944:1.0 
1.0 318:1.0 
1.0 3946:1.0 
1.0 3322:1.0 
1.0 168:1.0 
1.0 911:1.0 
1.0 1275:1.0 
1.0 896:1.0 
1.0 3372:1.0 
1.0 3196:1.0 
1.0 848:1.0 
0.5087890625 3617:1.0 
1.0 3833:1.0 
0.5087890625 2941:1.0 
1.0 2941:1.0 
1.0 95:1.0 
1.0 3838:1.0 
1.0 482:1.0 
0.5087890625 3498:1.0 
0.5087890625 1258:1.0 
1.0 2941:1.0 
1.0 3322:1.0 
1.0 3507:1.0 
1.0 3969:1.0 
0.5087890625 3970:1.0 
0.5087890625 3974:1.0 
1.0 3978:1.0 
1.0 335:1.0 
0.5087890625 3983:1.0 
0.5087890625 3987:1.0 
1.0 3988:1.0 
1.0 3990:1.0 
1.0 571:1.0 
1.0 3996:1.0 
1.0 3067:1.0 
1.0 3482:1.0 
1.0 630:1.0 
1.0 1357:1.0 
0.5087890625 4002:1.0 
1.0 1322:1.0 
0.5087890625 3513:1.0 
1.0 4004:1.0 
0.5087890625 4005:1.0 
1.0 4009:1.0 
1.0 4010:1.0 
1.0 4011:1.0 
0.5087890625 757:1.0 
1.0 948:1.0 
0.5087890625 3464:1.0 
1.0 1258:1.0 
1.0 2444:1.0 
1.0 4013:1.0 
0.5087890625 4014:1.0 
1.0 1275:1.0 
0.5087890625 4016:1.0 
1.0 3322:1.0 
1.0 3094:1.0 
1.0 2567:1.0 
1.0 4025:1.0 
1.0 1252:1.0 
1.0 185:1.0 
0.5087890625 2946:1.0 
1.0 1584:1.0 
0.5087890625 588:1.0 
1.0 702:1.0 
0.5087890625 616:1.0 
1.0 2946:1.0 
1.0 899:1.0 
1.0 3974:1.0 
1.0 293:1.0 
1.0 2443:1.0 
1.0 4047:1.0 
1.0 37:1.0 
0.5087890625 2774:1.0 
1.0 39:1.0 
1.0 478:1.0 
1.0 654:1.0 
1.0 318:1.0 
1.0 768:1.0 
0.5087890625 3143:1.0 
1.0 168:1.0 
1.0 768:1.0 
1.0 37:1.0 
1.0 24:1.0 
1.0 23:1.0 
1.0 2957:1.0 
1.0 768:1.0 
1.0 848:1.0 
0.5087890625 1828:1.0 
1.0 9:1.0 
1.0 2181:1.0 
1.0 3944:1.0 
1.0 461:1.0 
1.0 4095:1.0 
1.0 168:1.0 
1.0 3128:1.0 
0.5087890625 1348:1.0 
1.0 24:1.0 
1.0 168:1.0 
1.0 168:1.0 
1.0 3143:1.0 
0.5087890625 3117:1.0 
1.0 2763:1.0 
1.0 316:1.0 
1.0 159:1.0 
1.0 168:1.0 
1.0 298:1.0 
1.0 298:1.0 
1.0 298:1.0 
1.0 298:1.0 
1.0 13:1.0 
1.0 224:1.0 
1.0 27:1.0 
1.0 13:1.0 
1.0 2147:1.0 
1.0 2569:1.0 
1.0 27:1.0 
1.0 883:1.0 
1.0 298:1.0 
0.5087890625 4120:1.0 
1.0 3838:1.0 
1.0 3618:1.0 
1.0 298:1.0 
1.0 2788:1.0 
1.0 2786:1.0 
1.0 2787:1.0 
1.0 2788:1.0 
1.0 433:1.0 
1.0 2498:1.0 
1.0 2477:1.0 
1.0 2823:1.0 
1.0 293:1.0 
1.0 442:1.0 
1.0 2484:1.0 
1.0 128:1.0 
1.0 2966:1.0 
1.0 442:1.0 
1.0 13:1.0 
1.0 13:1.0 
1.0 27:1.0 
1.0 2569:1.0 
1.0 13:1.0 
1.0 2966:1.0 
1.0 1537:1.0 
1.0 461:1.0 
1.0 893:1.0 
1.0 1574:1.0 
0.5087890625 1089:1.0 
0.5087890625 195:1.0 
1.0 27:1.0 
1.0 13:1.0 
1.0 3322:1.0 
1.0 2794:1.0 
1.0 2763:1.0 
1.0 117:1.0 
1.0 2877:1.0 
1.0 2537:1.0 
1.0 504:1.0 
1.0 1150:1.0 
0.5087890625 2471:1.0 
1.0 2564:1.0 
1.0 4162:1.0 
0.5087890625 300:1.0 
1.0 2829:1.0 
1.0 465:1.0 
1.0 13:1.0 
1.0 99:1.0 
1.0 223:1.0 
1.0 4171:1.0 
1.0 4172:1.0 
1.0 2829:1.0 
1.0 1788:1.0 
1.0 857:1.0 
1.0 432:1.0 
1.0 2774:1.0 
1.0 1152:1.0 
1.0 2837:1.0 
1.0 1070:1.0 
1.0 4:1.0 
1.0 224:1.0 
1.0 1220:1.0 
1.0 109:1.0 
1.0 37:1.0 
1.0 4175:1.0 
1.0 476:1.0 
0.5087890625 754:1.0 
1.0 2941:1.0 
1.0 757:1.0 
1.0 1197:1.0 
0.5087890625 315:1.0 
1.0 13:1.0 
1.0 1019:1.0 
1.0 46:1.0 
0.5087890625 1206:1.0 
1.0 2788:1.0 
1.0 2815:1.0 
1.0 2816:1.0 
1.0 9:1.0 
0.5087890625 1478:1.0 
1.0 2816:1.0 
1.0 316:1.0 
1.0 3470:1.0 
1.0 4:1.0 
1.0 1197:1.0 
1.0 2786:1.0 
1.0 2787:1.0 
1.0 2788:1.0 
1.0 2788:1.0 
1.0 1322:1.0 
1.0 315:1.0 
0.5087890625 457:1.0 
1.0 13:1.0 
1.0 616:1.0 
1.0 576:1.0 
1.0 95:1.0 
1.0 757:1.0 
1.0 1119:1.0 
1.0 442:1.0 
1.0 2477:1.0 
1.0 2819:1.0 
1.0 3207:1.0 
1.0 27:1.0 
0.5087890625 781:1.0 
1.0 442:1.0 
0.5087890625 4170:1.0 
1.0 2743:1.0 
0.5087890625 2832:1.0 
1.0 442:1.0 
1.0 2498:1.0 
1.0 316:1.0 
1.0 4:1.0 
1.0 27:1.0 
1.0 630:1.0 
0.5087890625 2807:1.0 
1.0 109:1.0 
1.0 2807:1.0 
1.0 227:1.0 
1.0 2761:1.0 
1.0 4:1.0 
1.0 2763:1.0 
0.5087890625 2987:1.0 
1.0 2763:1.0 
1.0 3807:1.0 
1.0 2763:1.0 
1.0 24:1.0 
0.5087890625 778:1.0 
1.0 616:1.0 
1.0 202:1.0 
1.0 2763:1.0 
1.0 757:1.0 
1.0 2763:1.0 
1.0 597:1.0 
1.0 2849:1.0 
1.0 901:1.0 
1.0 4208:1.0 
1.0 2481:1.0 
1.0 4209:1.0 
1.0 3196:1.0 
1.0 579:1.0 
1.0 4196:1.0 
1.0 543:1.0 
1.0 3221:1.0 
0.5087890625 1156:1.0 
1.0 3141:1.0 
1.0 4220:1.0 
1.0 3018:1.0 
0.5087890625 2769:1.0 
1.0 2481:1.0 
1.0 2763:1.0 
1.0 3020:1.0 
1.0 2739:1.0 
1.0 3302:1.0 
1.0 471:1.0 
1.0 3020:1.0 
1.0 96:1.0 
1.0 168:1.0 
1.0 3020:1.0 
1.0 1370:1.0 
1.0 3302:1.0 
0.5087890625 4233:1.0 
1.0 2395:1.0 
1.0 3678:1.0 
0.5087890625 3048:1.0 
1.0 795:1.0 
1.0 1469:1.0 
1.0 298:1.0 
1.0 433:1.0 
1.0 2481:1.0 
1.0 2833:1.0 
1.0 200:1.0 
1.0 2481:1.0 
1.0 2944:1.0 
1.0 2481:1.0 
0.5087890625 3114:1.0 
1.0 4233:1.0 
1.0 2569:1.0 
1.0 223:1.0 
1.0 500:1.0 
1.0 979:1.0 
1.0 2481:1.0 
1.0 2130:1.0 
1.0 2833:1.0 
0.5087890625 712:1.0 
1.0 2478:1.0 
1.0 2513:1.0 
1.0 2513:1.0 
1.0 2481:1.0 
1.0 4248:1.0 
1.0 3196:1.0 
1.0 3221:1.0 
1.0 2481:1.0 
0.5087890625 1482:1.0 
1.0 3196:1.0 
1.0 768:1.0 
1.0 4253:1.0 
0.5087890625 4254:1.0 
1.0 4254:1.0 
1.0 3020:1.0 
1.0 3303:1.0 
1.0 2478:1.0 
1.0 559:1.0 
1.0 316:1.0 
1.0 2769:1.0 
1.0 2478:1.0 
0.5087890625 1431:1.0 
1.0 797:1.0 
0.5087890625 4207:1.0 
1.0 1175:1.0 
0.5087890625 3283:1.0 
1.0 3221:1.0 
1.0 3221:1.0 
1.0 1025:1.0 
1.0 4207:1.0 
1.0 2058:1.0 
1.0 4264:1.0 
1.0 2481:1.0 
0.5087890625 3504:1.0 
1.0 2833:1.0 
0.5087890625 454:1.0 
0.5087890625 1269:1.0 
1.0 4268:1.0 
1.0 2533:1.0 
0.5087890625 489:1.0 
1.0 4270:1.0 
1.0 3599:1.0 
1.0 3020:1.0 
1.0 37:1.0 
1.0 946:1.0 
1.0 469:1.0 
1.0 4271:1.0 
1.0 1545:1.0 
1.0 142:1.0 
1.0 336:1.0 
1.0 1682:1.0 
0.5087890625 2915:1.0 
1.0 1482:1.0 
1.0 3020:1.0 
1.0 3385:1.0 
0.5087890625 2473:1.0 
1.0 3020:1.0 
1.0 2739:1.0 
1.0 883:1.0 
1.0 742:1.0 
1.0 2761:1.0 
1.0 96:1.0 
1.0 2481:1.0 
1.0 795:1.0 
1.0 367:1.0 
1.0 2478:1.0 
0.5087890625 217:1.0 
1.0 2481:1.0 
1.0 1123:1.0 
1.0 3321:1.0 
0.5087890625 4054:1.0 
1.0 2338:1.0 
1.0 4278:1.0 
1.0 469:1.0 
1.0 3020:1.0 
1.0 3303:1.0 
1.0 2473:1.0 
1.0 3020:1.0 
0.5087890625 1144:1.0 
1.0 948:1.0 
1.0 2031:1.0 
1.0 2513:1.0 
1.0 1482:1.0 
1.0 3020:1.0 
1.0 2317:1.0 
1.0 1547:1.0 
1.0 2763:1.0 
1.0 2481:1.0 
1.0 1546:1.0 
1.0 195:1.0 
1.0 3020:1.0 
1.0 2739:1.0 
1.0 1039:1.0 
1.0 2317:1.0 
1.0 3020:1.0 
1.0 1039:1.0 
1.0 3020:1.0 
1.0 2460:1.0 
1.0 1509:1.0 
0.5087890625 4288:1.0 
1.0 9:1.0 
1.0 2763:1.0 
1.0 469:1.0 
1.0 367:1.0 
1.0 2478:1.0 
1.0 579:1.0 
1.0 2310:1.0 
1.0 250:1.0 
1.0 2481:1.0 
1.0 567:1.0 
0.5087890625 134:1.0 
1.0 2461:1.0 
0.5087890625 1565:1.0 
1.0 2481:1.0 
1.0 2444:1.0 
1.0 2480:1.0 
1.0 2481:1.0 
0.5087890625 3205:1.0 
0.5087890625 3170:1.0 
0.5087890625 4318:1.0 
1.0 471:1.0 
1.0 2478:1.0 
0.5087890625 3030:1.0 
1.0 472:1.0 
1.0 781:1.0 
1.0 2513:1.0 
1.0 489:1.0 
1.0 983:1.0 
1.0 4323:1.0 
1.0 628:1.0 
1.0 2845:1.0 
1.0 4324:1.0 
1.0 2481:1.0 
1.0 2481:1.0 
1.0 2944:1.0 
1.0 239:1.0 
1.0 202:1.0 
1.0 2481:1.0 
1.0 4327:1.0 
1.0 308:1.0 
1.0 3317:1.0 
1.0 757:1.0 
1.0 2513:1.0 
1.0 1031:1.0 
1.0 4333:1.0 
1.0 3322:1.0 
1.0 1033:1.0 
1.0 1085:1.0 
1.0 3465:1.0 
0.5087890625 3499:1.0 
1.0 4337:1.0 
1.0 2446:1.0 
1.0 99:1.0 
1.0 1172:1.0 
1.0 4305:1.0 
1.0 1221:1.0 
0.5087890625 4341:1.0 
1.0 4342:1.0 
0.5087890625 4221:1.0 
1.0 223:1.0 
1.0 4348:1.0 
1.0 3735:1.0 
0.5087890625 4352:1.0 
1.0 3499:1.0 
1.0 2130:1.0 
0.5087890625 3596:1.0 
1.0 253:1.0 
0.5087890625 2852:1.0 
1.0 415:1.0 
1.0 253:1.0 
1.0 449:1.0 
0.5087890625 2759:1.0 
0.5087890625 2590:1.0 
1.0 3196:1.0 
0.5087890625 4357:1.0 
1.0 82:1.0 
1.0 2752:1.0 
1.0 415:1.0 
1.0 1492:1.0 
0.5087890625 939:1.0 
0.5087890625 2798:1.0 
1.0 2752:1.0 
1.0 4360:1.0 
0.5087890625 158:1.0 
0.5087890625 130:1.0 
1.0 4362:1.0 
1.0 3114:1.0 
0.5087890625 1010:1.0 
1.0 1010:1.0 
0.5087890625 3587:1.0 
1.0 4365:1.0 
1.0 293:1.0 
1.0 983:1.0 
1.0 130:1.0 
1.0 4373:1.0 
1.0 571:1.0 
0.5087890625 2803:1.0 
1.0 316:1.0 
1.0 82:1.0 
1.0 3196:1.0 
1.0 253:1.0 
1.0 3196:1.0 
1.0 617:1.0 
1.0 1260:1.0 
0.5087890625 451:1.0 
1.0 37:1.0 
1.0 2481:1.0 
1.0 3205:1.0 
1.0 543:1.0 
1.0 4377:1.0 
1.0 96:1.0 
1.0 452:1.0 
1.0 688:1.0 
1.0 1374:1.0 
1.0 2763:1.0 
1.0 2763:1.0 
1.0 2763:1.0 
0.5087890625 4381:1.0 
1.0 4384:1.0 
1.0 96:1.0 
1.0 2569:1.0 
0.5087890625 4386:1.0 
1.0 2761:1.0 
1.0 4381:1.0 
1.0 375:1.0 
1.0 253:1.0 
1.0 1492:1.0 
1.0 2763:1.0 
1.0 3428:1.0 
1.0 795:1.0 
0.5087890625 4356:1.0 
1.0 2312:1.0 
0.5087890625 4392:1.0 
1.0 2763:1.0 
1.0 2312:1.0 
0.5087890625 3115:1.0 
1.0 1647:1.0 
1.0 2763:1.0 
1.0 311:1.0 
1.0 2763:1.0 
1.0 3114:1.0 
1.0 3461:1.0 
1.0 712:1.0 
1.0 2763:1.0 
1.0 2807:1.0 
1.0 2763:1.0 
1.0 2763:1.0 
0.5087890625 4396:1.0 
1.0 2763:1.0 
1.0 2124:1.0 
1.0 3094:1.0 
1.0 4396:1.0 
1.0 298:1.0 
1.0 4397:1.0 
1.0 378:1.0 
1.0 217:1.0 
0.5087890625 3793:1.0 
1.0 1309:1.0 
1.0 4400:1.0 
1.0 2444:1.0 
1.0 3793:1.0 
0.5087890625 2764:1.0 
0.5087890625 238:1.0 
1.0 37:1.0 
1.0 3117:1.0 
1.0 375:1.0 
1.0 416:1.0 
1.0 607:1.0 
1.0 2764:1.0 
1.0 4407:1.0 
1.0 780:1.0 
1.0 3496:1.0 
0.5087890625 1297:1.0 
1.0 3327:1.0 
1.0 375:1.0 
1.0 37:1.0 
0.5087890625 2439:1.0 
0.5087890625 955:1.0 
1.0 2439:1.0 
0.5087890625 4154:1.0 
1.0 316:1.0 
0.5087890625 3307:1.0 
0.5087890625 458:1.0 
1.0 928:1.0 
0.5087890625 4174:1.0 
1.0 316:1.0 
1.0 4413:1.0 
1.0 2516:1.0 
1.0 2477:1.0 
1.0 702:1.0 
1.0 702:1.0 
1.0 687:1.0 
1.0 316:1.0 
1.0 629:1.0 
1.0 458:1.0 
1.0 9:1.0 
0.5087890625 4417:1.0 
0.5087890625 1659:1.0 
1.0 4418:1.0 
1.0 4422:1.0 
1.0 603:1.0 
1.0 956:1.0 
1.0 316:1.0 
1.0 2516:1.0 
1.0 702:1.0 
1.0 4417:1.0 
1.0 316:1.0 
1.0 316:1.0 
1.0 316:1.0 
1.0 1396:1.0 
1.0 316:1.0 
1.0 2752:1.0 
1.0 702:1.0 
0.5087890625 3832:1.0 
1.0 316:1.0 
1.0 702:1.0 
1.0 4174:1.0 
1.0 4431:1.0 
0.5087890625 3313:1.0 
1.0 316:1.0 
0.5087890625 1752:1.0 
1.0 316:1.0 
1.0 2406:1.0 
0.5087890625 3058:1.0 
0.5087890625 3874:1.0 
1.0 3565:1.0 
1.0 507:1.0 
1.0 239:1.0 
1.0 4441:1.0 
1.0 654:1.0 
1.0 298:1.0 
0.5087890625 1811:1.0 
1.0 1431:1.0 
1.0 298:1.0 
1.0 2807:1.0 
1.0 298:1.0 
1.0 1431:1.0 
1.0 130:1.0 
0.5087890625 2397:1.0 
1.0 298:1.0 
1.0 4362:1.0 
0.5087890625 1160:1.0 
1.0 130:1.0 
1.0 1659:1.0 
0.5087890625 2559:1.0 
1.0 2197:1.0 
1.0 2807:1.0 
1.0 673:1.0 
1.0 4352:1.0 
0.5087890625 4354:1.0 
1.0 3874:1.0 
0.5087890625 495:1.0 
0.5087890625 4459:1.0 
1.0 99:1.0 
1.0 4170:1.0 
0.5087890625 703:1.0 
0.5087890625 483:1.0 
0.5087890625 320:1.0 
1.0 687:1.0 
0.5087890625 4340:1.0 
1.0 4341:1.0 
1.0 4464:1.0 
1.0 298:1.0 
1.0 298:1.0 
1.0 712:1.0 
0.5087890625 2723:1.0 
1.0 37:1.0 
1.0 3525:1.0 
1.0 3874:1.0 
1.0 3114:1.0 
1.0 3018:1.0 
1.0 2569:1.0 
1.0 316:1.0 
1.0 3874:1.0 
1.0 253:1.0 
1.0 4469:1.0 
1.0 2559:1.0 
1.0 298:1.0 
1.0 1575:1.0 
1.0 415:1.0 
1.0 603:1.0 
0.5087890625 4294:1.0 
1.0 603:1.0 
1.0 3874:1.0 
1.0 298:1.0 
1.0 1565:1.0 
1.0 4294:1.0 
1.0 4478:1.0 
1.0 238:1.0 
1.0 375:1.0 
1.0 4459:1.0 
0.5087890625 1290:1.0 
1.0 3874:1.0 
1.0 588:1.0 
1.0 2807:1.0 
1.0 298:1.0 
1.0 2752:1.0 
1.0 298:1.0 
0.5087890625 4483:1.0 
0.5087890625 1838:1.0 
1.0 4356:1.0 
1.0 3196:1.0 
1.0 4357:1.0 
1.0 4484:1.0 
1.0 298:1.0 
1.0 300:1.0 
1.0 1156:1.0 
1.0 2460:1.0 
0.5087890625 618:1.0 
1.0 2446:1.0 
0.5087890625 725:1.0 
1.0 316:1.0 
1.0 928:1.0 
0.5087890625 2148:1.0 
1.0 298:1.0 
0.5087890625 2465:1.0 
1.0 298:1.0 
1.0 2465:1.0 
1.0 2559:1.0 
1.0 298:1.0 
0.5087890625 4489:1.0 
0.5087890625 805:1.0 
0.5087890625 3480:1.0 
1.0 298:1.0 
1.0 2465:1.0 
0.5087890625 4035:1.0 
1.0 3480:1.0 
1.0 2763:1.0 
1.0 298:1.0 
1.0 2807:1.0 
1.0 4493:1.0 
1.0 1267:1.0 
1.0 2492:1.0 
1.0 298:1.0 
1.0 298:1.0 
1.0 4498:1.0 
1.0 4340:1.0 
1.0 2569:1.0 
1.0 298:1.0 
1.0 316:1.0 
1.0 300:1.0 
1.0 472:1.0 
1.0 3478:1.0 
1.0 617:1.0 
1.0 618:1.0 
1.0 4509:1.0 
1.0 4510:1.0 
0.5087890625 73:1.0 
0.5087890625 4513:1.0 
1.0 4513:1.0 
1.0 99:1.0 
1.0 725:1.0 
1.0 298:1.0 
1.0 1460:1.0 
1.0 712:1.0 
1.0 3317:1.0 
1.0 830:1.0 
0.5087890625 2903:1.0 
1.0 2807:1.0 
1.0 449:1.0 
1.0 3313:1.0 
1.0 3832:1.0 
1.0 298:1.0 
1.0 830:1.0 
1.0 2807:1.0 
1.0 286:1.0 
1.0 2516:1.0 
1.0 3430:1.0 
1.0 318:1.0 
1.0 3317:1.0 
1.0 3161:1.0 
1.0 2810:1.0 
1.0 2903:1.0 
1.0 712:1.0 
1.0 308:1.0 
1.0 367:1.0 
1.0 308:1.0 
1.0 318:1.0 
1.0 2807:1.0 
1.0 3430:1.0 
1.0 1575:1.0 
1.0 2752:1.0 
1.0 2807:1.0 
0.5087890625 2412:1.0 
1.0 318:1.0 
1.0 1172:1.0 
1.0 2124:1.0 
0.5087890625 1054:1.0 
1.0 202:1.0 
1.0 2815:1.0 
1.0 1172:1.0 
1.0 482:1.0 
1.0 4531:1.0 
1.0 2677:1.0 
1.0 293:1.0 
0.5087890625 3497:1.0 
1.0 2248:1.0 
0.5087890625 1707:1.0 
0.5087890625 277:1.0 
1.0 4538:1.0 
1.0 4539:1.0 
1.0 4014:1.0 
1.0 298:1.0 
1.0 2446:1.0 
1.0 298:1.0 
1.0 4542:1.0 
0.5087890625 822:1.0 
1.0 3874:1.0 
1.0 4543:1.0 
1.0 1801:1.0 
1.0 603:1.0 
1.0 238:1.0 
1.0 298:1.0 
0.5087890625 259:1.0 
1.0 238:1.0 
1.0 2807:1.0 
1.0 3497:1.0 
1.0 2446:1.0 
1.0 99:1.0 
0.5087890625 3881:1.0 
1.0 298:1.0 
1.0 495:1.0 
1.0 298:1.0 
1.0 639:1.0 
1.0 2852:1.0 
1.0 4423:1.0 
1.0 603:1.0 
1.0 4340:1.0 
0.5087890625 4121:1.0 
1.0 603:1.0 
1.0 4549:1.0 
1.0 603:1.0 
1.0 4294:1.0 
1.0 4221:1.0 
1.0 182:1.0 
1.0 3283:1.0 
1.0 3874:1.0 
0.5087890625 3864:1.0 
1.0 616:1.0 
1.0 259:1.0 
1.0 616:1.0 
1.0 617:1.0 
1.0 597:1.0 
1.0 760:1.0 
1.0 87:1.0 
0.5087890625 585:1.0 
1.0 2752:1.0 
1.0 2774:1.0 
1.0 130:1.0 
1.0 585:1.0 
1.0 73:1.0 
1.0 318:1.0 
1.0 3196:1.0 
1.0 725:1.0 
0.5087890625 4558:1.0 
1.0 3874:1.0 
1.0 2590:1.0 
1.0 130:1.0 
1.0 4489:1.0 
0.5087890625 4508:1.0 
1.0 2497:1.0 
1.0 318:1.0 
1.0 2807:1.0 
1.0 822:1.0 
0.5087890625 4540:1.0 
1.0 4562:1.0 
1.0 2763:1.0 
1.0 3391:1.0 
1.0 2763:1.0 
0.5087890625 2295:1.0 
1.0 4540:1.0 
1.0 1616:1.0 
1.0 2813:1.0 
1.0 1031:1.0 
1.0 26:1.0 
1.0 452:1.0 
0.5087890625 568:1.0 
0.5087890625 582:1.0 
1.0 582:1.0 
1.0 288:1.0 
1.0 288:1.0 
1.0 1290:1.0 
1.0 315:1.0 
0.5087890625 138:1.0 
1.0 37:1.0 
1.0 630:1.0 
0.5087890625 226:1.0 
1.0 3617:1.0 
1.0 37:1.0 
1.0 311:1.0 
0.5087890625 440:1.0 
0.5087890625 3397:1.0 
1.0 1688:1.0 
1.0 703:1.0 
1.0 2723:1.0 
1.0 3881:1.0 
0.5087890625 2760:1.0 
1.0 778:1.0 
0.5087890625 3514:1.0 
1.0 483:1.0 
1.0 320:1.0 
1.0 2807:1.0 
1.0 603:1.0 
1.0 4423:1.0 
0.5087890625 4334:1.0 
0.5087890625 1428:1.0 
1.0 316:1.0 
1.0 3874:1.0 
0.5087890625 3129:1.0 
1.0 471:1.0 
1.0 3129:1.0 
1.0 2763:1.0 
1.0 4576:1.0 
0.5087890625 313:1.0 
1.0 4577:1.0 
1.0 2772:1.0 
1.0 1707:1.0 
1.0 37:1.0 
1.0 316:1.0 
0.5087890625 1388:1.0 
1.0 37:1.0 
1.0 3307:1.0 
1.0 2879:1.0 
1.0 259:1.0 
0.5087890625 707:1.0 
1.0 618:1.0 
1.0 298:1.0 
0.5087890625 1704:1.0 
0.5087890625 2792:1.0 
1.0 618:1.0 
1.0 3129:1.0 
1.0 2513:1.0 
1.0 2798:1.0 
1.0 316:1.0 
1.0 1388:1.0 
1.0 37:1.0 
1.0 316:1.0 
1.0 2295:1.0 
1.0 3874:1.0 
1.0 1811:1.0 
0.5087890625 2283:1.0 
1.0 2852:1.0 
1.0 442:1.0 
1.0 442:1.0 
0.5087890625 2800:1.0 
1.0 3076:1.0 
1.0 4392:1.0 
1.0 3030:1.0 
1.0 2792:1.0 
1.0 442:1.0 
0.5087890625 624:1.0 
1.0 2979:1.0 
1.0 472:1.0 
1.0 2295:1.0 
0.5087890625 3071:1.0 
1.0 1010:1.0 
1.0 4609:1.0 
1.0 2492:1.0 
1.0 712:1.0 
1.0 3438:1.0 
1.0 442:1.0 
1.0 37:1.0 
1.0 217:1.0 
1.0 360:1.0 
1.0 2800:1.0 
1.0 3020:1.0 
1.0 2763:1.0 
1.0 781:1.0 
0.5087890625 1435:1.0 
0.5087890625 4211:1.0 
1.0 1388:1.0 
1.0 2478:1.0 
1.0 4196:1.0 
1.0 277:1.0 
1.0 4615:1.0 
1.0 709:1.0 
0.5087890625 439:1.0 
1.0 2283:1.0 
1.0 2763:1.0 
1.0 3129:1.0 
1.0 449:1.0 
1.0 4254:1.0 
1.0 3058:1.0 
1.0 2875:1.0 
1.0 2763:1.0 
1.0 2761:1.0 
0.5087890625 1155:1.0 
0.5087890625 294:1.0 
1.0 4286:1.0 
1.0 1370:1.0 
0.5087890625 2850:1.0 
1.0 3621:1.0 
0.5087890625 1055:1.0 
1.0 4211:1.0 
1.0 3621:1.0 
1.0 3162:1.0 
1.0 2850:1.0 
1.0 2877:1.0 
1.0 311:1.0 
1.0 992:1.0 
1.0 1055:1.0 
1.0 2763:1.0 
1.0 3438:1.0 
1.0 2763:1.0 
1.0 73:1.0 
1.0 2979:1.0 
1.0 3498:1.0 
1.0 433:1.0 
1.0 2481:1.0 
1.0 2763:1.0 
1.0 2807:1.0 
1.0 3102:1.0 
1.0 3466:1.0 
1.0 2772:1.0 
1.0 2763:1.0 
1.0 158:1.0 
0.5087890625 4634:1.0 
0.5087890625 767:1.0 
1.0 4635:1.0 
0.5087890625 4160:1.0 
1.0 4636:1.0 
1.0 4637:1.0 
1.0 4556:1.0 
0.5087890625 4325:1.0 
1.0 816:1.0 
1.0 725:1.0 
1.0 629:1.0 
1.0 298:1.0 
1.0 2800:1.0 
1.0 907:1.0 
1.0 431:1.0 
1.0 2110:1.0 
1.0 4325:1.0 
1.0 896:1.0 
1.0 702:1.0 
0.5087890625 2224:1.0 
1.0 195:1.0 
1.0 3048:1.0 
1.0 298:1.0 
1.0 1040:1.0 
1.0 618:1.0 
0.5087890625 2811:1.0 
0.5087890625 437:1.0 
1.0 316:1.0 
0.5087890625 2377:1.0 
1.0 2803:1.0 
0.5087890625 705:1.0 
1.0 4331:1.0 
0.5087890625 3040:1.0 
0.5087890625 4541:1.0 
1.0 298:1.0 
1.0 4160:1.0 
0.5087890625 859:1.0 
1.0 4652:1.0 
1.0 73:1.0 
1.0 767:1.0 
1.0 4664:1.0 
1.0 24:1.0 
0.5087890625 1430:1.0 
1.0 4665:1.0 
1.0 4666:1.0 
0.5087890625 3880:1.0 
1.0 3503:1.0 
1.0 2815:1.0 
1.0 318:1.0 
1.0 2793:1.0 
1.0 883:1.0 
0.5087890625 4669:1.0 
1.0 2124:1.0 
1.0 2377:1.0 
1.0 2615:1.0 
1.0 3058:1.0 
1.0 767:1.0 
1.0 2223:1.0 
0.5087890625 2926:1.0 
1.0 2295:1.0 
1.0 795:1.0 
1.0 1062:1.0 
1.0 2478:1.0 
0.5087890625 448:1.0 
1.0 4674:1.0 
1.0 1269:1.0 
1.0 3681:1.0 
0.5087890625 4676:1.0 
0.5087890625 2165:1.0 
1.0 782:1.0 
1.0 1824:1.0 
1.0 1094:1.0 
0.5087890625 929:1.0 
0.5087890625 1097:1.0 
1.0 2295:1.0 
1.0 4682:1.0 
0.5087890625 2919:1.0 
1.0 1478:1.0 
0.5087890625 3809:1.0 
1.0 448:1.0 
1.0 2481:1.0 
1.0 2295:1.0 
1.0 997:1.0 
0.5087890625 4688:1.0 
0.5087890625 1700:1.0 
1.0 3618:1.0 
0.5087890625 2007:1.0 
1.0 3477:1.0 
1.0 997:1.0 
1.0 1707:1.0 
1.0 442:1.0 
1.0 448:1.0 
0.5087890625 1693:1.0 
1.0 2832:1.0 
0.5087890625 1347:1.0 
0.5087890625 2427:1.0 
0.5087890625 4115:1.0 
1.0 4704:1.0 
1.0 782:1.0 
1.0 454:1.0 
1.0 422:1.0 
1.0 461:1.0 
1.0 782:1.0 
1.0 375:1.0 
0.5087890625 3674:1.0 
1.0 4707:1.0 
1.0 316:1.0 
1.0 422:1.0 
1.0 4709:1.0 
1.0 767:1.0 
1.0 2007:1.0 
1.0 334:1.0 
1.0 3040:1.0 
1.0 2295:1.0 
1.0 375:1.0 
1.0 2919:1.0 
1.0 911:1.0 
1.0 2481:1.0 
0.5087890625 3458:1.0 
0.5087890625 3047:1.0 
1.0 4669:1.0 
1.0 2124:1.0 
1.0 1269:1.0 
1.0 3681:1.0 
1.0 4676:1.0 
1.0 2165:1.0 
1.0 782:1.0 
1.0 1824:1.0 
1.0 1094:1.0 
1.0 929:1.0 
1.0 1097:1.0 
1.0 1478:1.0 
1.0 2478:1.0 
1.0 448:1.0 
1.0 2295:1.0 
1.0 997:1.0 
0.5087890625 791:1.0 
0.5087890625 3130:1.0 
1.0 168:1.0 
1.0 4688:1.0 
1.0 1700:1.0 
1.0 3018:1.0 
1.0 4714:1.0 
1.0 4716:1.0 
1.0 4718:1.0 
1.0 96:1.0 
1.0 13:1.0 
1.0 3020:1.0 
1.0 3303:1.0 
1.0 4719:1.0 
0.5087890625 3481:1.0 
1.0 1707:1.0 
1.0 2759:1.0 
1.0 4154:1.0 
1.0 2478:1.0 
1.0 448:1.0 
1.0 448:1.0 
1.0 2842:1.0 
0.5087890625 1486:1.0 
1.0 2481:1.0 
1.0 168:1.0 
0.5087890625 2483:1.0 
1.0 1347:1.0 
1.0 1693:1.0 
1.0 422:1.0 
1.0 2478:1.0 
1.0 4722:1.0 
0.5087890625 4723:1.0 
1.0 1534:1.0 
1.0 4728:1.0 
1.0 4729:1.0 
1.0 4731:1.0 
1.0 4723:1.0 
1.0 1534:1.0 
1.0 579:1.0 
1.0 2774:1.0 
1.0 3430:1.0 
1.0 2763:1.0 
1.0 437:1.0 
0.5087890625 4735:1.0 
1.0 99:1.0 
1.0 2455:1.0 
1.0 1370:1.0 
1.0 2130:1.0 
1.0 4737:1.0 
1.0 2761:1.0 
1.0 3482:1.0 
1.0 2763:1.0 
1.0 2772:1.0 
1.0 618:1.0 
0.5087890625 456:1.0 
1.0 2763:1.0 
1.0 1370:1.0 
1.0 4115:1.0 
1.0 767:1.0 
1.0 1027:1.0 
1.0 2569:1.0 
1.0 2455:1.0 
1.0 298:1.0 
1.0 46:1.0 
1.0 2903:1.0 
1.0 2567:1.0 
0.5087890625 1168:1.0 
1.0 9:1.0 
1.0 2807:1.0 
1.0 138:1.0 
1.0 313:1.0 
0.5087890625 3263:1.0 
1.0 2250:1.0 
1.0 3475:1.0 
0.5087890625 817:1.0 
1.0 298:1.0 
1.0 750:1.0 
1.0 298:1.0 
1.0 767:1.0 
0.5087890625 3489:1.0 
1.0 3987:1.0 
1.0 318:1.0 
1.0 3:1.0 
1.0 4744:1.0 
1.0 2390:1.0 
1.0 298:1.0 
1.0 298:1.0 
1.0 318:1.0 
1.0 298:1.0 
1.0 2788:1.0 
1.0 294:1.0 
0.5087890625 1061:1.0 
1.0 1480:1.0 
1.0 767:1.0 
1.0 805:1.0 
1.0 2443:1.0 
1.0 456:1.0 
1.0 24:1.0 
1.0 311:1.0 
1.0 318:1.0 
1.0 1062:1.0 
1.0 355:1.0 
0.5087890625 967:1.0 
1.0 318:1.0 
1.0 13:1.0 
1.0 967:1.0 
0.5087890625 1387:1.0 
0.5087890625 895:1.0 
1.0 1016:1.0 
1.0 3094:1.0 
0.5087890625 3306:1.0 
0.5087890625 1844:1.0 
1.0 911:1.0 
1.0 3587:1.0 
1.0 298:1.0 
1.0 712:1.0 
1.0 2807:1.0 
1.0 1119:1.0 
1.0 3313:1.0 
1.0 298:1.0 
1.0 3405:1.0 
1.0 168:1.0 
1.0 1387:1.0 
1.0 4422:1.0 
1.0 3503:1.0 
1.0 1659:1.0 
1.0 3875:1.0 
0.5087890625 2522:1.0 
1.0 318:1.0 
1.0 4768:1.0 
1.0 725:1.0 
0.5087890625 2923:1.0 
1.0 4054:1.0 
1.0 1353:1.0 
1.0 39:1.0 
1.0 3678:1.0 
1.0 202:1.0 
1.0 298:1.0 
1.0 1354:1.0 
1.0 2903:1.0 
0.5087890625 2676:1.0 
1.0 3400:1.0 
1.0 316:1.0 
0.5087890625 4647:1.0 
1.0 1387:1.0 
1.0 27:1.0 
1.0 684:1.0 
1.0 13:1.0 
1.0 13:1.0 
1.0 238:1.0 
1.0 3653:1.0 
1.0 478:1.0 
1.0 298:1.0 
1.0 298:1.0 
1.0 456:1.0 
1.0 1055:1.0 
1.0 168:1.0 
1.0 1373:1.0 
1.0 4778:1.0 
1.0 308:1.0 
1.0 967:1.0 
1.0 167:1.0 
1.0 298:1.0 
1.0 298:1.0 
1.0 4038:1.0 
1.0 939:1.0 
1.0 757:1.0 
1.0 13:1.0 
1.0 3847:1.0 
1.0 2957:1.0 
1.0 2966:1.0 
1.0 1353:1.0 
1.0 298:1.0 
0.5087890625 536:1.0 
1.0 2957:1.0 
1.0 2073:1.0 
1.0 13:1.0 
1.0 2987:1.0 
0.5087890625 2783:1.0 
1.0 1245:1.0 
1.0 187:1.0 
1.0 2837:1.0 
1.0 4782:1.0 
0.5087890625 2190:1.0 
1.0 2148:1.0 
1.0 379:1.0 
1.0 277:1.0 
1.0 13:1.0 
1.0 1435:1.0 
1.0 459:1.0 
1.0 1281:1.0 
1.0 138:1.0 
1.0 298:1.0 
1.0 318:1.0 
1.0 4785:1.0 
1.0 459:1.0 
1.0 288:1.0 
1.0 714:1.0 
0.5087890625 4667:1.0 
1.0 318:1.0 
0.5087890625 319:1.0 
1.0 319:1.0 
1.0 459:1.0 
1.0 4786:1.0 
0.5087890625 739:1.0 
1.0 4667:1.0 
1.0 1677:1.0 
1.0 2522:1.0 
1.0 298:1.0 
1.0 318:1.0 
1.0 319:1.0 
1.0 911:1.0 
0.5087890625 4632:1.0 
0.5087890625 463:1.0 
1.0 259:1.0 
0.5087890625 1148:1.0 
1.0 9:1.0 
1.0 9:1.0 
1.0 2148:1.0 
1.0 2610:1.0 
1.0 465:1.0 
1.0 232:1.0 
1.0 294:1.0 
1.0 652:1.0 
1.0 167:1.0 
1.0 158:1.0 
1.0 2384:1.0 
1.0 465:1.0 
1.0 4791:1.0 
0.5087890625 2954:1.0 
1.0 1342:1.0 
1.0 1478:1.0 
0.5087890625 3523:1.0 
1.0 298:1.0 
1.0 2772:1.0 
1.0 2007:1.0 
1.0 4793:1.0 
1.0 2823:1.0 
0.5087890625 4795:1.0 
1.0 463:1.0 
1.0 13:1.0 
1.0 463:1.0 
1.0 26:1.0 
1.0 4796:1.0 
1.0 567:1.0 
1.0 3047:1.0 
1.0 618:1.0 
1.0 3557:1.0 
1.0 2926:1.0 
1.0 2850:1.0 
0.5087890625 282:1.0 
1.0 702:1.0 
1.0 688:1.0 
0.5087890625 4801:1.0 
1.0 725:1.0 
1.0 725:1.0 
1.0 319:1.0 
1.0 224:1.0 
1.0 319:1.0 
1.0 4221:1.0 
1.0 3489:1.0 
1.0 3482:1.0 
1.0 319:1.0 
1.0 3477:1.0 
1.0 939:1.0 
1.0 319:1.0 
1.0 4334:1.0 
1.0 536:1.0 
1.0 319:1.0 
1.0 185:1.0 
1.0 618:1.0 
1.0 1054:1.0 
1.0 2067:1.0 
1.0 4288:1.0 
1.0 458:1.0 
1.0 415:1.0 
0.5087890625 446:1.0 
0.5087890625 2555:1.0 
0.5087890625 4618:1.0 
1.0 1546:1.0 
1.0 305:1.0 
1.0 442:1.0 
1.0 224:1.0 
0.5087890625 1887:1.0 
1.0 451:1.0 
1.0 4002:1.0 
1.0 4816:1.0 
1.0 2283:1.0 
1.0 859:1.0 
1.0 2833:1.0 
1.0 2478:1.0 
1.0 2759:1.0 
1.0 2478:1.0 
1.0 448:1.0 
0.5087890625 2887:1.0 
1.0 567:1.0 
1.0 469:1.0 
1.0 544:1.0 
1.0 3306:1.0 
1.0 2392:1.0 
1.0 439:1.0 
1.0 883:1.0 
1.0 948:1.0 
1.0 2887:1.0 
1.0 1431:1.0 
1.0 859:1.0 
1.0 2761:1.0 
1.0 2763:1.0 
1.0 2763:1.0 
1.0 2763:1.0 
1.0 2763:1.0 
1.0 37:1.0 
1.0 883:1.0 
1.0 2761:1.0 
1.0 2850:1.0 
1.0 2763:1.0 
1.0 544:1.0 
1.0 725:1.0 
1.0 1039:1.0 
1.0 883:1.0 
1.0 2763:1.0 
1.0 2761:1.0 
1.0 702:1.0 
1.0 688:1.0 
1.0 4801:1.0 
1.0 2761:1.0 
0.5087890625 295:1.0 
1.0 201:1.0 
1.0 142:1.0 
1.0 4841:1.0 
1.0 24:1.0 
1.0 4845:1.0 
1.0 195:1.0 
1.0 1148:1.0 
1.0 543:1.0 
0.5087890625 4836:1.0 
1.0 138:1.0 
1.0 27:1.0 
1.0 4852:1.0 
1.0 2068:1.0 
0.5087890625 821:1.0 
1.0 1013:1.0 
1.0 282:1.0 
1.0 805:1.0 
1.0 4854:1.0 
1.0 311:1.0 
1.0 4859:1.0 
1.0 478:1.0 
1.0 4836:1.0 
1.0 702:1.0 
0.5087890625 3747:1.0 
1.0 967:1.0 
1.0 202:1.0 
1.0 478:1.0 
1.0 478:1.0 
1.0 24:1.0 
1.0 1844:1.0 
1.0 4873:1.0 
1.0 4874:1.0 
1.0 1055:1.0 
1.0 3:1.0 
1.0 1707:1.0 
1.0 1752:1.0 
1.0 1647:1.0 
1.0 4879:1.0 
1.0 1160:1.0 
0.5087890625 1787:1.0 
1.0 207:1.0 
1.0 740:1.0 
1.0 113:1.0 
1.0 4881:1.0 
1.0 39:1.0 
1.0 3893:1.0 
1.0 3596:1.0 
0.5087890625 4884:1.0 
1.0 2443:1.0 
0.5087890625 4871:1.0 
1.0 4884:1.0 
1.0 3674:1.0 
1.0 1555:1.0 
0.5087890625 380:1.0 
1.0 138:1.0 
0.5087890625 4893:1.0 
1.0 1545:1.0 
1.0 142:1.0 
0.5087890625 671:1.0 
1.0 13:1.0 
1.0 380:1.0 
1.0 1515:1.0 
1.0 4894:1.0 
1.0 4050:1.0 
1.0 4893:1.0 
1.0 16:1.0 
1.0 353:1.0 
1.0 4898:1.0 
1.0 4121:1.0 
1.0 252:1.0 
1.0 259:1.0 
1.0 195:1.0 
0.5087890625 604:1.0 
1.0 648:1.0 
1.0 1550:1.0 
1.0 128:1.0 
1.0 1148:1.0 
1.0 2475:1.0 
1.0 2388:1.0 
1.0 2481:1.0 
1.0 2677:1.0 
1.0 3452:1.0 
1.0 328:1.0 
1.0 1822:1.0 
1.0 1707:1.0 
1.0 4871:1.0 
1.0 1707:1.0 
1.0 9:1.0 
1.0 2752:1.0 
1.0 3617:1.0 
1.0 44:1.0 
1.0 2861:1.0 
1.0 2483:1.0 
1.0 2752:1.0 
1.0 4909:1.0 
1.0 27:1.0 
1.0 338:1.0 
1.0 95:1.0 
1.0 604:1.0 
1.0 211:1.0 
1.0 24:1.0 
1.0 2481:1.0 
0.5087890625 2402:1.0 
0.5087890625 3645:1.0 
0.5087890625 2999:1.0 
1.0 27:1.0 
1.0 2576:1.0 
1.0 1267:1.0 
1.0 13:1.0 
1.0 4823:1.0 
1.0 4915:1.0 
1.0 2402:1.0 
1.0 630:1.0 
1.0 27:1.0 
1.0 2966:1.0 
1.0 142:1.0 
1.0 2481:1.0 
1.0 433:1.0 
1.0 2887:1.0 
1.0 2067:1.0 
1.0 1089:1.0 
1.0 1026:1.0 
1.0 4919:1.0 
1.0 4920:1.0 
1.0 3847:1.0 
0.5087890625 4921:1.0 
1.0 3405:1.0 
1.0 315:1.0 
1.0 338:1.0 
1.0 315:1.0 
1.0 4120:1.0 
1.0 536:1.0 
0.5087890625 1101:1.0 
1.0 3438:1.0 
1.0 3864:1.0 
1.0 128:1.0 
1.0 3847:1.0 
1.0 2068:1.0 
1.0 3397:1.0 
1.0 603:1.0 
1.0 967:1.0 
1.0 1887:1.0 
1.0 967:1.0 
1.0 2722:1.0 
0.5087890625 4151:1.0 
1.0 2835:1.0 
1.0 1101:1.0 
1.0 298:1.0 
1.0 217:1.0 
1.0 1152:1.0 
1.0 839:1.0 
1.0 720:1.0 
1.0 114:1.0 
1.0 4937:1.0 
1.0 27:1.0 
1.0 224:1.0 
1.0 702:1.0 
0.5087890625 245:1.0 
0.5087890625 301:1.0 
1.0 114:1.0 
1.0 959:1.0 
1.0 3622:1.0 
1.0 298:1.0 
1.0 433:1.0 
1.0 2481:1.0 
0.5087890625 1001:1.0 
1.0 3622:1.0 
1.0 1001:1.0 
1.0 565:1.0 
1.0 114:1.0 
1.0 3453:1.0 
1.0 2576:1.0 
1.0 294:1.0 
0.5087890625 150:1.0 
1.0 795:1.0 
1.0 585:1.0 
1.0 4735:1.0 
1.0 883:1.0 
1.0 226:1.0 
1.0 3617:1.0 
1.0 2823:1.0 
1.0 618:1.0 
0.5087890625 179:1.0 
1.0 883:1.0 
0.5087890625 1946:1.0 
1.0 2414:1.0 
1.0 195:1.0 
1.0 195:1.0 
1.0 465:1.0 
1.0 720:1.0 
1.0 2969:1.0 
1.0 195:1.0 
1.0 1844:1.0 
1.0 226:1.0 
1.0 207:1.0 
1.0 940:1.0 
1.0 109:1.0 
1.0 3:1.0 
1.0 476:1.0 
1.0 37:1.0 
1.0 696:1.0 
0.5087890625 4967:1.0 
1.0 685:1.0 
1.0 195:1.0 
0.5087890625 1489:1.0 
1.0 1431:1.0 
0.5087890625 908:1.0 
1.0 195:1.0 
1.0 3645:1.0 
1.0 138:1.0 
1.0 4967:1.0 
1.0 245:1.0 
1.0 4980:1.0 
1.0 4982:1.0 
1.0 4983:1.0 
0.5087890625 1761:1.0 
1.0 3397:1.0 
1.0 4618:1.0 
0.5087890625 4959:1.0 
1.0 253:1.0 
0.5087890625 3455:1.0 
1.0 27:1.0 
1.0 2966:1.0 
1.0 4852:1.0 
1.0 2068:1.0 
1.0 1221:1.0 
1.0 152:1.0 
1.0 27:1.0 
1.0 128:1.0 
1.0 2966:1.0 
1.0 1060:1.0 
1.0 4993:1.0 
1.0 313:1.0 
1.0 252:1.0 
1.0 725:1.0 
1.0 750:1.0 
1.0 536:1.0 
1.0 883:1.0 
1.0 895:1.0 
1.0 1453:1.0 
1.0 581:1.0 
1.0 433:1.0 
1.0 1844:1.0 
1.0 588:1.0 
1.0 1844:1.0 
1.0 3892:1.0 
1.0 1431:1.0 
0.5087890625 4076:1.0 
0.5087890625 1658:1.0 
1.0 433:1.0 
1.0 3229:1.0 
1.0 2852:1.0 
1.0 13:1.0 
1.0 367:1.0 
0.5087890625 249:1.0 
0.5087890625 4936:1.0 
0.5087890625 1341:1.0 
1.0 472:1.0 
1.0 367:1.0 
1.0 217:1.0 
1.0 5002:1.0 
1.0 1803:1.0 
0.5087890625 485:1.0 
1.0 1478:1.0 
1.0 1761:1.0 
0.5087890625 5006:1.0 
1.0 1574:1.0 
1.0 1:1.0 
1.0 313:1.0 
1.0 252:1.0 
1.0 3479:1.0 
0.5087890625 5008:1.0 
1.0 128:1.0 
1.0 4076:1.0 
1.0 2966:1.0 
1.0 43:1.0 
0.5087890625 4840:1.0 
1.0 27:1.0 
1.0 1267:1.0 
1.0 199:1.0 
1.0 1085:1.0 
1.0 2999:1.0 
0.5087890625 5015:1.0 
1.0 5015:1.0 
1.0 5022:1.0 
0.5087890625 1000:1.0 
0.5087890625 5025:1.0 
1.0 546:1.0 
0.5087890625 2898:1.0 
1.0 1000:1.0 
0.5087890625 5026:1.0 
1.0 348:1.0 
1.0 249:1.0 
0.5087890625 5028:1.0 
1.0 5025:1.0 
1.0 5029:1.0 
1.0 348:1.0 
1.0 249:1.0 
1.0 2406:1.0 
1.0 2890:1.0 
0.5087890625 1779:1.0 
1.0 5028:1.0 
1.0 1000:1.0 
1.0 3464:1.0 
1.0 5035:1.0 
1.0 896:1.0 
1.0 990:1.0 
0.5087890625 435:1.0 
1.0 956:1.0 
1.0 2498:1.0 
0.5087890625 1852:1.0 
0.5087890625 5048:1.0 
1.0 1852:1.0 
1.0 5048:1.0 
1.0 2823:1.0 
1.0 1152:1.0 
1.0 671:1.0 
1.0 226:1.0 
1.0 608:1.0 
1.0 3618:1.0 
1.0 5052:1.0 
1.0 671:1.0 
0.5087890625 2049:1.0 
1.0 9:1.0 
1.0 226:1.0 
1.0 945:1.0 
1.0 805:1.0 
1.0 671:1.0 
0.5087890625 1077:1.0 
1.0 1077:1.0 
1.0 624:1.0 
1.0 2481:1.0 
1.0 4196:1.0 
1.0 2475:1.0 
1.0 5056:1.0 
1.0 277:1.0 
1.0 2049:1.0 
1.0 2003:1.0 
1.0 2475:1.0 
1.0 5045:1.0 
1.0 3753:1.0 
1.0 37:1.0 
1.0 478:1.0 
1.0 142:1.0 
0.5087890625 2129:1.0 
0.5087890625 1590:1.0 
1.0 2129:1.0 
1.0 671:1.0 
1.0 226:1.0 
1.0 505:1.0 
1.0 1590:1.0 
1.0 671:1.0 
1.0 618:1.0 
1.0 1737:1.0 
1.0 367:1.0 
1.0 671:1.0 
1.0 27:1.0 
1.0 709:1.0 
1.0 13:1.0 
1.0 5063:1.0 
1.0 96:1.0 
1.0 2224:1.0 
1.0 671:1.0 
1.0 128:1.0 
1.0 5065:1.0 
1.0 2576:1.0 
1.0 2475:1.0 
1.0 4921:1.0 
1.0 839:1.0 
0.5087890625 5067:1.0 
0.5087890625 312:1.0 
1.0 448:1.0 
1.0 5067:1.0 
1.0 1575:1.0 
1.0 2513:1.0 
1.0 757:1.0 
0.5087890625 1517:1.0 
1.0 448:1.0 
1.0 312:1.0 
1.0 13:1.0 
1.0 1844:1.0 
1.0 18:1.0 
1.0 645:1.0 
1.0 128:1.0 
1.0 3355:1.0 
1.0 3071:1.0 
1.0 2887:1.0 
0.5087890625 2922:1.0 
1.0 768:1.0 
1.0 461:1.0 
1.0 2761:1.0 
1.0 245:1.0 
1.0 507:1.0 
1.0 448:1.0 
0.5087890625 3896:1.0 
1.0 5079:1.0 
1.0 5080:1.0 
1.0 415:1.0 
1.0 671:1.0 
1.0 312:1.0 
1.0 3019:1.0 
1.0 1517:1.0 
1.0 2752:1.0 
1.0 13:1.0 
0.5087890625 7:1.0 
1.0 5083:1.0 
1.0 2237:1.0 
0.5087890625 1640:1.0 
1.0 415:1.0 
0.5087890625 2052:1.0 
1.0 3970:1.0 
1.0 5084:1.0 
1.0 2752:1.0 
1.0 1550:1.0 
1.0 1152:1.0 
1.0 671:1.0 
1.0 313:1.0 
1.0 252:1.0 
1.0 2167:1.0 
1.0 955:1.0 
1.0 1085:1.0 
1.0 115:1.0 
1.0 5090:1.0 
1.0 7:1.0 
1.0 754:1.0 
1.0 702:1.0 
1.0 367:1.0 
1.0 2514:1.0 
1.0 3747:1.0 
1.0 1985:1.0 
0.5087890625 4414:1.0 
1.0 791:1.0 
1.0 5094:1.0 
1.0 1341:1.0 
1.0 41:1.0 
1.0 5098:1.0 
1.0 16:1.0 
0.5087890625 32:1.0 
1.0 298:1.0 
1.0 695:1.0 
1.0 5100:1.0 
1.0 2954:1.0 
1.0 298:1.0 
1.0 259:1.0 
0.5087890625 5101:1.0 
1.0 654:1.0 
1.0 2726:1.0 
1.0 5103:1.0 
1.0 73:1.0 
1.0 267:1.0 
1.0 2032:1.0 
1.0 4035:1.0 
1.0 1213:1.0 
1.0 2497:1.0 
1.0 367:1.0 
1.0 517:1.0 
1.0 217:1.0 
1.0 360:1.0 
1.0 294:1.0 
1.0 2059:1.0 
1.0 298:1.0 
1.0 5109:1.0 
1.0 1844:1.0 
1.0 2772:1.0 
1.0 4618:1.0 
1.0 1640:1.0 
1.0 1085:1.0 
1.0 1085:1.0 
1.0 5110:1.0 
1.0 130:1.0 
1.0 970:1.0 
1.0 5111:1.0 
1.0 1031:1.0 
1.0 298:1.0 
1.0 1658:1.0 
0.5087890625 3976:1.0 
1.0 293:1.0 
1.0 152:1.0 
1.0 1055:1.0 
0.5087890625 5112:1.0 
0.5087890625 496:1.0 
1.0 779:1.0 
1.0 298:1.0 
1.0 1658:1.0 
1.0 168:1.0 
1.0 3872:1.0 
1.0 3976:1.0 
1.0 5112:1.0 
1.0 936:1.0 
1.0 4839:1.0 
1.0 13:1.0 
1.0 269:1.0 
1.0 16:1.0 
1.0 3618:1.0 
0.5087890625 1244:1.0 
1.0 1055:1.0 
1.0 2224:1.0 
1.0 4936:1.0 
1.0 5117:1.0 
1.0 1543:1.0 
1.0 5122:1.0 
1.0 2664:1.0 
1.0 5124:1.0 
1.0 5125:1.0 
1.0 13:1.0 
0.5087890625 1074:1.0 
1.0 1710:1.0 
1.0 1042:1.0 
0.5087890625 663:1.0 
0.5087890625 149:1.0 
1.0 16:1.0 
1.0 32:1.0 
1.0 5130:1.0 
1.0 13:1.0 
1.0 5131:1.0 
1.0 967:1.0 
1.0 3618:1.0 
1.0 1337:1.0 
1.0 1707:1.0 
1.0 26:1.0 
1.0 24:1.0 
1.0 1707:1.0 
1.0 1337:1.0 
0.5087890625 183:1.0 
1.0 1482:1.0 
1.0 5135:1.0 
1.0 433:1.0 
1.0 2481:1.0 
1.0 448:1.0 
1.0 250:1.0 
1.0 149:1.0 
0.5087890625 1262:1.0 
1.0 458:1.0 
1.0 2295:1.0 
1.0 3528:1.0 
1.0 2481:1.0 
1.0 249:1.0 
1.0 253:1.0 
1.0 3455:1.0 
1.0 3683:1.0 
1.0 757:1.0 
1.0 293:1.0 
1.0 2915:1.0 
1.0 742:1.0 
1.0 149:1.0 
1.0 1025:1.0 
1.0 1543:1.0 
1.0 24:1.0 
1.0 3025:1.0 
1.0 886:1.0 
1.0 1337:1.0 
1.0 5137:1.0 
1.0 463:1.0 
1.0 367:1.0 
1.0 5157:1.0 
1.0 237:1.0 
1.0 138:1.0 
1.0 379:1.0 
1.0 2881:1.0 
1.0 4840:1.0 
1.0 20:1.0 
1.0 4840:1.0 
1.0 5162:1.0 
1.0 5163:1.0 
1.0 740:1.0 
1.0 3069:1.0 
1.0 2923:1.0 
1.0 5166:1.0 
1.0 2481:1.0 
1.0 2269:1.0 
1.0 1073:1.0 
0.5087890625 4504:1.0 
1.0 316:1.0 
1.0 739:1.0 
1.0 725:1.0 
1.0 851:1.0 
1.0 42:1.0 
1.0 312:1.0 
1.0 1887:1.0 
1.0 1055:1.0 
1.0 316:1.0 
1.0 1039:1.0 
1.0 805:1.0 
1.0 226:1.0 
1.0 2460:1.0 
1.0 316:1.0 
1.0 114:1.0 
1.0 1844:1.0 
1.0 80:1.0 
0.5087890625 386:1.0 
1.0 5184:1.0 
1.0 1478:1.0 
1.0 1252:1.0 
1.0 239:1.0 
1.0 385:1.0 
1.0 1640:1.0 
1.0 1370:1.0 
1.0 386:1.0 
1.0 664:1.0 
1.0 20:1.0 
0.5087890625 1796:1.0 
1.0 195:1.0 
1.0 2923:1.0 
1.0 457:1.0 
1.0 375:1.0 
1.0 237:1.0 
1.0 2481:1.0 
1.0 433:1.0 
1.0 298:1.0 
1.0 4386:1.0 
1.0 386:1.0 
1.0 43:1.0 
1.0 3:1.0 
1.0 224:1.0 
1.0 32:1.0 
1.0 24:1.0 
1.0 3801:1.0 
1.0 1094:1.0 
1.0 883:1.0 
1.0 1194:1.0 
1.0 1210:1.0 
1.0 13:1.0 
1.0 2113:1.0 
1.0 312:1.0 
1.0 2481:1.0 
1.0 386:1.0 
1.0 671:1.0 
1.0 2223:1.0 
1.0 27:1.0 
1.0 3675:1.0 
1.0 671:1.0 
0.5087890625 4343:1.0 
1.0 1482:1.0 
1.0 27:1.0 
1.0 309:1.0 
0.5087890625 2648:1.0 
1.0 839:1.0 
1.0 944:1.0 
1.0 1643:1.0 
1.0 179:1.0 
1.0 1547:1.0 
1.0 671:1.0 
1.0 5193:1.0 
1.0 96:1.0 
1.0 13:1.0 
1.0 4024:1.0 
1.0 27:1.0 
1.0 25:1.0 
1.0 5196:1.0 
1.0 237:1.0 
1.0 671:1.0 
1.0 2678:1.0 
1.0 311:1.0 
1.0 4343:1.0 
0.5087890625 59:1.0 
1.0 27:1.0 
1.0 59:1.0 
1.0 5197:1.0 
1.0 883:1.0 
0.5087890625 2790:1.0 
0.5087890625 3836:1.0 
1.0 59:1.0 
1.0 2852:1.0 
1.0 13:1.0 
1.0 5198:1.0 
1.0 27:1.0 
1.0 41:1.0 
1.0 16:1.0 
1.0 2790:1.0 
1.0 1346:1.0 
1.0 1707:1.0 
1.0 4024:1.0 
1.0 41:1.0 
1.0 2897:1.0 
1.0 10:1.0 
1.0 2752:1.0 
1.0 298:1.0 
1.0 237:1.0 
1.0 2473:1.0 
1.0 59:1.0 
1.0 3836:1.0 
1.0 335:1.0 
1.0 138:1.0 
1.0 4343:1.0 
1.0 959:1.0 
1.0 3836:1.0 
0.5087890625 763:1.0 
1.0 13:1.0 
1.0 185:1.0 
1.0 467:1.0 
1.0 2497:1.0 
1.0 705:1.0 
1.0 25:1.0 
1.0 237:1.0 
1.0 211:1.0 
1.0 2981:1.0 
1.0 43:1.0 
1.0 87:1.0 
1.0 378:1.0 
1.0 3836:1.0 
1.0 763:1.0 
1.0 907:1.0 
1.0 1659:1.0 
1.0 25:1.0 
1.0 696:1.0 
0.5087890625 98:1.0 
1.0 5204:1.0 
1.0 95:1.0 
1.0 763:1.0 
0.5087890625 1531:1.0 
1.0 3:1.0 
1.0 39:1.0 
1.0 179:1.0 
1.0 237:1.0 
1.0 1293:1.0 
1.0 2395:1.0 
0.5087890625 5203:1.0 
1.0 13:1.0 
1.0 1838:1.0 
1.0 2813:1.0 
0.5087890625 537:1.0 
1.0 9:1.0 
1.0 2283:1.0 
1.0 1538:1.0 
1.0 335:1.0 
1.0 25:1.0 
1.0 13:1.0 
1.0 5203:1.0 
0.5087890625 4344:1.0 
1.0 282:1.0 
1.0 5205:1.0 
1.0 1543:1.0 
1.0 226:1.0 
1.0 5207:1.0 
1.0 282:1.0 
1.0 3825:1.0 
1.0 1275:1.0 
1.0 673:1.0 
1.0 237:1.0 
1.0 138:1.0 
1.0 754:1.0 
1.0 1852:1.0 
1.0 5213:1.0 
1.0 474:1.0 
1.0 5217:1.0 
1.0 838:1.0 
1.0 1000:1.0 
0.5087890625 3888:1.0 
0.5087890625 2400:1.0 
1.0 5213:1.0 
0.5087890625 5214:1.0 
1.0 16:1.0 
0.5087890625 5219:1.0 
1.0 3888:1.0 
1.0 3681:1.0 
1.0 5213:1.0 
1.0 785:1.0 
1.0 838:1.0 
1.0 1175:1.0 
1.0 397:1.0 
1.0 651:1.0 
1.0 883:1.0 
1.0 32:1.0 
1.0 740:1.0 
0.5087890625 2938:1.0 
1.0 5227:1.0 
1.0 3:1.0 
1.0 1635:1.0 
1.0 1000:1.0 
1.0 1388:1.0 
1.0 793:1.0 
1.0 838:1.0 
1.0 884:1.0 
0.5087890625 675:1.0 
1.0 3888:1.0 
0.5087890625 4480:1.0 
1.0 5230:1.0 
1.0 16:1.0 
1.0 4734:1.0 
1.0 474:1.0 
1.0 5219:1.0 
1.0 3888:1.0 
1.0 1703:1.0 
1.0 617:1.0 
1.0 2424:1.0 
1.0 2514:1.0 
1.0 651:1.0 
1.0 224:1.0 
1.0 2049:1.0 
0.5087890625 1139:1.0 
1.0 939:1.0 
1.0 4734:1.0 
1.0 500:1.0 
1.0 1852:1.0 
1.0 675:1.0 
1.0 838:1.0 
1.0 664:1.0 
1.0 1172:1.0 
1.0 5213:1.0 
1.0 508:1.0 
1.0 16:1.0 
0.5087890625 17:1.0 
0.5087890625 903:1.0 
1.0 5245:1.0 
1.0 1615:1.0 
1.0 998:1.0 
1.0 5247:1.0 
1.0 5248:1.0 
1.0 216:1.0 
1.0 217:1.0 
1.0 46:1.0 
1.0 2592:1.0 
1.0 5251:1.0 
0.5087890625 2675:1.0 
1.0 46:1.0 
1.0 5252:1.0 
0.5087890625 5253:1.0 
1.0 5101:1.0 
1.0 1812:1.0 
1.0 3836:1.0 
1.0 791:1.0 
1.0 5256:1.0 
1.0 5257:1.0 
1.0 5258:1.0 
0.5087890625 256:1.0 
1.0 5262:1.0 
1.0 723:1.0 
0.5087890625 1552:1.0 
1.0 355:1.0 
1.0 336:1.0 
1.0 5264:1.0 
1.0 5266:1.0 
1.0 355:1.0 
1.0 725:1.0 
1.0 1393:1.0 
1.0 702:1.0 
1.0 1302:1.0 
1.0 5271:1.0 
1.0 5272:1.0 
1.0 5273:1.0 
1.0 998:1.0 
1.0 1346:1.0 
1.0 37:1.0 
1.0 1609:1.0 
1.0 1468:1.0 
1.0 1822:1.0 
0.5087890625 724:1.0 
1.0 1643:1.0 
1.0 43:1.0 
1.0 629:1.0 
1.0 179:1.0 
0.5087890625 1770:1.0 
1.0 199:1.0 
1.0 4504:1.0 
1.0 1139:1.0 
1.0 1898:1.0 
0.5087890625 600:1.0 
1.0 883:1.0 
1.0 338:1.0 
1.0 2676:1.0 
0.5087890625 636:1.0 
1.0 1468:1.0 
1.0 20:1.0 
1.0 301:1.0 
1.0 113:1.0 
1.0 1643:1.0 
1.0 1531:1.0 
0.5087890625 5290:1.0 
1.0 5291:1.0 
1.0 5008:1.0 
1.0 5292:1.0 
1.0 5294:1.0 
1.0 5295:1.0 
1.0 1139:1.0 
1.0 301:1.0 
1.0 5271:1.0 
1.0 182:1.0 
1.0 983:1.0 
1.0 17:1.0 
1.0 651:1.0 
1.0 1852:1.0 
1.0 489:1.0 
1.0 98:1.0 
1.0 5253:1.0 
1.0 903:1.0 
1.0 263:1.0 
1.0 9:1.0 
1.0 3579:1.0 
1.0 1168:1.0 
1.0 3027:1.0 
1.0 1403:1.0 
1.0 5304:1.0 
1.0 1615:1.0 
1.0 5305:1.0 
1.0 17:1.0 
1.0 1704:1.0 
1.0 2335:1.0 
1.0 3196:1.0 
1.0 5312:1.0 
1.0 2473:1.0 
1.0 1857:1.0 
1.0 1491:1.0 
1.0 3596:1.0 
1.0 928:1.0 
1.0 4267:1.0 
0.5087890625 5314:1.0 
1.0 230:1.0 
1.0 5316:1.0 
1.0 1132:1.0 
1.0 2781:1.0 
1.0 95:1.0 
1.0 207:1.0 
1.0 224:1.0 
1.0 1590:1.0 
1.0 648:1.0 
1.0 821:1.0 
1.0 5324:1.0 
1.0 846:1.0 
1.0 671:1.0 
1.0 3190:1.0 
1.0 2918:1.0 
0.5087890625 1045:1.0 
0.5087890625 598:1.0 
1.0 3192:1.0 
0.5087890625 5263:1.0 
0.5087890625 5265:1.0 
1.0 2569:1.0 
1.0 990:1.0 
0.5087890625 5332:1.0 
0.5087890625 1444:1.0 
1.0 665:1.0 
1.0 5334:1.0 
1.0 5265:1.0 
1.0 5332:1.0 
1.0 5336:1.0 
1.0 5337:1.0 
1.0 5338:1.0 
1.0 791:1.0 
1.0 598:1.0 
1.0 5265:1.0 
1.0 5263:1.0 
1.0 1024:1.0 
0.5087890625 5343:1.0 
1.0 5099:1.0 
1.0 4945:1.0 
1.0 5345:1.0 
1.0 45:1.0 
1.0 618:1.0 
1.0 5351:1.0 
1.0 2223:1.0 
1.0 232:1.0 
1.0 5354:1.0 
1.0 399:1.0 
1.0 2458:1.0 
1.0 2455:1.0 
1.0 5364:1.0 
1.0 4541:1.0 
1.0 754:1.0 
1.0 2338:1.0 
1.0 5367:1.0 
1.0 5370:1.0 
1.0 1144:1.0 
1.0 150:1.0 
1.0 5372:1.0 
1.0 183:1.0 
0.5087890625 5375:1.0 
1.0 955:1.0 
1.0 733:1.0 
1.0 13:1.0 
1.0 762:1.0 
1.0 5377:1.0 
1.0 5378:1.0 
0.5087890625 5283:1.0 
1.0 1489:1.0 
1.0 24:1.0 
1.0 5379:1.0 
1.0 1920:1.0 
1.0 5380:1.0 
1.0 5381:1.0 
1.0 23:1.0 
1.0 5382:1.0 
1.0 598:1.0 
1.0 3110:1.0 
1.0 1:1.0 
1.0 2904:1.0 
1.0 3880:1.0 
1.0 302:1.0 
1.0 2179:1.0 
1.0 1643:1.0 
1.0 883:1.0 
1.0 17:1.0 
1.0 695:1.0 
1.0 2179:1.0 
1.0 1643:1.0 
1.0 5394:1.0 
0.5087890625 5275:1.0 
1.0 1346:1.0 
1.0 5398:1.0 
1.0 5399:1.0 
0.5087890625 969:1.0 
1.0 1055:1.0 
1.0 5275:1.0 
1.0 179:1.0 
1.0 27:1.0 
1.0 168:1.0 
1.0 1428:1.0 
1.0 1122:1.0 
1.0 1978:1.0 
1.0 27:1.0 
1.0 13:1.0 
1.0 5406:1.0 
1.0 99:1.0 
1.0 5407:1.0 
1.0 1460:1.0 
0.5087890625 1568:1.0 
1.0 384:1.0 
1.0 5414:1.0 
1.0 5415:1.0 
1.0 969:1.0 
1.0 3130:1.0 
1.0 5416:1.0 
1.0 5417:1.0 
1.0 5084:1.0 
1.0 3:1.0 
1.0 5418:1.0 
1.0 1230:1.0 
1.0 183:1.0 
1.0 3721:1.0 
1.0 673:1.0 
1.0 41:1.0 
1.0 2564:1.0 
1.0 1060:1.0 
0.5087890625 2687:1.0 
1.0 1060:1.0 
1.0 5421:1.0 
1.0 5423:1.0 
1.0 1139:1.0 
1.0 165:1.0 
1.0 2773:1.0 
1.0 3507:1.0 
1.0 665:1.0 
1.0 2:1.0 
0.5087890625 5427:1.0 
1.0 207:1.0 
0.5087890625 5255:1.0 
0.5087890625 5333:1.0 
1.0 5429:1.0 
1.0 5430:1.0 
1.0 3069:1.0 
1.0 472:1.0 
1.0 990:1.0 
1.0 2687:1.0 
0.5087890625 110:1.0 
1.0 2444:1.0 
1.0 232:1.0 
1.0 46:1.0 
1.0 13:1.0 
1.0 179:1.0 
1.0 629:1.0 
1.0 46:1.0 
1.0 544:1.0 
0.5087890625 5285:1.0 
1.0 1552:1.0 
1.0 1770:1.0 
1.0 5255:1.0 
0.5087890625 689:1.0 
1.0 5285:1.0 
1.0 2569:1.0 
1.0 2675:1.0 
1.0 5435:1.0 
1.0 2687:1.0 
1.0 667:1.0 
0.5087890625 3909:1.0 
0.5087890625 2553:1.0 
1.0 5437:1.0 
1.0 24:1.0 
1.0 355:1.0 
1.0 17:1.0 
1.0 232:1.0 
1.0 103:1.0 
1.0 754:1.0 
1.0 232:1.0 
0.5087890625 502:1.0 
1.0 757:1.0 
1.0 685:1.0 
1.0 1812:1.0 
1.0 46:1.0 
1.0 179:1.0 
1.0 87:1.0 
1.0 5440:1.0 
1.0 762:1.0 
1.0 5441:1.0 
1.0 1139:1.0 
1.0 1623:1.0 
1.0 5448:1.0 
1.0 740:1.0 
1.0 1139:1.0 
1.0 5449:1.0 
1.0 2923:1.0 
1.0 2687:1.0 
1.0 4027:1.0 
1.0 4479:1.0 
1.0 2781:1.0 
0.5087890625 788:1.0 
1.0 5456:1.0 
1.0 2190:1.0 
0.5087890625 5276:1.0 
1.0 232:1.0 
1.0 788:1.0 
1.0 5461:1.0 
1.0 18:1.0 
1.0 5462:1.0 
0.5087890625 48:1.0 
0.5087890625 5463:1.0 
1.0 881:1.0 
1.0 367:1.0 
1.0 5464:1.0 
1.0 3617:1.0 
1.0 5465:1.0 
1.0 5466:1.0 
1.0 99:1.0 
1.0 232:1.0 
1.0 48:1.0 
1.0 5276:1.0 
1.0 109:1.0 
1.0 2560:1.0 
1.0 1934:1.0 
1.0 5276:1.0 
1.0 2471:1.0 
1.0 5470:1.0 
1.0 5471:1.0 
1.0 5472:1.0 
1.0 2513:1.0 
1.0 399:1.0 
1.0 48:1.0 
0.5087890625 1303:1.0 
1.0 109:1.0 
1.0 3260:1.0 
1.0 17:1.0 
1.0 5333:1.0 
1.0 2237:1.0 
0.5087890625 5478:1.0 
1.0 5463:1.0 
1.0 5283:1.0 
1.0 98:1.0 
1.0 232:1.0 
1.0 883:1.0 
1.0 336:1.0 
0.5087890625 772:1.0 
1.0 702:1.0 
1.0 1174:1.0 
1.0 4655:1.0 
1.0 5482:1.0 
0.5087890625 3732:1.0 
1.0 20:1.0 
1.0 2935:1.0 
1.0 450:1.0 
1.0 5483:1.0 
1.0 482:1.0 
1.0 5486:1.0 
1.0 201:1.0 
1.0 1168:1.0 
1.0 3732:1.0 
1.0 1706:1.0 
1.0 537:1.0 
1.0 5487:1.0 
0.5087890625 3144:1.0 
0.5087890625 1159:1.0 
1.0 559:1.0 
1.0 467:1.0 
1.0 23:1.0 
1.0 99:1.0 
1.0 5488:1.0 
1.0 580:1.0 
1.0 472:1.0 
0.5087890625 5490:1.0 
1.0 3482:1.0 
1.0 37:1.0 
1.0 1:1.0 
1.0 1553:1.0 
1.0 673:1.0 
1.0 37:1.0 
1.0 1553:1.0 
1.0 253:1.0 
1.0 5492:1.0 
1.0 5493:1.0 
0.5087890625 615:1.0 
1.0 5494:1.0 
1.0 482:1.0 
1.0 5495:1.0 
1.0 3564:1.0 
1.0 544:1.0 
1.0 4487:1.0 
1.0 1998:1.0 
1.0 505:1.0 
1.0 13:1.0 
1.0 419:1.0 
1.0 4376:1.0 
1.0 5497:1.0 
1.0 472:1.0 
0.5087890625 506:1.0 
1.0 5498:1.0 
1.0 5499:1.0 
1.0 342:1.0 
1.0 282:1.0 
1.0 5:1.0 
1.0 5500:1.0 
1.0 1643:1.0 
1.0 2007:1.0 
1.0 5502:1.0 
1.0 5503:1.0 
1.0 2110:1.0 
1.0 2513:1.0 
1.0 5504:1.0 
1.0 4318:1.0 
1.0 544:1.0 
1.0 437:1.0 
1.0 5491:1.0 
1.0 456:1.0 
1.0 4649:1.0 
1.0 13:1.0 
1.0 1342:1.0 
1.0 1243:1.0 
1.0 2743:1.0 
1.0 150:1.0 
1.0 1460:1.0 
1.0 39:1.0 
1.0 252:1.0 
1.0 180:1.0 
1.0 908:1.0 
1.0 2148:1.0 
1.0 5513:1.0 
1.0 3345:1.0 
1.0 41:1.0 
1.0 859:1.0 
1.0 3489:1.0 
1.0 502:1.0 
1.0 5517:1.0 
1.0 13:1.0 
1.0 13:1.0 
1.0 52:1.0 
1.0 142:1.0 
1.0 485:1.0 
1.0 1761:1.0 
1.0 5519:1.0 
1.0 5520:1.0 
1.0 1692:1.0 
1.0 1161:1.0 
1.0 1743:1.0 
1.0 17:1.0 
1.0 561:1.0 
1.0 1997:1.0 
1.0 23:1.0 
1.0 5524:1.0 
1.0 495:1.0 
0.5087890625 4185:1.0 
1.0 2887:1.0 
1.0 2283:1.0 
1.0 3548:1.0 
1.0 762:1.0 
1.0 253:1.0 
1.0 4151:1.0 
1.0 3518:1.0 
1.0 955:1.0 
1.0 5490:1.0 
1.0 253:1.0 
1.0 9:1.0 
1.0 1428:1.0 
1.0 1367:1.0 
1.0 651:1.0 
1.0 2167:1.0 
1.0 5531:1.0 
1.0 43:1.0 
1.0 702:1.0 
1.0 201:1.0 
1.0 9:1.0 
1.0 478:1.0 
1.0 2400:1.0 
1.0 5214:1.0 
1.0 3899:1.0 
1.0 3088:1.0 
1.0 506:1.0 
1.0 3850:1.0 
1.0 253:1.0 
1.0 9:1.0 
1.0 478:1.0 
1.0 3899:1.0 
1.0 367:1.0 
1.0 1653:1.0 
1.0 1954:1.0 
1.0 1122:1.0 
1.0 17:1.0 
1.0 1647:1.0 
1.0 1852:1.0 
1.0 1706:1.0 
1.0 4220:1.0 
1.0 2390:1.0 
0.5087890625 486:1.0 
1.0 936:1.0 
1.0 297:1.0 
1.0 899:1.0 
1.0 5535:1.0 
1.0 2743:1.0 
1.0 13:1.0 
1.0 742:1.0 
1.0 5538:1.0 
1.0 24:1.0 
0.5087890625 2184:1.0 
1.0 3895:1.0 
1.0 397:1.0 
1.0 1074:1.0 
1.0 4795:1.0 
1.0 5541:1.0 
1.0 5542:1.0 
1.0 253:1.0 
1.0 1547:1.0 
1.0 5544:1.0 
1.0 367:1.0 
1.0 696:1.0 
1.0 4:1.0 
1.0 24:1.0 
1.0 18:1.0 
0.5087890625 1072:1.0 
1.0 2252:1.0 
1.0 46:1.0 
1.0 1072:1.0 
1.0 3:1.0 
1.0 232:1.0 
1.0 46:1.0 
1.0 5553:1.0 
1.0 207:1.0 
1.0 46:1.0 
1.0 1770:1.0 
1.0 13:1.0 
1.0 5555:1.0 
1.0 1122:1.0 
1.0 1590:1.0 
1.0 667:1.0 
1.0 385:1.0 
1.0 5556:1.0 
1.0 109:1.0 
0.5087890625 635:1.0 
1.0 5561:1.0 
1.0 13:1.0 
1.0 5562:1.0 
1.0 18:1.0 
1.0 1852:1.0 
1.0 46:1.0 
1.0 695:1.0 
1.0 474:1.0 
1.0 18:1.0 
1.0 1309:1.0 
1.0 13:1.0 
0.5087890625 1735:1.0 
0.5087890625 499:1.0 
1.0 1061:1.0 
1.0 5574:1.0 
1.0 5575:1.0 
1.0 1990:1.0 
0.5087890625 5576:1.0 
1.0 1845:1.0 
1.0 742:1.0 
1.0 95:1.0 
1.0 2347:1.0 
1.0 52:1.0 
1.0 695:1.0 
0.5087890625 5578:1.0 
1.0 499:1.0 
1.0 5579:1.0 
1.0 13:1.0 
1.0 5585:1.0 
1.0 385:1.0 
0.5087890625 5586:1.0 
0.5087890625 5589:1.0 
1.0 5343:1.0 
0.5087890625 5590:1.0 
1.0 5592:1.0 
1.0 474:1.0 
1.0 13:1.0 
1.0 5593:1.0 
1.0 44:1.0 
1.0 3900:1.0 
1.0 2020:1.0 
1.0 5599:1.0 
1.0 5600:1.0 
1.0 301:1.0 
1.0 695:1.0 
1.0 5578:1.0 
1.0 2752:1.0 
1.0 3453:1.0 
1.0 13:1.0 
1.0 5605:1.0 
1.0 723:1.0 
1.0 7:1.0 
1.0 419:1.0 
1.0 2973:1.0 
1.0 5343:1.0 
0.5087890625 4990:1.0 
1.0 2752:1.0 
1.0 13:1.0 
1.0 13:1.0 
1.0 979:1.0 
1.0 5612:1.0 
1.0 48:1.0 
1.0 13:1.0 
1.0 5590:1.0 
1.0 1852:1.0 
1.0 1649:1.0 
1.0 24:1.0 
1.0 636:1.0 
1.0 4959:1.0 
1.0 256:1.0 
1.0 27:1.0 
1.0 2199:1.0 
1.0 27:1.0 
1.0 27:1.0 
1.0 3683:1.0 
1.0 385:1.0 
1.0 5586:1.0 
1.0 5620:1.0 
1.0 967:1.0 
0.5087890625 2337:1.0 
1.0 318:1.0 
1.0 1425:1.0 
1.0 1024:1.0 
1.0 696:1.0 
1.0 636:1.0 
1.0 18:1.0 
1.0 13:1.0 
1.0 5627:1.0 
1.0 113:1.0 
1.0 13:1.0 
1.0 4612:1.0 
1.0 5631:1.0 
1.0 1592:1.0 
1.0 690:1.0 
1.0 18:1.0 
1.0 630:1.0 
0.5087890625 1411:1.0 
1.0 27:1.0 
1.0 13:1.0 
1.0 967:1.0 
0.5087890625 1015:1.0 
1.0 1024:1.0 
0.5087890625 363:1.0 
1.0 1085:1.0 
1.0 772:1.0 
1.0 253:1.0 
1.0 1946:1.0 
1.0 201:1.0 
1.0 3:1.0 
1.0 4:1.0 
1.0 740:1.0 
1.0 18:1.0 
1.0 1946:1.0 
1.0 3801:1.0 
1.0 5643:1.0 
1.0 2752:1.0 
1.0 309:1.0 
1.0 2347:1.0 
1.0 26:1.0 
1.0 5160:1.0 
0.5087890625 5646:1.0 
1.0 253:1.0 
1.0 98:1.0 
0.5087890625 5647:1.0 
0.5087890625 5642:1.0 
1.0 13:1.0 
1.0 1061:1.0 
1.0 475:1.0 
1.0 544:1.0 
1.0 1558:1.0 
1.0 544:1.0 
0.5087890625 2211:1.0 
0.5087890625 206:1.0 
1.0 1085:1.0 
1.0 2484:1.0 
1.0 2211:1.0 
1.0 253:1.0 
1.0 98:1.0 
1.0 109:1.0 
0.5087890625 1600:1.0 
1.0 5647:1.0 
1.0 1486:1.0 
0.5087890625 682:1.0 
1.0 1015:1.0 
1.0 18:1.0 
1.0 710:1.0 
0.5087890625 1964:1.0 
1.0 5478:1.0 
1.0 653:1.0 
1.0 1964:1.0 
1.0 2198:1.0 
1.0 13:1.0 
0.5087890625 1208:1.0 
1.0 1887:1.0 
1.0 3324:1.0 
1.0 1293:1.0 
1.0 5659:1.0 
1.0 1061:1.0 
1.0 667:1.0 
0.5087890625 4460:1.0 
1.0 1:1.0 
0.5087890625 1288:1.0 
1.0 5664:1.0 
1.0 1061:1.0 
1.0 399:1.0 
0.5087890625 5588:1.0 
0.5087890625 488:1.0 
1.0 967:1.0 
0.5087890625 3131:1.0 
1.0 318:1.0 
1.0 5670:1.0 
1.0 1411:1.0 
1.0 1830:1.0 
1.0 1964:1.0 
1.0 5672:1.0 
1.0 559:1.0 
1.0 1600:1.0 
1.0 5673:1.0 
1.0 5674:1.0 
1.0 1770:1.0 
1.0 13:1.0 
1.0 251:1.0 
1.0 314:1.0 
1.0 2262:1.0 
1.0 5679:1.0 
1.0 13:1.0 
1.0 385:1.0 
0.5087890625 5545:1.0 
1.0 5682:1.0 
1.0 3131:1.0 
1.0 5683:1.0 
1.0 695:1.0 
1.0 314:1.0 
0.5087890625 1415:1.0 
1.0 654:1.0 
0.5087890625 2266:1.0 
1.0 378:1.0 
1.0 2337:1.0 
1.0 5686:1.0 
1.0 251:1.0 
1.0 1045:1.0 
1.0 5687:1.0 
1.0 1425:1.0 
1.0 5314:1.0 
0.5087890625 5690:1.0 
1.0 505:1.0 
1.0 2120:1.0 
1.0 648:1.0 
1.0 5692:1.0 
1.0 3565:1.0 
1.0 537:1.0 
1.0 4061:1.0 
1.0 18:1.0 
1.0 1341:1.0 
1.0 635:1.0 
1.0 9:1.0 
1.0 13:1.0 
0.5087890625 1726:1.0 
1.0 2363:1.0 
1.0 13:1.0 
1.0 4024:1.0 
1.0 1341:1.0 
1.0 385:1.0 
1.0 5545:1.0 
1.0 5586:1.0 
1.0 232:1.0 
1.0 663:1.0 
1.0 555:1.0 
1.0 1411:1.0 
1.0 179:1.0 
0.5087890625 143:1.0 
1.0 1486:1.0 
1.0 723:1.0 
1.0 695:1.0 
1.0 1094:1.0 
1.0 1600:1.0 
1.0 4460:1.0 
1.0 1726:1.0 
1.0 1024:1.0 
1.0 363:1.0 
1.0 18:1.0 
1.0 5704:1.0 
1.0 4460:1.0 
1.0 7:1.0 
1.0 5707:1.0 
1.0 682:1.0 
1.0 5708:1.0 
1.0 1600:1.0 
1.0 1415:1.0 
1.0 631:1.0 
1.0 702:1.0 
1.0 13:1.0 
0.5087890625 5676:1.0 
1.0 1045:1.0 
1.0 3:1.0 
1.0 314:1.0 
1.0 5710:1.0 
0.5087890625 1493:1.0 
1.0 2337:1.0 
1.0 702:1.0 
1.0 5290:1.0 
0.5087890625 5235:1.0 
1.0 657:1.0 
1.0 39:1.0 
1.0 1493:1.0 
1.0 1600:1.0 
1.0 1735:1.0 
1.0 5713:1.0 
1.0 3:1.0 
1.0 1094:1.0 
1.0 5715:1.0 
1.0 952:1.0 
1.0 4092:1.0 
1.0 704:1.0 
1.0 695:1.0 
1.0 2237:1.0 
1.0 13:1.0 
1.0 710:1.0 
1.0 2521:1.0 
1.0 385:1.0 
1.0 98:1.0 
1.0 4404:1.0 
1.0 5646:1.0 
1.0 5717:1.0 
1.0 998:1.0 
1.0 130:1.0 
1.0 724:1.0 
1.0 143:1.0 
0.5087890625 2330:1.0 
1.0 1019:1.0 
1.0 5722:1.0 
1.0 5723:1.0 
1.0 1:1.0 
1.0 1055:1.0 
1.0 5026:1.0 
0.5087890625 1860:1.0 
1.0 1015:1.0 
1.0 499:1.0 
1.0 2211:1.0 
1.0 2537:1.0 
1.0 18:1.0 
1.0 4763:1.0 
1.0 224:1.0 
1.0 256:1.0 
1.0 5727:1.0 
1.0 385:1.0 
1.0 301:1.0 
1.0 3:1.0 
1.0 5729:1.0 
0.5087890625 2035:1.0 
1.0 725:1.0 
1.0 5734:1.0 
1.0 5736:1.0 
1.0 5737:1.0 
1.0 253:1.0 
1.0 5642:1.0 
1.0 1590:1.0 
1.0 13:1.0 
1.0 385:1.0 
1.0 499:1.0 
1.0 5682:1.0 
1.0 5743:1.0 
1.0 314:1.0 
1.0 1600:1.0 
1.0 695:1.0 
1.0 1467:1.0 
1.0 1045:1.0 
1.0 117:1.0 
1.0 723:1.0 
1.0 419:1.0 
1.0 5746:1.0 
1.0 5676:1.0 
1.0 45:1.0 
1.0 4990:1.0 
1.0 1208:1.0 
1.0 44:1.0 
1.0 232:1.0 
1.0 13:1.0 
1.0 1600:1.0 
1.0 667:1.0 
1.0 527:1.0 
1.0 1493:1.0 
1.0 18:1.0 
1.0 227:1.0 
1.0 1735:1.0 
1.0 399:1.0 
1.0 4460:1.0 
1.0 117:1.0 
1.0 416:1.0 
1.0 5750:1.0 
1.0 5690:1.0 
1.0 630:1.0 
1.0 702:1.0 
1.0 1175:1.0 
1.0 5754:1.0 
1.0 117:1.0 
1.0 1770:1.0 
1.0 653:1.0 
1.0 1735:1.0 
0.5087890625 511:1.0 
1.0 1486:1.0 
1.0 657:1.0 
1.0 95:1.0 
1.0 1898:1.0 
1.0 5588:1.0 
1.0 5589:1.0 
0.5087890625 1345:1.0 
1.0 5760:1.0 
1.0 39:1.0 
1.0 1082:1.0 
1.0 496:1.0 
1.0 5761:1.0 
1.0 5762:1.0 
1.0 234:1.0 
1.0 653:1.0 
1.0 43:1.0 
1.0 2330:1.0 
1.0 2348:1.0 
1.0 565:1.0 
1.0 27:1.0 
1.0 2266:1.0 
1.0 26:1.0 
1.0 1822:1.0 
1.0 1860:1.0 
1.0 5769:1.0 
1.0 48:1.0 
1.0 5576:1.0 
1.0 1728:1.0 
1.0 5772:1.0 
1.0 585:1.0 
1.0 5391:1.0 
1.0 702:1.0 
0.5087890625 1780:1.0 
1.0 1307:1.0 
1.0 1303:1.0 
0.5087890625 35:1.0 
0.5087890625 1573:1.0 
1.0 1704:1.0 
1.0 4632:1.0 
1.0 1:1.0 
1.0 207:1.0 
1.0 2492:1.0 
1.0 143:1.0 
1.0 1811:1.0 
1.0 1:1.0 
0.5087890625 78:1.0 
1.0 5778:1.0 
0.5087890625 1501:1.0 
1.0 1973:1.0 
0.5087890625 758:1.0 
0.5087890625 852:1.0 
0.5087890625 1392:1.0 
1.0 5:1.0 
0.5087890625 1618:1.0 
1.0 2032:1.0 
1.0 667:1.0 
1.0 702:1.0 
1.0 1618:1.0 
0.5087890625 5281:1.0 
0.5087890625 5776:1.0 
1.0 143:1.0 
1.0 1266:1.0 
1.0 5790:1.0 
1.0 5006:1.0 
1.0 1553:1.0 
1.0 2579:1.0 
1.0 1985:1.0 
1.0 5794:1.0 
0.5087890625 5796:1.0 
1.0 1275:1.0 
1.0 5797:1.0 
1.0 5800:1.0 
0.5087890625 5805:1.0 
0.5087890625 64:1.0 
1.0 5808:1.0 
1.0 695:1.0 
1.0 5809:1.0 
1.0 3914:1.0 
1.0 895:1.0 
1.0 37:1.0 
1.0 1428:1.0 
1.0 35:1.0 
1.0 1159:1.0 
1.0 495:1.0 
1.0 702:1.0 
1.0 5811:1.0 
1.0 852:1.0 
1.0 581:1.0 
1.0 3528:1.0 
1.0 6:1.0 
1.0 46:1.0 
0.5087890625 5813:1.0 
1.0 496:1.0 
1.0 5815:1.0 
1.0 696:1.0 
0.5087890625 1140:1.0 
1.0 667:1.0 
1.0 232:1.0 
1.0 1140:1.0 
1.0 791:1.0 
1.0 2035:1.0 
1.0 5819:1.0 
1.0 5796:1.0 
1.0 5820:1.0 
1.0 206:1.0 
1.0 1035:1.0 
1.0 5822:1.0 
1.0 5824:1.0 
1.0 1707:1.0 
1.0 1920:1.0 
1.0 5825:1.0 
1.0 5427:1.0 
1.0 206:1.0 
1.0 1085:1.0 
0.5087890625 5830:1.0 
1.0 253:1.0 
1.0 2455:1.0 
1.0 667:1.0 
1.0 5833:1.0 
1.0 4961:1.0 
1.0 3593:1.0 
1.0 35:1.0 
1.0 113:1.0 
1.0 5830:1.0 
1.0 189:1.0 
1.0 343:1.0 
1.0 472:1.0 
1.0 745:1.0 
1.0 955:1.0 
1.0 653:1.0 
1.0 654:1.0 
1.0 143:1.0 
1.0 1121:1.0 
1.0 667:1.0 
1.0 9:1.0 
1.0 485:1.0 
1.0 702:1.0 
1.0 5835:1.0 
1.0 232:1.0 
1.0 883:1.0 
1.0 5837:1.0 
1.0 667:1.0 
1.0 3115:1.0 
1.0 598:1.0 
0.5087890625 5839:1.0 
1.0 3891:1.0 
1.0 702:1.0 
1.0 4480:1.0 
0.5087890625 1992:1.0 
1.0 1554:1.0 
1.0 5840:1.0 
1.0 415:1.0 
1.0 1992:1.0 
1.0 1554:1.0 
1.0 5839:1.0 
1.0 1012:1.0 
1.0 590:1.0 
0.5087890625 614:1.0 
1.0 206:1.0 
1.0 5845:1.0 
1.0 695:1.0 
1.0 654:1.0 
1.0 1482:1.0 
1.0 17:1.0 
1.0 478:1.0 
1.0 851:1.0 
0.5087890625 3134:1.0 
1.0 5847:1.0 
1.0 851:1.0 
1.0 64:1.0 
1.0 1956:1.0 
1.0 5848:1.0 
1.0 4565:1.0 
1.0 667:1.0 
1.0 232:1.0 
1.0 5849:1.0 
1.0 702:1.0 
1.0 554:1.0 
0.5087890625 741:1.0 
1.0 1392:1.0 
1.0 207:1.0 
1.0 852:1.0 
1.0 35:1.0 
1.0 9:1.0 
1.0 9:1.0 
1.0 2553:1.0 
1.0 5:1.0 
1.0 2225:1.0 
1.0 2224:1.0 
1.0 46:1.0 
1.0 13:1.0 
1.0 5853:1.0 
1.0 46:1.0 
0.5087890625 787:1.0 
1.0 46:1.0 
1.0 5856:1.0 
1.0 5:1.0 
1.0 35:1.0 
0.5087890625 890:1.0 
1.0 3144:1.0 
1.0 5858:1.0 
1.0 35:1.0 
1.0 689:1.0 
1.0 35:1.0 
1.0 253:1.0 
0.5087890625 3917:1.0 
1.0 4005:1.0 
1.0 300:1.0 
1.0 5861:1.0 
1.0 5864:1.0 
1.0 3558:1.0 
1.0 1309:1.0 
1.0 27:1.0 
1.0 1245:1.0 
0.5087890625 166:1.0 
1.0 2054:1.0 
1.0 18:1.0 
1.0 46:1.0 
0.5087890625 280:1.0 
0.5087890625 587:1.0 
1.0 689:1.0 
1.0 1154:1.0 
1.0 251:1.0 
1.0 355:1.0 
1.0 1154:1.0 
1.0 166:1.0 
1.0 1501:1.0 
1.0 478:1.0 
1.0 689:1.0 
1.0 2605:1.0 
1.0 890:1.0 
1.0 282:1.0 
1.0 35:1.0 
1.0 653:1.0 
1.0 2807:1.0 
1.0 2773:1.0 
1.0 5875:1.0 
1.0 2978:1.0 
1.0 5876:1.0 
1.0 369:1.0 
1.0 35:1.0 
1.0 207:1.0 
1.0 207:1.0 
1.0 3144:1.0 
1.0 671:1.0 
1.0 671:1.0 
1.0 5878:1.0 
1.0 82:1.0 
1.0 697:1.0 
1.0 890:1.0 
0.5087890625 676:1.0 
0.5087890625 5780:1.0 
1.0 201:1.0 
1.0 461:1.0 
1.0 676:1.0 
1.0 27:1.0 
1.0 13:1.0 
1.0 5:1.0 
1.0 201:1.0 
1.0 2039:1.0 
1.0 201:1.0 
1.0 676:1.0 
1.0 1428:1.0 
1.0 52:1.0 
1.0 9:1.0 
1.0 201:1.0 
1.0 5883:1.0 
1.0 5780:1.0 
1.0 4508:1.0 
1.0 5:1.0 
1.0 37:1.0 
1.0 3558:1.0 
1.0 1900:1.0 
1.0 5514:1.0 
0.5087890625 5879:1.0 
1.0 3100:1.0 
1.0 5884:1.0 
1.0 5886:1.0 
1.0 5:1.0 
1.0 13:1.0 
1.0 2473:1.0 
1.0 380:1.0 
1.0 150:1.0 
1.0 1184:1.0 
0.5087890625 5779:1.0 
1.0 5779:1.0 
1.0 1659:1.0 
1.0 495:1.0 
1.0 282:1.0 
1.0 5:1.0 
1.0 598:1.0 
1.0 380:1.0 
1.0 345:1.0 
1.0 13:1.0 
1.0 1453:1.0 
1.0 415:1.0 
1.0 367:1.0 
1.0 2246:1.0 
1.0 806:1.0 
1.0 1140:1.0 
0.5087890625 904:1.0 
1.0 13:1.0 
0.5087890625 1526:1.0 
1.0 2590:1.0 
1.0 890:1.0 
1.0 2922:1.0 
1.0 2790:1.0 
1.0 4211:1.0 
1.0 4092:1.0 
1.0 1579:1.0 
0.5087890625 5896:1.0 
1.0 1593:1.0 
1.0 472:1.0 
1.0 598:1.0 
1.0 1140:1.0 
1.0 1055:1.0 
1.0 1526:1.0 
1.0 809:1.0 
1.0 5899:1.0 
1.0 478:1.0 
1.0 478:1.0 
1.0 3134:1.0 
1.0 13:1.0 
1.0 890:1.0 
1.0 1469:1.0 
1.0 2446:1.0 
0.5087890625 746:1.0 
1.0 13:1.0 
1.0 1543:1.0 
1.0 478:1.0 
1.0 5896:1.0 
1.0 598:1.0 
1.0 587:1.0 
1.0 13:1.0 
1.0 217:1.0 
1.0 3720:1.0 
1.0 696:1.0 
1.0 282:1.0 
1.0 671:1.0 
1.0 2:1.0 
1.0 201:1.0 
1.0 559:1.0 
1.0 890:1.0 
1.0 309:1.0 
1.0 1119:1.0 
0.5087890625 133:1.0 
1.0 2:1.0 
1.0 201:1.0 
0.5087890625 638:1.0 
1.0 5:1.0 
1.0 5375:1.0 
1.0 1051:1.0 
1.0 5813:1.0 
1.0 17:1.0 
1.0 488:1.0 
1.0 1123:1.0 
1.0 638:1.0 
1.0 5281:1.0 
1.0 3563:1.0 
1.0 1593:1.0 
1.0 2262:1.0 
0.5087890625 5871:1.0 
1.0 695:1.0 
1.0 467:1.0 
1.0 685:1.0 
1.0 671:1.0 
1.0 3870:1.0 
1.0 904:1.0 
1.0 1618:1.0 
1.0 5776:1.0 
1.0 336:1.0 
1.0 48:1.0 
1.0 5235:1.0 
1.0 45:1.0 
1.0 1119:1.0 
1.0 1174:1.0 
1.0 37:1.0 
1.0 1119:1.0 
1.0 5871:1.0 
1.0 5911:1.0 
1.0 46:1.0 
1.0 5914:1.0 
1.0 5916:1.0 
1.0 5919:1.0 
1.0 890:1.0 
1.0 3100:1.0 
1.0 46:1.0 
1.0 1140:1.0 
1.0 852:1.0 
1.0 2:1.0 
1.0 1707:1.0 
1.0 4480:1.0 
1.0 2:1.0 
0.5087890625 1628:1.0 
1.0 852:1.0 
1.0 935:1.0 
0.5087890625 1265:1.0 
1.0 2:1.0 
1.0 702:1.0 
1.0 1796:1.0 
1.0 201:1.0 
1.0 1307:1.0 
1.0 1297:1.0 
1.0 27:1.0 
1.0 13:1.0 
1.0 332:1.0 
1.0 46:1.0 
1.0 201:1.0 
1.0 37:1.0 
1.0 3458:1.0 
1.0 4634:1.0 
1.0 2:1.0 
1.0 1262:1.0 
1.0 1262:1.0 
1.0 109:1.0 
0.5087890625 177:1.0 
1.0 955:1.0 
1.0 5:1.0 
1.0 5934:1.0 
1.0 5935:1.0 
1.0 363:1.0 
1.0 39:1.0 
1.0 2:1.0 
0.5087890625 5234:1.0 
1.0 1593:1.0 
1.0 5940:1.0 
1.0 5805:1.0 
1.0 741:1.0 
1.0 207:1.0 
1.0 332:1.0 
1.0 128:1.0 
1.0 2184:1.0 
1.0 5946:1.0 
1.0 13:1.0 
1.0 846:1.0 
1.0 475:1.0 
1.0 41:1.0 
1.0 399:1.0 
1.0 5953:1.0 
1.0 508:1.0 
1.0 1543:1.0 
1.0 629:1.0 
1.0 232:1.0 
1.0 17:1.0 
1.0 2783:1.0 
1.0 952:1.0 
1.0 46:1.0 
1.0 2224:1.0 
1.0 846:1.0 
1.0 2655:1.0 
0.5087890625 1145:1.0 
1.0 130:1.0 
1.0 43:1.0 
1.0 3562:1.0 
1.0 1840:1.0 
1.0 1024:1.0 
1.0 2167:1.0 
1.0 35:1.0 
1.0 1264:1.0 
1.0 3790:1.0 
1.0 1543:1.0 
0.5087890625 3821:1.0 
0.5087890625 5949:1.0 
1.0 2378:1.0 
1.0 2783:1.0 
1.0 3283:1.0 
1.0 838:1.0 
1.0 1245:1.0 
1.0 2590:1.0 
1.0 615:1.0 
1.0 472:1.0 
0.5087890625 5963:1.0 
1.0 1997:1.0 
1.0 1779:1.0 
1.0 13:1.0 
1.0 3747:1.0 
1.0 224:1.0 
1.0 702:1.0 
0.5087890625 104:1.0 
1.0 232:1.0 
1.0 46:1.0 
1.0 883:1.0 
1.0 385:1.0 
1.0 2016:1.0 
1.0 448:1.0 
0.5087890625 5966:1.0 
1.0 5966:1.0 
1.0 1830:1.0 
1.0 456:1.0 
1.0 2106:1.0 
1.0 2610:1.0 
1.0 504:1.0 
1.0 719:1.0 
1.0 37:1.0 
1.0 883:1.0 
1.0 1828:1.0 
1.0 527:1.0 
1.0 673:1.0 
0.5087890625 934:1.0 
1.0 1384:1.0 
1.0 2427:1.0 
1.0 2179:1.0 
1.0 673:1.0 
1.0 1643:1.0 
1.0 719:1.0 
1.0 78:1.0 
1.0 1035:1.0 
0.5087890625 124:1.0 
1.0 46:1.0 
1.0 180:1.0 
1.0 615:1.0 
1.0 791:1.0 
1.0 37:1.0 
1.0 1555:1.0 
1.0 476:1.0 
1.0 2016:1.0 
1.0 598:1.0 
1.0 250:1.0 
1.0 4:1.0 
1.0 232:1.0 
1.0 1154:1.0 
1.0 419:1.0 
1.0 472:1.0 
1.0 680:1.0 
0.5087890625 22:1.0 
1.0 82:1.0 
1.0 1573:1.0 
1.0 598:1.0 
1.0 250:1.0 
1.0 506:1.0 
1.0 527:1.0 
1.0 817:1.0 
1.0 3896:1.0 
1.0 168:1.0 
1.0 725:1.0 
1.0 608:1.0 
1.0 746:1.0 
1.0 1543:1.0 
1.0 3821:1.0 
1.0 2783:1.0 
0.5087890625 1506:1.0 
1.0 22:1.0 
1.0 456:1.0 
1.0 614:1.0 
1.0 630:1.0 
1.0 3896:1.0 
1.0 5993:1.0 
1.0 667:1.0 
1.0 5994:1.0 
1.0 719:1.0 
1.0 10:1.0 
1.0 1265:1.0 
1.0 2159:1.0 
1.0 1384:1.0 
1.0 2377:1.0 
1.0 598:1.0 
1.0 9:1.0 
1.0 1849:1.0 
0.5087890625 2518:1.0 
0.5087890625 147:1.0 
0.5087890625 681:1.0 
1.0 1154:1.0 
1.0 37:1.0 
1.0 506:1.0 
1.0 195:1.0 
1.0 124:1.0 
1.0 46:1.0 
0.5087890625 2398:1.0 
1.0 46:1.0 
1.0 150:1.0 
1.0 232:1.0 
1.0 1245:1.0 
1.0 46:1.0 
1.0 250:1.0 
1.0 476:1.0 
1.0 13:1.0 
1.0 3145:1.0 
1.0 13:1.0 
1.0 740:1.0 
1.0 3170:1.0 
1.0 1154:1.0 
1.0 2398:1.0 
0.5087890625 3738:1.0 
0.5087890625 1096:1.0 
0.5087890625 1170:1.0 
1.0 472:1.0 
1.0 2938:1.0 
1.0 1119:1.0 
1.0 472:1.0 
1.0 6005:1.0 
1.0 3738:1.0 
1.0 1558:1.0 
1.0 3466:1.0 
1.0 1119:1.0 
1.0 5235:1.0 
1.0 6009:1.0 
1.0 1100:1.0 
1.0 472:1.0 
1.0 1140:1.0 
0.5087890625 5954:1.0 
1.0 13:1.0 
1.0 1520:1.0 
1.0 147:1.0 
1.0 109:1.0 
1.0 46:1.0 
1.0 318:1.0 
1.0 41:1.0 
1.0 1345:1.0 
1.0 478:1.0 
1.0 13:1.0 
1.0 37:1.0 
1.0 2935:1.0 
1.0 301:1.0 
1.0 2518:1.0 
1.0 41:1.0 
0.5087890625 1819:1.0 
1.0 1154:1.0 
1.0 367:1.0 
1.0 13:1.0 
1.0 1444:1.0 
0.5087890625 5317:1.0 
1.0 511:1.0 
0.5087890625 4488:1.0 
1.0 1035:1.0 
0.5087890625 2191:1.0 
1.0 10:1.0 
1.0 224:1.0 
1.0 3006:1.0 
1.0 147:1.0 
1.0 4488:1.0 
1.0 1035:1.0 
1.0 2191:1.0 
1.0 725:1.0 
1.0 64:1.0 
1.0 103:1.0 
1.0 1348:1.0 
1.0 3071:1.0 
0.5087890625 1037:1.0 
1.0 1348:1.0 
1.0 2191:1.0 
1.0 1170:1.0 
1.0 73:1.0 
1.0 681:1.0 
1.0 630:1.0 
1.0 4352:1.0 
1.0 37:1.0 
1.0 506:1.0 
1.0 1819:1.0 
1.0 1154:1.0 
0.5087890625 1807:1.0 
1.0 1787:1.0 
1.0 95:1.0 
1.0 52:1.0 
1.0 147:1.0 
1.0 253:1.0 
1.0 4:1.0 
1.0 2191:1.0 
1.0 2058:1.0 
1.0 1170:1.0 
1.0 239:1.0 
0.5087890625 5408:1.0 
1.0 5408:1.0 
1.0 41:1.0 
1.0 325:1.0 
1.0 13:1.0 
1.0 5234:1.0 
1.0 46:1.0 
1.0 1348:1.0 
1.0 4:1.0 
1.0 93:1.0 
1.0 2191:1.0 
1.0 1037:1.0 
1.0 1819:1.0 
1.0 1154:1.0 
1.0 1807:1.0 
1.0 6026:1.0 
1.0 1175:1.0 
1.0 13:1.0 
1.0 385:1.0 
1.0 130:1.0 
0.5087890625 2753:1.0 
0.5087890625 2474:1.0 
1.0 13:1.0 
1.0 702:1.0 
1.0 598:1.0 
1.0 1348:1.0 
1.0 2815:1.0 
0.5087890625 430:1.0 
1.0 6029:1.0 
1.0 598:1.0 
1.0 932:1.0 
1.0 2474:1.0 
1.0 5949:1.0 
1.0 1506:1.0 
1.0 3137:1.0 
1.0 456:1.0 
1.0 1555:1.0 
1.0 22:1.0 
1.0 5954:1.0 
1.0 817:1.0 
0.5087890625 1276:1.0 
1.0 5317:1.0 
1.0 27:1.0 
1.0 456:1.0 
0.5087890625 2670:1.0 
1.0 2432:1.0 
1.0 456:1.0 
1.0 1430:1.0 
1.0 2753:1.0 
1.0 813:1.0 
1.0 598:1.0 
1.0 932:1.0 
1.0 2474:1.0 
1.0 46:1.0 
1.0 3137:1.0 
1.0 27:1.0 
1.0 2670:1.0 
0.5087890625 151:1.0 
1.0 967:1.0 
1.0 46:1.0 
1.0 2594:1.0 
1.0 1288:1.0 
1.0 13:1.0 
1.0 472:1.0 
1.0 37:1.0 
1.0 5963:1.0 
1.0 1780:1.0 
1.0 27:1.0 
1.0 5:1.0 
1.0 37:1.0 
0.5087890625 968:1.0 
1.0 6043:1.0 
1.0 1835:1.0 
0.5087890625 3490:1.0 
1.0 6046:1.0 
1.0 316:1.0 
0.5087890625 2355:1.0 
1.0 585:1.0 
1.0 6047:1.0 
1.0 448:1.0 
1.0 617:1.0 
1.0 448:1.0 
0.5087890625 2512:1.0 
0.5087890625 606:1.0 
0.5087890625 466:1.0 
0.5087890625 3787:1.0 
1.0 446:1.0 
1.0 2555:1.0 
1.0 37:1.0 
1.0 2759:1.0 
1.0 448:1.0 
1.0 606:1.0 
1.0 466:1.0 
0.5087890625 2814:1.0 
1.0 2477:1.0 
1.0 2512:1.0 
0.5087890625 443:1.0 
1.0 2761:1.0 
1.0 2763:1.0 
1.0 6049:1.0 
1.0 124:1.0 
1.0 2849:1.0 
1.0 1364:1.0 
1.0 598:1.0 
1.0 1370:1.0 
1.0 1370:1.0 
1.0 2792:1.0 
1.0 282:1.0 
0.5087890625 550:1.0 
1.0 282:1.0 
1.0 2412:1.0 
1.0 2923:1.0 
1.0 598:1.0 
1.0 316:1.0 
1.0 1286:1.0 
1.0 316:1.0 
1.0 1575:1.0 
1.0 1794:1.0 
1.0 550:1.0 
1.0 253:1.0 
1.0 443:1.0 
0.5087890625 441:1.0 
0.5087890625 1821:1.0 
1.0 37:1.0 
1.0 968:1.0 
1.0 575:1.0 
0.5087890625 1401:1.0 
1.0 1276:1.0 
0.5087890625 2562:1.0 
1.0 606:1.0 
1.0 2923:1.0 
1.0 2355:1.0 
1.0 689:1.0 
1.0 2555:1.0 
0.5087890625 2756:1.0 
1.0 550:1.0 
1.0 435:1.0 
1.0 6056:1.0 
1.0 4414:1.0 
1.0 133:1.0 
1.0 37:1.0 
1.0 441:1.0 
1.0 617:1.0 
1.0 448:1.0 
0.5087890625 3501:1.0 
1.0 110:1.0 
1.0 617:1.0 
1.0 990:1.0 
1.0 3501:1.0 
1.0 2481:1.0 
1.0 110:1.0 
1.0 3939:1.0 
1.0 448:1.0 
1.0 448:1.0 
1.0 2814:1.0 
1.0 6059:1.0 
1.0 707:1.0 
1.0 2481:1.0 
1.0 17:1.0 
1.0 537:1.0 
1.0 2481:1.0 
1.0 441:1.0 
0.5087890625 626:1.0 
1.0 2800:1.0 
1.0 2756:1.0 
1.0 316:1.0 
1.0 448:1.0 
1.0 2922:1.0 
1.0 448:1.0 
1.0 37:1.0 
1.0 316:1.0 
1.0 600:1.0 
1.0 386:1.0 
1.0 399:1.0 
1.0 1150:1.0 
1.0 441:1.0 
1.0 466:1.0 
0.5087890625 570:1.0 
1.0 2923:1.0 
1.0 2481:1.0 
1.0 2774:1.0 
1.0 3263:1.0 
0.5087890625 1065:1.0 
1.0 2481:1.0 
0.5087890625 434:1.0 
1.0 2355:1.0 
1.0 2397:1.0 
1.0 441:1.0 
1.0 316:1.0 
1.0 434:1.0 
1.0 617:1.0 
1.0 746:1.0 
1.0 3490:1.0 
0.5087890625 2767:1.0 
1.0 446:1.0 
1.0 2763:1.0 
1.0 282:1.0 
1.0 626:1.0 
1.0 2763:1.0 
1.0 430:1.0 
0.5087890625 545:1.0 
1.0 430:1.0 
1.0 545:1.0 
1.0 1297:1.0 
1.0 2562:1.0 
0.5087890625 4106:1.0 
1.0 430:1.0 
1.0 546:1.0 
1.0 386:1.0 
1.0 312:1.0 
1.0 4354:1.0 
1.0 238:1.0 
1.0 2716:1.0 
1.0 4344:1.0 
1.0 59:1.0 
0.5087890625 429:1.0 
1.0 23:1.0 
1.0 318:1.0 
1.0 2562:1.0 
1.0 568:1.0 
1.0 335:1.0 
1.0 6067:1.0 
1.0 4016:1.0 
1.0 639:1.0 
1.0 3777:1.0 
1.0 37:1.0 
1.0 2922:1.0 
1.0 1276:1.0 
1.0 104:1.0 
0.5087890625 271:1.0 
1.0 712:1.0 
1.0 6070:1.0 
1.0 456:1.0 
1.0 133:1.0 
1.0 319:1.0 
1.0 3106:1.0 
0.5087890625 2843:1.0 
1.0 2562:1.0 
1.0 37:1.0 
1.0 3809:1.0 
1.0 2941:1.0 
1.0 456:1.0 
1.0 6075:1.0 
1.0 598:1.0 
1.0 1065:1.0 
0.5087890625 156:1.0 
1.0 606:1.0 
0.5087890625 807:1.0 
1.0 3928:1.0 
1.0 3787:1.0 
0.5087890625 3522:1.0 
0.5087890625 3483:1.0 
1.0 712:1.0 
1.0 1276:1.0 
0.5087890625 769:1.0 
1.0 312:1.0 
1.0 316:1.0 
1.0 769:1.0 
1.0 316:1.0 
1.0 456:1.0 
1.0 899:1.0 
0.5087890625 157:1.0 
1.0 3483:1.0 
1.0 430:1.0 
1.0 550:1.0 
1.0 606:1.0 
1.0 3483:1.0 
1.0 2756:1.0 
1.0 3483:1.0 
1.0 3522:1.0 
1.0 689:1.0 
1.0 316:1.0 
0.5087890625 144:1.0 
1.0 3483:1.0 
1.0 2760:1.0 
1.0 133:1.0 
1.0 703:1.0 
1.0 3483:1.0 
1.0 443:1.0 
1.0 2676:1.0 
1.0 6088:1.0 
1.0 1489:1.0 
1.0 1387:1.0 
0.5087890625 1165:1.0 
1.0 575:1.0 
1.0 3483:1.0 
1.0 319:1.0 
1.0 2811:1.0 
1.0 1568:1.0 
1.0 1387:1.0 
1.0 3513:1.0 
1.0 22:1.0 
1.0 4647:1.0 
1.0 5879:1.0 
1.0 2903:1.0 
1.0 363:1.0 
1.0 3483:1.0 
1.0 271:1.0 
1.0 1568:1.0 
1.0 138:1.0 
1.0 335:1.0 
1.0 536:1.0 
1.0 536:1.0 
1.0 550:1.0 
1.0 157:1.0 
1.0 319:1.0 
1.0 791:1.0 
1.0 3483:1.0 
0.5087890625 2817:1.0 
1.0 335:1.0 
1.0 3909:1.0 
1.0 1165:1.0 
1.0 3481:1.0 
0.5087890625 2984:1.0 
1.0 606:1.0 
1.0 3832:1.0 
1.0 614:1.0 
0.5087890625 3495:1.0 
1.0 3483:1.0 
1.0 2312:1.0 
1.0 2922:1.0 
1.0 295:1.0 
0.5087890625 1181:1.0 
1.0 638:1.0 
0.5087890625 1102:1.0 
1.0 3483:1.0 
0.5087890625 874:1.0 
1.0 2062:1.0 
1.0 1065:1.0 
1.0 138:1.0 
1.0 151:1.0 
1.0 787:1.0 
1.0 600:1.0 
1.0 461:1.0 
1.0 2887:1.0 
1.0 2944:1.0 
1.0 2817:1.0 
0.5087890625 2385:1.0 
1.0 712:1.0 
1.0 2810:1.0 
1.0 300:1.0 
1.0 4483:1.0 
1.0 2497:1.0 
1.0 1819:1.0 
0.5087890625 1350:1.0 
0.5087890625 2462:1.0 
1.0 157:1.0 
1.0 443:1.0 
1.0 1350:1.0 
1.0 318:1.0 
1.0 2898:1.0 
1.0 443:1.0 
1.0 2446:1.0 
1.0 6122:1.0 
1.0 825:1.0 
0.5087890625 753:1.0 
1.0 439:1.0 
1.0 429:1.0 
1.0 2052:1.0 
0.5087890625 2550:1.0 
1.0 3464:1.0 
1.0 550:1.0 
1.0 441:1.0 
1.0 316:1.0 
1.0 2562:1.0 
1.0 2648:1.0 
1.0 315:1.0 
1.0 133:1.0 
0.5087890625 423:1.0 
1.0 3483:1.0 
0.5087890625 804:1.0 
1.0 133:1.0 
1.0 3495:1.0 
1.0 3483:1.0 
0.5087890625 971:1.0 
1.0 2462:1.0 
1.0 598:1.0 
1.0 2774:1.0 
1.0 550:1.0 
0.5087890625 538:1.0 
1.0 570:1.0 
0.5087890625 2740:1.0 
1.0 157:1.0 
1.0 1489:1.0 
1.0 456:1.0 
0.5087890625 107:1.0 
1.0 1489:1.0 
1.0 2792:1.0 
1.0 259:1.0 
1.0 2843:1.0 
1.0 671:1.0 
1.0 2462:1.0 
1.0 151:1.0 
1.0 2462:1.0 
1.0 1165:1.0 
1.0 2817:1.0 
1.0 298:1.0 
1.0 363:1.0 
0.5087890625 299:1.0 
1.0 2922:1.0 
1.0 299:1.0 
0.5087890625 148:1.0 
1.0 37:1.0 
1.0 3917:1.0 
1.0 367:1.0 
1.0 689:1.0 
1.0 3523:1.0 
1.0 777:1.0 
1.0 3495:1.0 
1.0 3483:1.0 
1.0 3483:1.0 
1.0 441:1.0 
1.0 3483:1.0 
1.0 441:1.0 
1.0 2767:1.0 
1.0 1168:1.0 
1.0 2792:1.0 
1.0 3483:1.0 
1.0 2385:1.0 
1.0 298:1.0 
1.0 298:1.0 
1.0 110:1.0 
1.0 3483:1.0 
1.0 1065:1.0 
1.0 4106:1.0 
1.0 446:1.0 
1.0 429:1.0 
1.0 538:1.0 
1.0 1102:1.0 
1.0 151:1.0 
1.0 1647:1.0 
1.0 598:1.0 
1.0 538:1.0 
1.0 2817:1.0 
1.0 2385:1.0 
1.0 769:1.0 
0.5087890625 306:1.0 
0.5087890625 1028:1.0 
1.0 37:1.0 
1.0 753:1.0 
0.5087890625 468:1.0 
0.5087890625 455:1.0 
1.0 271:1.0 
0.5087890625 2844:1.0 
1.0 3497:1.0 
1.0 1663:1.0 
1.0 157:1.0 
1.0 443:1.0 
1.0 386:1.0 
1.0 606:1.0 
0.5087890625 292:1.0 
1.0 598:1.0 
1.0 3263:1.0 
1.0 600:1.0 
1.0 1821:1.0 
1.0 934:1.0 
1.0 37:1.0 
0.5087890625 3484:1.0 
1.0 319:1.0 
1.0 59:1.0 
1.0 37:1.0 
1.0 399:1.0 
1.0 239:1.0 
0.5087890625 6130:1.0 
1.0 1116:1.0 
1.0 971:1.0 
1.0 1165:1.0 
1.0 597:1.0 
1.0 769:1.0 
1.0 423:1.0 
1.0 316:1.0 
1.0 807:1.0 
1.0 468:1.0 
1.0 2922:1.0 
1.0 299:1.0 
1.0 2462:1.0 
0.5087890625 464:1.0 
0.5087890625 51:1.0 
1.0 13:1.0 
1.0 144:1.0 
0.5087890625 924:1.0 
0.5087890625 534:1.0 
1.0 51:1.0 
1.0 769:1.0 
1.0 924:1.0 
1.0 534:1.0 
1.0 2861:1.0 
1.0 534:1.0 
1.0 27:1.0 
1.0 292:1.0 
1.0 306:1.0 
1.0 464:1.0 
1.0 2062:1.0 
1.0 6088:1.0 
0.5087890625 58:1.0 
1.0 780:1.0 
1.0 598:1.0 
1.0 1065:1.0 
1.0 600:1.0 
0.5087890625 424:1.0 
1.0 550:1.0 
1.0 306:1.0 
1.0 299:1.0 
1.0 456:1.0 
1.0 2385:1.0 
1.0 2817:1.0 
1.0 1053:1.0 
0.5087890625 801:1.0 
0.5087890625 912:1.0 
1.0 757:1.0 
1.0 1401:1.0 
1.0 429:1.0 
1.0 1752:1.0 
1.0 3504:1.0 
1.0 546:1.0 
1.0 1244:1.0 
1.0 502:1.0 
1.0 980:1.0 
0.5087890625 388:1.0 
1.0 1851:1.0 
1.0 3983:1.0 
1.0 388:1.0 
1.0 746:1.0 
1.0 1884:1.0 
1.0 3139:1.0 
1.0 2984:1.0 
