svm_type c_svc
kernel_type linear
nr_class 2
total_sv 25510
rho 0.3610223212914916
label 1 -1
nr_sv 10200 15310
SV
0.8234092848854988 9:1.0 10:1.0 11:1.0 12:1.0 
1.0 9:1.0 34:1.0 11:1.0 12:1.0 
0.01972731467477372 37:1.0 34:1.0 23:1.0 20:1.0 
0.23397640857376026 58:1.0 22:1.0 35:1.0 31:1.0 
0.2977074575473425 55:1.0 60:1.0 23:1.0 26:1.0 
1.0 61:1.0 22:1.0 11:1.0 31:1.0 
1.0 61:1.0 22:1.0 11:1.0 31:1.0 
0.0194242728996365 37:1.0 34:1.0 11:1.0 20:1.0 
1.0 37:1.0 48:1.0 73:1.0 20:1.0 
0.39789221202826086 76:1.0 77:1.0 23:1.0 20:1.0 
1.0 84:1.0 60:1.0 85:1.0 12:1.0 
0.6299458468657395 55:1.0 10:1.0 23:1.0 39:1.0 
0.9996583848496845 89:1.0 60:1.0 85:1.0 12:1.0 
0.503957887459967 55:1.0 48:1.0 19:1.0 39:1.0 
1.0 38:1.0 22:1.0 23:1.0 39:1.0 
0.6370442790819802 92:1.0 44:1.0 15:1.0 20:1.0 
0.3402465685626502 94:1.0 44:1.0 25:1.0 4:1.0 
0.1392254835313596 97:1.0 10:1.0 11:1.0 31:1.0 
0.13922548353135966 97:1.0 18:1.0 23:1.0 31:1.0 
0.05740982949163432 110:1.0 10:1.0 111:1.0 4:1.0 
0.04534399723468705 110:1.0 10:1.0 30:1.0 4:1.0 
0.0026687371708871838 117:1.0 10:1.0 105:1.0 20:1.0 
0.14522740323418837 117:1.0 48:1.0 105:1.0 16:1.0 
1.0 38:1.0 22:1.0 15:1.0 39:1.0 
0.010034445805546535 126:1.0 10:1.0 30:1.0 12:1.0 
0.23686222145042846 127:1.0 18:1.0 7:1.0 20:1.0 
1.0 38:1.0 22:1.0 30:1.0 39:1.0 
0.17004206758887044 133:1.0 48:1.0 73:1.0 39:1.0 
0.17035558854701088 133:1.0 48:1.0 30:1.0 39:1.0 
0.08890320555971948 135:1.0 44:1.0 85:1.0 20:1.0 
0.5578679397500302 76:1.0 77:1.0 30:1.0 20:1.0 
1.0 38:1.0 22:1.0 79:1.0 39:1.0 
0.3402001617167535 150:1.0 18:1.0 7:1.0 47:1.0 
0.09939864803550814 154:1.0 60:1.0 15:1.0 20:1.0 
0.09944973060298196 154:1.0 60:1.0 30:1.0 20:1.0 
1.0 38:1.0 22:1.0 15:1.0 39:1.0 
0.05297832317365048 112:1.0 6:1.0 162:1.0 12:1.0 
0.03523529871072882 163:1.0 48:1.0 30:1.0 159:1.0 
0.11150144898215023 166:1.0 10:1.0 30:1.0 39:1.0 
0.3402429826876783 178:1.0 18:1.0 7:1.0 26:1.0 
0.5306504782431238 194:1.0 18:1.0 195:1.0 39:1.0 
0.2273546372980845 205:1.0 18:1.0 7:1.0 185:1.0 
0.0441484500840703 215:1.0 48:1.0 189:1.0 102:1.0 
0.02097538804400832 219:1.0 34:1.0 111:1.0 220:1.0 
0.06585531064992661 215:1.0 48:1.0 73:1.0 12:1.0 
0.008446439827890104 230:1.0 34:1.0 105:1.0 70:1.0 
0.20939302923269487 241:1.0 34:1.0 11:1.0 12:1.0 
0.2474979105032585 242:1.0 18:1.0 7:1.0 191:1.0 
0.6952801470955213 252:1.0 28:1.0 46:1.0 33:1.0 
1.0 285:1.0 60:1.0 25:1.0 20:1.0 
0.15625201934268926 262:1.0 48:1.0 189:1.0 12:1.0 
0.15614386293818383 262:1.0 48:1.0 30:1.0 12:1.0 
1.0 264:1.0 10:1.0 105:1.0 20:1.0 
0.4225695584383009 177:1.0 77:1.0 189:1.0 81:1.0 
0.20932058689534505 312:1.0 171:1.0 11:1.0 20:1.0 
0.026395227320735015 56:1.0 22:1.0 23:1.0 31:1.0 
0.34019366727674816 315:1.0 18:1.0 7:1.0 20:1.0 
1.0 338:1.0 72:1.0 30:1.0 31:1.0 
0.3705927494326113 341:1.0 60:1.0 49:1.0 20:1.0 
0.31869544990875387 344:1.0 60:1.0 79:1.0 20:1.0 
0.07227401087720185 351:1.0 18:1.0 25:1.0 39:1.0 
0.10402258939730205 365:1.0 48:1.0 30:1.0 20:1.0 
0.0959552508615513 377:1.0 10:1.0 30:1.0 39:1.0 
1.0 378:1.0 28:1.0 15:1.0 39:1.0 
0.08242883647440852 380:1.0 18:1.0 260:1.0 20:1.0 
0.11640845155305439 377:1.0 48:1.0 30:1.0 31:1.0 
0.3198631275215315 387:1.0 171:1.0 49:1.0 39:1.0 
0.07631290116350711 391:1.0 60:1.0 7:1.0 39:1.0 
0.49243296887221233 399:1.0 6:1.0 46:1.0 26:1.0 
0.6270528238336548 400:1.0 171:1.0 30:1.0 31:1.0 
0.1605485662370843 401:1.0 44:1.0 7:1.0 4:1.0 
1.0 404:1.0 18:1.0 46:1.0 4:1.0 
0.09714381877354308 406:1.0 18:1.0 25:1.0 26:1.0 
0.11178635664064078 410:1.0 60:1.0 86:1.0 26:1.0 
0.23565700711265136 431:1.0 18:1.0 7:1.0 12:1.0 
0.0013217466807012926 101:1.0 48:1.0 11:1.0 20:1.0 
0.24241964615778416 410:1.0 10:1.0 111:1.0 159:1.0 
1.0 151:1.0 60:1.0 49:1.0 12:1.0 
0.11191855970555097 410:1.0 60:1.0 86:1.0 20:1.0 
0.001656428179015769 101:1.0 48:1.0 30:1.0 20:1.0 
0.1855413258327064 447:1.0 10:1.0 11:1.0 20:1.0 
0.3402413529637285 450:1.0 18:1.0 311:1.0 20:1.0 
0.047390830720912415 230:1.0 34:1.0 23:1.0 31:1.0 
0.3402408970137654 466:1.0 18:1.0 25:1.0 39:1.0 
0.23390765792776627 473:1.0 60:1.0 15:1.0 146:1.0 
0.044720410299481955 475:1.0 18:1.0 7:1.0 59:1.0 
0.34017557263168174 490:1.0 171:1.0 25:1.0 39:1.0 
0.2722977533300657 511:1.0 44:1.0 25:1.0 26:1.0 
0.40883214830578635 511:1.0 44:1.0 105:1.0 20:1.0 
0.04428273354245366 512:1.0 10:1.0 30:1.0 4:1.0 
0.5595565491723089 516:1.0 44:1.0 30:1.0 4:1.0 
0.08367753630126415 518:1.0 60:1.0 79:1.0 31:1.0 
0.23376805158402486 520:1.0 171:1.0 23:1.0 31:1.0 
0.0061537911669040934 523:1.0 18:1.0 46:1.0 16:1.0 
0.059267735868040364 524:1.0 18:1.0 23:1.0 418:1.0 
0.1655383483384367 526:1.0 60:1.0 79:1.0 20:1.0 
0.8633111058850171 80:1.0 34:1.0 30:1.0 4:1.0 
0.10969431384338091 529:1.0 60:1.0 79:1.0 16:1.0 
0.007930807054262662 530:1.0 18:1.0 86:1.0 20:1.0 
1.0 531:1.0 18:1.0 25:1.0 26:1.0 
0.09235038445354353 532:1.0 171:1.0 30:1.0 16:1.0 
0.9877645750395009 531:1.0 18:1.0 173:1.0 26:1.0 
0.6584883825926434 531:1.0 18:1.0 86:1.0 26:1.0 
0.14635307459081665 529:1.0 10:1.0 30:1.0 16:1.0 
0.006314806752314155 530:1.0 18:1.0 15:1.0 20:1.0 
0.9152487666158823 80:1.0 34:1.0 30:1.0 4:1.0 
0.06129218781089481 528:1.0 6:1.0 35:1.0 20:1.0 
0.7099804608179883 537:1.0 6:1.0 46:1.0 102:1.0 
0.15239381032046168 540:1.0 18:1.0 223:1.0 185:1.0 
0.2516693359080118 541:1.0 18:1.0 189:1.0 26:1.0 
0.1317779913129524 80:1.0 48:1.0 30:1.0 31:1.0 
0.04295357305510131 215:1.0 171:1.0 86:1.0 12:1.0 
0.778837847776076 80:1.0 34:1.0 30:1.0 16:1.0 
0.025080100417386404 528:1.0 6:1.0 23:1.0 26:1.0 
0.20932164929607022 546:1.0 77:1.0 23:1.0 16:1.0 
0.21615165217738105 547:1.0 18:1.0 23:1.0 418:1.0 
0.3306097402581138 550:1.0 60:1.0 35:1.0 20:1.0 
0.11258960679277552 551:1.0 171:1.0 25:1.0 39:1.0 
0.019911961475007074 553:1.0 18:1.0 30:1.0 12:1.0 
0.19213863908305073 379:1.0 18:1.0 162:1.0 329:1.0 
0.006212025120589944 528:1.0 6:1.0 30:1.0 26:1.0 
1.0 80:1.0 34:1.0 30:1.0 39:1.0 
0.39220177240139326 552:1.0 28:1.0 35:1.0 26:1.0 
0.1485382387385532 560:1.0 18:1.0 30:1.0 70:1.0 
0.4284865243153757 563:1.0 171:1.0 25:1.0 81:1.0 
1.0 56:1.0 22:1.0 23:1.0 567:1.0 
0.34023947320586595 573:1.0 18:1.0 46:1.0 418:1.0 
0.4525108401906715 574:1.0 10:1.0 420:1.0 12:1.0 
0.13609093937314748 575:1.0 48:1.0 19:1.0 185:1.0 
0.13366172107191074 577:1.0 6:1.0 189:1.0 185:1.0 
0.14853823873855326 560:1.0 18:1.0 30:1.0 42:1.0 
0.13304980998471444 135:1.0 44:1.0 23:1.0 12:1.0 
0.14870513016476192 560:1.0 18:1.0 30:1.0 20:1.0 
0.2389528535423833 580:1.0 22:1.0 23:1.0 26:1.0 
1.0 56:1.0 22:1.0 3:1.0 159:1.0 
0.20420830549307395 586:1.0 18:1.0 7:1.0 20:1.0 
0.32870005831019333 588:1.0 171:1.0 19:1.0 16:1.0 
0.14855858956822598 560:1.0 18:1.0 7:1.0 418:1.0 
0.24959073519955405 591:1.0 60:1.0 85:1.0 12:1.0 
0.07034638681852826 594:1.0 171:1.0 23:1.0 26:1.0 
1.0 595:1.0 10:1.0 30:1.0 16:1.0 
1.0 80:1.0 34:1.0 30:1.0 567:1.0 
0.5724753263434044 303:1.0 161:1.0 11:1.0 4:1.0 
0.1488453144334542 560:1.0 18:1.0 7:1.0 59:1.0 
0.07034638681852824 594:1.0 171:1.0 86:1.0 81:1.0 
0.24752542292558907 600:1.0 171:1.0 11:1.0 26:1.0 
0.09004316847245916 603:1.0 60:1.0 85:1.0 12:1.0 
0.34023797096697617 604:1.0 48:1.0 19:1.0 81:1.0 
0.2268220957975115 609:1.0 6:1.0 223:1.0 169:1.0 
0.3402376253906781 610:1.0 171:1.0 11:1.0 20:1.0 
0.34023654116966295 611:1.0 6:1.0 25:1.0 185:1.0 
1.0 617:1.0 18:1.0 46:1.0 26:1.0 
1.0 80:1.0 77:1.0 105:1.0 59:1.0 
0.11282979679574832 637:1.0 6:1.0 46:1.0 26:1.0 
0.09072590030434063 535:1.0 48:1.0 30:1.0 42:1.0 
0.0724289318195063 638:1.0 171:1.0 30:1.0 12:1.0 
1.0 80:1.0 77:1.0 85:1.0 4:1.0 
0.08987536255011988 535:1.0 48:1.0 30:1.0 31:1.0 
0.1555273469223553 526:1.0 77:1.0 66:1.0 31:1.0 
0.1361174464505563 646:1.0 18:1.0 85:1.0 42:1.0 
0.04330575217090204 163:1.0 10:1.0 85:1.0 42:1.0 
0.3253939576184455 647:1.0 34:1.0 30:1.0 12:1.0 
0.272154073110778 656:1.0 48:1.0 85:1.0 20:1.0 
1.0 560:1.0 18:1.0 7:1.0 169:1.0 
1.0 38:1.0 22:1.0 23:1.0 16:1.0 
0.22681507263619255 659:1.0 44:1.0 23:1.0 26:1.0 
1.0 560:1.0 18:1.0 7:1.0 20:1.0 
1.0 38:1.0 22:1.0 23:1.0 16:1.0 
0.14860592554230367 560:1.0 18:1.0 7:1.0 75:1.0 
0.3560976755781586 660:1.0 171:1.0 79:1.0 81:1.0 
0.031485826356526574 671:1.0 34:1.0 11:1.0 185:1.0 
0.25902951816756514 672:1.0 34:1.0 189:1.0 75:1.0 
0.14476099126414926 676:1.0 171:1.0 23:1.0 26:1.0 
0.37762380268616524 677:1.0 44:1.0 86:1.0 4:1.0 
0.07051640027537953 665:1.0 6:1.0 35:1.0 20:1.0 
0.04795855492756965 638:1.0 171:1.0 7:1.0 4:1.0 
0.3402627931149882 679:1.0 6:1.0 173:1.0 12:1.0 
0.4195025242680937 681:1.0 18:1.0 46:1.0 20:1.0 
0.3805890956585866 680:1.0 77:1.0 30:1.0 16:1.0 
0.4548251642966834 209:1.0 44:1.0 30:1.0 20:1.0 
0.6040987418672612 458:1.0 48:1.0 19:1.0 39:1.0 
0.0872845057949855 683:1.0 48:1.0 30:1.0 31:1.0 
1.0 74:1.0 44:1.0 23:1.0 16:1.0 
0.15793398736916484 69:1.0 18:1.0 46:1.0 12:1.0 
0.11819941552334493 689:1.0 48:1.0 19:1.0 31:1.0 
0.35979134115110595 691:1.0 18:1.0 46:1.0 418:1.0 
0.34023523643725345 692:1.0 60:1.0 79:1.0 20:1.0 
1.0 88:1.0 22:1.0 86:1.0 31:1.0 
1.0 693:1.0 28:1.0 7:1.0 39:1.0 
1.0 266:1.0 28:1.0 30:1.0 20:1.0 
0.33422443498035886 695:1.0 18:1.0 195:1.0 8:1.0 
0.7360958956890123 226:1.0 28:1.0 15:1.0 26:1.0 
0.17150664021938994 698:1.0 60:1.0 79:1.0 12:1.0 
1.0 13:1.0 14:1.0 86:1.0 42:1.0 
0.07797751581004408 699:1.0 44:1.0 19:1.0 16:1.0 
0.3601349084936786 691:1.0 18:1.0 46:1.0 4:1.0 
0.7863068261123217 700:1.0 6:1.0 23:1.0 169:1.0 
1.0 303:1.0 161:1.0 49:1.0 4:1.0 
0.4670432755108411 305:1.0 6:1.0 162:1.0 169:1.0 
0.06562996066315252 683:1.0 171:1.0 11:1.0 4:1.0 
0.1295432507062964 705:1.0 6:1.0 173:1.0 185:1.0 
0.13413860384177723 707:1.0 48:1.0 19:1.0 16:1.0 
0.13611001249996413 708:1.0 18:1.0 49:1.0 146:1.0 
0.7158845222940101 709:1.0 148:1.0 23:1.0 16:1.0 
0.14483306330087864 710:1.0 18:1.0 149:1.0 75:1.0 
0.3402089984722449 711:1.0 44:1.0 86:1.0 20:1.0 
0.3402320348907186 713:1.0 18:1.0 173:1.0 185:1.0 
0.09078289131672157 716:1.0 44:1.0 25:1.0 4:1.0 
1.0 88:1.0 22:1.0 11:1.0 31:1.0 
0.24803936688184935 719:1.0 10:1.0 23:1.0 418:1.0 
1.0 1:1.0 2:1.0 420:1.0 33:1.0 
0.22679994550422958 720:1.0 60:1.0 35:1.0 31:1.0 
0.34022992302464705 721:1.0 48:1.0 19:1.0 20:1.0 
0.3402299101664441 722:1.0 18:1.0 7:1.0 20:1.0 
0.8263206354169081 723:1.0 18:1.0 7:1.0 16:1.0 
1.0 693:1.0 28:1.0 30:1.0 39:1.0 
1.0 266:1.0 28:1.0 30:1.0 8:1.0 
0.11211994234742714 725:1.0 10:1.0 30:1.0 81:1.0 
0.8744082240954184 726:1.0 83:1.0 15:1.0 20:1.0 
0.040085602831659156 727:1.0 18:1.0 46:1.0 169:1.0 
1.0 265:1.0 28:1.0 7:1.0 39:1.0 
1.0 728:1.0 28:1.0 30:1.0 39:1.0 
1.0 729:1.0 28:1.0 30:1.0 26:1.0 
1.0 730:1.0 83:1.0 49:1.0 31:1.0 
0.4670965783983257 188:1.0 18:1.0 46:1.0 20:1.0 
0.22874806383578927 698:1.0 48:1.0 19:1.0 20:1.0 
1.0 88:1.0 22:1.0 30:1.0 31:1.0 
0.13091120882148238 718:1.0 18:1.0 7:1.0 169:1.0 
0.3341267655353417 695:1.0 18:1.0 195:1.0 26:1.0 
0.27214278113504864 732:1.0 77:1.0 30:1.0 12:1.0 
1.0 13:1.0 14:1.0 79:1.0 39:1.0 
1.0 50:1.0 22:1.0 30:1.0 39:1.0 
0.18656285962844796 352:1.0 28:1.0 25:1.0 146:1.0 
0.0619718261405668 736:1.0 18:1.0 7:1.0 20:1.0 
0.1059260158781941 737:1.0 171:1.0 25:1.0 12:1.0 
1.0 13:1.0 14:1.0 173:1.0 39:1.0 
1.0 739:1.0 60:1.0 85:1.0 20:1.0 
1.0 565:1.0 22:1.0 86:1.0 39:1.0 
0.24815871151037583 740:1.0 48:1.0 19:1.0 12:1.0 
1.0 13:1.0 14:1.0 49:1.0 39:1.0 
1.0 50:1.0 22:1.0 30:1.0 39:1.0 
1.0 354:1.0 28:1.0 25:1.0 159:1.0 
1.0 50:1.0 22:1.0 30:1.0 39:1.0 
0.13599018964636564 746:1.0 28:1.0 25:1.0 20:1.0 
1.0 13:1.0 14:1.0 23:1.0 39:1.0 
1.0 147:1.0 148:1.0 30:1.0 102:1.0 
0.3402283203337749 750:1.0 18:1.0 7:1.0 20:1.0 
1.0 56:1.0 22:1.0 389:1.0 81:1.0 
0.08504928311824758 752:1.0 83:1.0 25:1.0 159:1.0 
0.2414800650877039 160:1.0 161:1.0 85:1.0 4:1.0 
0.30774299192898863 753:1.0 18:1.0 30:1.0 4:1.0 
0.08421037874244384 717:1.0 6:1.0 23:1.0 26:1.0 
1.0 314:1.0 161:1.0 189:1.0 20:1.0 
1.0 93:1.0 22:1.0 162:1.0 81:1.0 
0.249009888835383 755:1.0 44:1.0 85:1.0 39:1.0 
0.150961808740819 756:1.0 6:1.0 30:1.0 12:1.0 
1.0 88:1.0 22:1.0 30:1.0 31:1.0 
1.0 266:1.0 28:1.0 30:1.0 20:1.0 
1.0 758:1.0 22:1.0 30:1.0 39:1.0 
1.0 761:1.0 48:1.0 19:1.0 39:1.0 
0.196726522376649 52:1.0 28:1.0 49:1.0 31:1.0 
0.14078246944751288 764:1.0 18:1.0 23:1.0 12:1.0 
1.0 13:1.0 14:1.0 23:1.0 31:1.0 
1.0 468:1.0 44:1.0 7:1.0 16:1.0 
0.13609281585723915 766:1.0 48:1.0 85:1.0 12:1.0 
1.0 38:1.0 22:1.0 11:1.0 39:1.0 
1.0 55:1.0 171:1.0 25:1.0 31:1.0 
0.42929862474205993 771:1.0 48:1.0 203:1.0 31:1.0 
0.1583418864707015 772:1.0 18:1.0 46:1.0 20:1.0 
1.0 774:1.0 6:1.0 46:1.0 26:1.0 
0.577805438994277 427:1.0 161:1.0 223:1.0 4:1.0 
1.0 38:1.0 22:1.0 11:1.0 39:1.0 
0.27220857326141085 423:1.0 48:1.0 19:1.0 4:1.0 
1.0 319:1.0 6:1.0 23:1.0 20:1.0 
1.0 93:1.0 22:1.0 23:1.0 42:1.0 
1.0 468:1.0 44:1.0 25:1.0 4:1.0 
0.07462761835773754 777:1.0 6:1.0 46:1.0 70:1.0 
1.0 561:1.0 72:1.0 11:1.0 47:1.0 
0.44931451646254167 263:1.0 171:1.0 49:1.0 20:1.0 
0.3402278593618835 778:1.0 44:1.0 25:1.0 16:1.0 
0.15684623906845474 779:1.0 18:1.0 46:1.0 26:1.0 
0.3849264269885734 781:1.0 44:1.0 49:1.0 16:1.0 
0.1458117841252561 783:1.0 77:1.0 111:1.0 12:1.0 
0.2265623307401934 784:1.0 18:1.0 19:1.0 185:1.0 
1.0 785:1.0 18:1.0 189:1.0 169:1.0 
0.15344580838673189 786:1.0 171:1.0 23:1.0 31:1.0 
0.31517164712240425 788:1.0 6:1.0 25:1.0 33:1.0 
0.21946428993791808 789:1.0 171:1.0 85:1.0 31:1.0 
1.0 319:1.0 6:1.0 23:1.0 59:1.0 
0.15364627580956322 790:1.0 77:1.0 30:1.0 12:1.0 
0.45169355769215525 796:1.0 48:1.0 19:1.0 20:1.0 
1.0 458:1.0 48:1.0 189:1.0 102:1.0 
1.0 29:1.0 48:1.0 105:1.0 31:1.0 
0.38837045984845775 577:1.0 18:1.0 7:1.0 26:1.0 
1.0 468:1.0 44:1.0 7:1.0 16:1.0 
0.18550551897483505 798:1.0 77:1.0 23:1.0 31:1.0 
0.10455901941092846 779:1.0 18:1.0 7:1.0 16:1.0 
0.34022504100539974 800:1.0 18:1.0 23:1.0 16:1.0 
0.13923108859122002 804:1.0 60:1.0 49:1.0 20:1.0 
0.018232089685206343 806:1.0 6:1.0 30:1.0 33:1.0 
0.3402234207665148 807:1.0 34:1.0 11:1.0 20:1.0 
0.17850515069560952 808:1.0 60:1.0 79:1.0 220:1.0 
1.0 542:1.0 6:1.0 7:1.0 12:1.0 
0.055760535897272784 532:1.0 48:1.0 19:1.0 102:1.0 
1.0 29:1.0 60:1.0 79:1.0 81:1.0 
0.07362386569115655 806:1.0 6:1.0 86:1.0 20:1.0 
0.6717010597540217 88:1.0 22:1.0 11:1.0 42:1.0 
1.0 314:1.0 161:1.0 311:1.0 42:1.0 
0.07798092114630026 699:1.0 44:1.0 162:1.0 16:1.0 
0.15100328669106267 756:1.0 18:1.0 46:1.0 75:1.0 
0.11641240569963979 683:1.0 60:1.0 79:1.0 39:1.0 
0.01590747344697762 84:1.0 10:1.0 30:1.0 12:1.0 
1.0 13:1.0 14:1.0 15:1.0 39:1.0 
1.0 38:1.0 22:1.0 30:1.0 159:1.0 
0.782747677088839 622:1.0 22:1.0 162:1.0 31:1.0 
0.3561816359382092 37:1.0 10:1.0 30:1.0 81:1.0 
1.0 824:1.0 83:1.0 15:1.0 39:1.0 
1.0 52:1.0 28:1.0 85:1.0 16:1.0 
0.08507726207513913 825:1.0 18:1.0 30:1.0 169:1.0 
0.13207587552375474 224:1.0 171:1.0 23:1.0 31:1.0 
0.03867436459103252 826:1.0 44:1.0 7:1.0 39:1.0 
0.23995738017375942 240:1.0 18:1.0 30:1.0 12:1.0 
0.08754882008034545 683:1.0 48:1.0 19:1.0 39:1.0 
1.0 88:1.0 22:1.0 30:1.0 31:1.0 
0.9698134709061471 266:1.0 28:1.0 30:1.0 26:1.0 
0.14367423614273583 452:1.0 171:1.0 30:1.0 31:1.0 
0.6680457987704663 824:1.0 83:1.0 86:1.0 20:1.0 
1.0 61:1.0 22:1.0 85:1.0 159:1.0 
1.0 21:1.0 22:1.0 631:1.0 16:1.0 
0.38286365454106586 765:1.0 18:1.0 46:1.0 39:1.0 
0.20927481294414912 834:1.0 10:1.0 189:1.0 20:1.0 
1.0 61:1.0 22:1.0 15:1.0 31:1.0 
0.19417892022711986 837:1.0 28:1.0 30:1.0 26:1.0 
1.0 61:1.0 22:1.0 3:1.0 31:1.0 
0.19463990814932802 837:1.0 28:1.0 30:1.0 39:1.0 
0.34021765009408567 839:1.0 44:1.0 7:1.0 16:1.0 
0.062178742319098465 840:1.0 18:1.0 46:1.0 169:1.0 
1.0 9:1.0 10:1.0 105:1.0 12:1.0 
0.07691843728449665 842:1.0 60:1.0 79:1.0 20:1.0 
1.0 843:1.0 44:1.0 7:1.0 16:1.0 
1.0 824:1.0 83:1.0 23:1.0 81:1.0 
0.10486638521515618 779:1.0 18:1.0 7:1.0 20:1.0 
1.0 846:1.0 22:1.0 23:1.0 31:1.0 
1.0 468:1.0 44:1.0 7:1.0 4:1.0 
0.07293654187592999 847:1.0 171:1.0 7:1.0 16:1.0 
1.0 597:1.0 18:1.0 23:1.0 20:1.0 
0.1941792842459499 848:1.0 44:1.0 7:1.0 26:1.0 
0.03389455911741608 683:1.0 18:1.0 223:1.0 70:1.0 
1.0 851:1.0 48:1.0 85:1.0 20:1.0 
1.0 88:1.0 22:1.0 11:1.0 220:1.0 
0.83642578125 693:1.0 28:1.0 162:1.0 39:1.0 
1.0 266:1.0 28:1.0 30:1.0 26:1.0 
0.025220305387478235 683:1.0 18:1.0 7:1.0 75:1.0 
0.05082826392182731 683:1.0 18:1.0 46:1.0 102:1.0 
0.025351643839391678 683:1.0 18:1.0 7:1.0 20:1.0 
0.42683680598450113 854:1.0 6:1.0 46:1.0 102:1.0 
1.0 314:1.0 161:1.0 23:1.0 102:1.0 
1.0 474:1.0 148:1.0 3:1.0 59:1.0 
0.07329166360157534 859:1.0 60:1.0 149:1.0 20:1.0 
1.0 32:1.0 2:1.0 79:1.0 16:1.0 
1.0 397:1.0 18:1.0 7:1.0 20:1.0 
0.8710562553014105 861:1.0 48:1.0 19:1.0 39:1.0 
0.3356195968541692 209:1.0 6:1.0 30:1.0 102:1.0 
0.07305699258654987 859:1.0 60:1.0 86:1.0 12:1.0 
1.0 861:1.0 48:1.0 19:1.0 31:1.0 
1.0 32:1.0 2:1.0 49:1.0 42:1.0 
1.0 468:1.0 44:1.0 46:1.0 4:1.0 
0.09748725901573252 209:1.0 6:1.0 46:1.0 26:1.0 
0.09014924055266244 603:1.0 60:1.0 79:1.0 12:1.0 
0.8712411169446864 861:1.0 48:1.0 19:1.0 42:1.0 
0.7082157827867399 468:1.0 44:1.0 49:1.0 39:1.0 
1.0 373:1.0 28:1.0 30:1.0 39:1.0 
1.0 179:1.0 2:1.0 25:1.0 42:1.0 
0.09654769623097664 710:1.0 18:1.0 46:1.0 4:1.0 
1.0 38:1.0 22:1.0 173:1.0 39:1.0 
1.0 568:1.0 569:1.0 25:1.0 20:1.0 
0.3402585157597731 874:1.0 44:1.0 25:1.0 4:1.0 
0.08416029751371659 717:1.0 6:1.0 30:1.0 26:1.0 
0.07614689591489929 391:1.0 60:1.0 79:1.0 31:1.0 
0.3023312835542352 881:1.0 18:1.0 7:1.0 12:1.0 
1.0 882:1.0 48:1.0 19:1.0 31:1.0 
1.0 468:1.0 44:1.0 7:1.0 16:1.0 
1.0 883:1.0 18:1.0 46:1.0 59:1.0 
0.19190931307907355 452:1.0 60:1.0 23:1.0 20:1.0 
1.0 378:1.0 28:1.0 25:1.0 39:1.0 
0.17004256892609337 886:1.0 331:1.0 3:1.0 31:1.0 
1.0 1:1.0 2:1.0 23:1.0 159:1.0 
1.0 887:1.0 161:1.0 7:1.0 39:1.0 
0.1514166298497171 756:1.0 6:1.0 30:1.0 8:1.0 
0.08409976869245595 888:1.0 10:1.0 11:1.0 31:1.0 
1.0 13:1.0 14:1.0 23:1.0 39:1.0 
0.1024584226330543 892:1.0 171:1.0 30:1.0 20:1.0 
0.3601349084936786 691:1.0 18:1.0 46:1.0 20:1.0 
1.0 38:1.0 22:1.0 23:1.0 39:1.0 
1.0 21:1.0 22:1.0 30:1.0 169:1.0 
0.20889888319352562 804:1.0 60:1.0 11:1.0 26:1.0 
0.24004096050683138 240:1.0 18:1.0 30:1.0 169:1.0 
0.1507494558898437 689:1.0 171:1.0 23:1.0 31:1.0 
1.0 414:1.0 28:1.0 15:1.0 102:1.0 
0.07098441536224233 895:1.0 44:1.0 79:1.0 81:1.0 
0.13588378523251965 898:1.0 44:1.0 25:1.0 236:1.0 
0.028495982482007243 895:1.0 44:1.0 85:1.0 12:1.0 
0.34021766526555464 900:1.0 48:1.0 19:1.0 102:1.0 
1.0 803:1.0 72:1.0 105:1.0 81:1.0 
0.20798887290280482 392:1.0 48:1.0 85:1.0 185:1.0 
0.06947222344694841 902:1.0 48:1.0 189:1.0 102:1.0 
0.01351042245336228 688:1.0 6:1.0 46:1.0 102:1.0 
0.029023610451269676 253:1.0 10:1.0 105:1.0 39:1.0 
0.11337729851229034 905:1.0 10:1.0 105:1.0 31:1.0 
1.0 803:1.0 72:1.0 23:1.0 47:1.0 
0.6327700479526188 907:1.0 569:1.0 85:1.0 16:1.0 
0.10232845251482459 908:1.0 48:1.0 30:1.0 20:1.0 
0.1361645843114499 716:1.0 44:1.0 223:1.0 185:1.0 
0.421215657334368 797:1.0 18:1.0 162:1.0 70:1.0 
1.0 13:1.0 14:1.0 11:1.0 31:1.0 
0.37757544673721677 541:1.0 18:1.0 260:1.0 20:1.0 
0.08863251357133317 790:1.0 60:1.0 25:1.0 4:1.0 
0.31523103963874566 788:1.0 6:1.0 86:1.0 169:1.0 
1.0 163:1.0 171:1.0 85:1.0 4:1.0 
0.5605337160259292 917:1.0 6:1.0 173:1.0 418:1.0 
0.10413907568527875 918:1.0 34:1.0 420:1.0 12:1.0 
1.0 338:1.0 72:1.0 7:1.0 47:1.0 
1.0 456:1.0 171:1.0 25:1.0 4:1.0 
0.08966334808876614 402:1.0 6:1.0 173:1.0 26:1.0 
0.34021774758246115 823:1.0 28:1.0 30:1.0 39:1.0 
0.7815284188562353 55:1.0 10:1.0 30:1.0 81:1.0 
0.1135002824981877 922:1.0 28:1.0 85:1.0 20:1.0 
1.0 56:1.0 22:1.0 30:1.0 169:1.0 
0.15615343444295043 923:1.0 171:1.0 25:1.0 220:1.0 
1.0 13:1.0 14:1.0 23:1.0 39:1.0 
0.037326657171594356 840:1.0 18:1.0 7:1.0 39:1.0 
0.2057815212704796 926:1.0 10:1.0 30:1.0 16:1.0 
0.27217271477685573 927:1.0 18:1.0 15:1.0 20:1.0 
0.7269541422526041 894:1.0 6:1.0 46:1.0 20:1.0 
0.1569692301193635 834:1.0 18:1.0 46:1.0 39:1.0 
0.03187843189667281 683:1.0 10:1.0 30:1.0 4:1.0 
0.12967456227112156 705:1.0 6:1.0 15:1.0 185:1.0 
0.5255978413781661 931:1.0 6:1.0 23:1.0 20:1.0 
0.24018362851661237 240:1.0 18:1.0 30:1.0 8:1.0 
0.3402186749147902 935:1.0 60:1.0 15:1.0 20:1.0 
1.0 777:1.0 6:1.0 46:1.0 20:1.0 
1.0 939:1.0 18:1.0 46:1.0 20:1.0 
1.0 940:1.0 28:1.0 30:1.0 624:1.0 
0.41559205683403383 942:1.0 10:1.0 85:1.0 4:1.0 
0.2592176392444806 321:1.0 6:1.0 15:1.0 20:1.0 
0.15720721912979632 779:1.0 18:1.0 25:1.0 185:1.0 
0.48007051205056095 944:1.0 60:1.0 35:1.0 20:1.0 
0.6263102979585368 717:1.0 6:1.0 7:1.0 20:1.0 
0.23612728391384546 226:1.0 28:1.0 25:1.0 20:1.0 
0.27222305829930155 927:1.0 10:1.0 105:1.0 31:1.0 
0.04351603483661321 683:1.0 171:1.0 25:1.0 31:1.0 
0.3829887240241023 765:1.0 18:1.0 46:1.0 26:1.0 
0.042171082766408546 870:1.0 60:1.0 79:1.0 20:1.0 
1.0 758:1.0 22:1.0 25:1.0 159:1.0 
0.670343348402201 213:1.0 161:1.0 162:1.0 4:1.0 
0.0746085449291031 777:1.0 6:1.0 85:1.0 185:1.0 
0.1946393546351826 848:1.0 44:1.0 7:1.0 33:1.0 
0.11338962831140105 873:1.0 60:1.0 35:1.0 20:1.0 
1.0 43:1.0 44:1.0 7:1.0 159:1.0 
1.0 160:1.0 161:1.0 46:1.0 4:1.0 
0.6017478207282689 45:1.0 6:1.0 162:1.0 185:1.0 
0.1857025753306244 798:1.0 77:1.0 189:1.0 31:1.0 
0.6328926084657297 310:1.0 6:1.0 7:1.0 20:1.0 
0.22663259234668814 784:1.0 18:1.0 25:1.0 16:1.0 
1.0 785:1.0 18:1.0 23:1.0 185:1.0 
0.23617826630218086 949:1.0 44:1.0 46:1.0 4:1.0 
0.20975465561717133 788:1.0 6:1.0 46:1.0 26:1.0 
0.00347971646485259 683:1.0 18:1.0 23:1.0 12:1.0 
0.12461528719091654 591:1.0 10:1.0 30:1.0 20:1.0 
1.0 52:1.0 28:1.0 25:1.0 16:1.0 
0.08507726207513916 825:1.0 18:1.0 30:1.0 146:1.0 
1.0 474:1.0 148:1.0 23:1.0 102:1.0 
0.8874842017694555 37:1.0 10:1.0 105:1.0 81:1.0 
1.0 824:1.0 83:1.0 15:1.0 20:1.0 
1.0 21:1.0 22:1.0 85:1.0 16:1.0 
1.0 168:1.0 22:1.0 23:1.0 39:1.0 
0.19417582503225841 951:1.0 18:1.0 25:1.0 39:1.0 
0.03352696329697062 683:1.0 18:1.0 223:1.0 31:1.0 
0.14831419751062383 953:1.0 44:1.0 7:1.0 16:1.0 
0.15151120589612097 756:1.0 18:1.0 46:1.0 20:1.0 
1.0 88:1.0 22:1.0 23:1.0 31:1.0 
0.9816444306811205 693:1.0 28:1.0 162:1.0 39:1.0 
1.0 266:1.0 28:1.0 30:1.0 8:1.0 
0.3937998017739873 774:1.0 6:1.0 25:1.0 102:1.0 
0.7974593681194744 749:1.0 48:1.0 19:1.0 20:1.0 
0.7511946837244634 314:1.0 161:1.0 23:1.0 102:1.0 
0.24820771843915465 740:1.0 10:1.0 85:1.0 20:1.0 
0.14078246944751288 764:1.0 18:1.0 7:1.0 12:1.0 
0.6363620494788056 716:1.0 44:1.0 30:1.0 4:1.0 
0.045761586024882506 717:1.0 6:1.0 46:1.0 33:1.0 
0.3402646851693972 954:1.0 60:1.0 35:1.0 4:1.0 
0.14912839868352573 213:1.0 6:1.0 86:1.0 20:1.0 
0.052709827309985816 888:1.0 48:1.0 19:1.0 31:1.0 
0.0161438390397579 547:1.0 18:1.0 7:1.0 169:1.0 
0.20939621795927554 958:1.0 171:1.0 23:1.0 102:1.0 
0.05546159601053989 960:1.0 48:1.0 19:1.0 31:1.0 
0.22681971680227753 965:1.0 28:1.0 30:1.0 20:1.0 
0.4802985500968622 731:1.0 44:1.0 195:1.0 39:1.0 
0.34021985247692516 970:1.0 18:1.0 30:1.0 102:1.0 
0.27225002140760324 971:1.0 171:1.0 35:1.0 70:1.0 
1.0 281:1.0 48:1.0 73:1.0 102:1.0 
0.34026874266120805 972:1.0 44:1.0 7:1.0 16:1.0 
0.3402212936974884 973:1.0 18:1.0 46:1.0 20:1.0 
0.3402207694517312 979:1.0 6:1.0 19:1.0 20:1.0 
1.0 599:1.0 18:1.0 23:1.0 26:1.0 
0.1055028677548413 888:1.0 171:1.0 35:1.0 42:1.0 
0.06550751130539958 651:1.0 6:1.0 23:1.0 20:1.0 
0.22689394487185494 965:1.0 28:1.0 7:1.0 185:1.0 
1.0 984:1.0 161:1.0 7:1.0 307:1.0 
0.5600564173215734 985:1.0 309:1.0 162:1.0 4:1.0 
0.3936394133867261 774:1.0 6:1.0 311:1.0 20:1.0 
0.19417018138082692 987:1.0 28:1.0 30:1.0 169:1.0 
0.4495908444677559 988:1.0 171:1.0 30:1.0 42:1.0 
1.0 360:1.0 6:1.0 46:1.0 4:1.0 
1.0 991:1.0 44:1.0 189:1.0 4:1.0 
0.22680141129970288 992:1.0 44:1.0 223:1.0 42:1.0 
0.454195470229603 994:1.0 18:1.0 46:1.0 16:1.0 
0.08616786219291254 706:1.0 18:1.0 23:1.0 185:1.0 
0.5600576276149458 995:1.0 6:1.0 189:1.0 102:1.0 
0.08569132333899168 996:1.0 34:1.0 105:1.0 42:1.0 
0.2771116144864524 997:1.0 44:1.0 49:1.0 20:1.0 
0.1690200845750708 960:1.0 34:1.0 105:1.0 31:1.0 
0.13610505946235713 1004:1.0 18:1.0 173:1.0 185:1.0 
0.13601828366841456 1004:1.0 18:1.0 189:1.0 16:1.0 
0.07854273108299437 1005:1.0 18:1.0 23:1.0 12:1.0 
0.08662510768168113 469:1.0 18:1.0 7:1.0 75:1.0 
0.2251818831387533 456:1.0 77:1.0 23:1.0 16:1.0 
0.2605086259097259 907:1.0 83:1.0 23:1.0 567:1.0 
0.34022156908497625 1006:1.0 569:1.0 85:1.0 185:1.0 
1.0 1008:1.0 44:1.0 7:1.0 16:1.0 
0.34019408218301894 967:1.0 28:1.0 46:1.0 39:1.0 
0.10467308018852693 1009:1.0 18:1.0 30:1.0 16:1.0 
0.3402209164015037 1011:1.0 18:1.0 23:1.0 33:1.0 
0.272213621873832 971:1.0 60:1.0 35:1.0 26:1.0 
0.17954974360904144 1012:1.0 6:1.0 49:1.0 185:1.0 
0.7686821758225082 797:1.0 18:1.0 7:1.0 47:1.0 
0.43210593297317107 892:1.0 48:1.0 49:1.0 102:1.0 
0.3402197906954976 1018:1.0 18:1.0 3:1.0 39:1.0 
0.04908785508742133 518:1.0 48:1.0 15:1.0 31:1.0 
0.06718816257882272 230:1.0 10:1.0 111:1.0 20:1.0 
0.6128820724319256 274:1.0 18:1.0 25:1.0 185:1.0 
1.0 950:1.0 22:1.0 49:1.0 220:1.0 
0.34021997245485996 1022:1.0 60:1.0 7:1.0 16:1.0 
0.47945836042597445 883:1.0 18:1.0 86:1.0 31:1.0 
0.3402186001615539 1024:1.0 6:1.0 46:1.0 31:1.0 
0.1360979715765695 1025:1.0 60:1.0 7:1.0 4:1.0 
0.13292422645581028 1030:1.0 6:1.0 7:1.0 102:1.0 
1.0 397:1.0 18:1.0 7:1.0 418:1.0 
0.0017680290681416633 701:1.0 77:1.0 420:1.0 31:1.0 
1.0 168:1.0 22:1.0 11:1.0 42:1.0 
0.9471839817397671 467:1.0 44:1.0 25:1.0 26:1.0 
0.874945014786024 179:1.0 2:1.0 46:1.0 4:1.0 
0.101792864861379 1035:1.0 6:1.0 7:1.0 185:1.0 
0.6360574914991347 1036:1.0 6:1.0 189:1.0 59:1.0 
0.23172707483694163 1037:1.0 60:1.0 11:1.0 12:1.0 
0.3383199026807899 1038:1.0 48:1.0 19:1.0 4:1.0 
0.1877637997199047 1030:1.0 6:1.0 49:1.0 20:1.0 
1.0 168:1.0 22:1.0 11:1.0 20:1.0 
0.5039314238838156 1038:1.0 171:1.0 173:1.0 16:1.0 
1.0 80:1.0 77:1.0 105:1.0 220:1.0 
0.5820400913131086 1045:1.0 18:1.0 46:1.0 20:1.0 
1.0 1046:1.0 48:1.0 19:1.0 102:1.0 
0.7384620857627677 337:1.0 48:1.0 189:1.0 102:1.0 
0.5105805477746175 907:1.0 331:1.0 105:1.0 26:1.0 
0.3402180344200541 1048:1.0 60:1.0 35:1.0 169:1.0 
0.797036482604115 212:1.0 161:1.0 49:1.0 4:1.0 
1.0 1053:1.0 161:1.0 189:1.0 4:1.0 
0.3402177996682997 1051:1.0 6:1.0 162:1.0 42:1.0 
0.5601244800125633 1054:1.0 44:1.0 11:1.0 26:1.0 
0.2722928418874111 1047:1.0 18:1.0 46:1.0 26:1.0 
0.40556994800880186 1058:1.0 6:1.0 105:1.0 20:1.0 
1.0 179:1.0 2:1.0 25:1.0 4:1.0 
0.0399798496821879 975:1.0 6:1.0 7:1.0 418:1.0 
0.22707788939538381 1060:1.0 22:1.0 23:1.0 31:1.0 
0.4055810855547652 1062:1.0 6:1.0 86:1.0 16:1.0 
1.0 280:1.0 72:1.0 105:1.0 81:1.0 
0.08422862087651403 1068:1.0 18:1.0 46:1.0 20:1.0 
0.08172010113413683 1069:1.0 44:1.0 79:1.0 12:1.0 
1.0 80:1.0 48:1.0 19:1.0 31:1.0 
0.9583333333333333 467:1.0 44:1.0 7:1.0 16:1.0 
0.11336074820797327 1070:1.0 18:1.0 23:1.0 81:1.0 
0.5819898447109652 1045:1.0 18:1.0 85:1.0 12:1.0 
0.41587481854337505 280:1.0 72:1.0 23:1.0 81:1.0 
0.1228337926118926 1072:1.0 60:1.0 49:1.0 26:1.0 
1.0 984:1.0 161:1.0 7:1.0 4:1.0 
1.0 338:1.0 72:1.0 11:1.0 47:1.0 
0.34026775544940835 1075:1.0 44:1.0 7:1.0 42:1.0 
0.5947811311905891 1077:1.0 569:1.0 79:1.0 12:1.0 
0.3402172822866451 1078:1.0 44:1.0 25:1.0 4:1.0 
0.4353379888175225 1080:1.0 6:1.0 173:1.0 33:1.0 
0.07173897102046448 1040:1.0 6:1.0 23:1.0 33:1.0 
0.05210330369874054 24:1.0 6:1.0 25:1.0 26:1.0 
0.2740234122057662 204:1.0 48:1.0 85:1.0 102:1.0 
0.19417899307256706 1089:1.0 6:1.0 23:1.0 33:1.0 
1.0 50:1.0 22:1.0 35:1.0 31:1.0 
0.19417895178485428 1090:1.0 6:1.0 7:1.0 20:1.0 
0.1700426970971067 1093:1.0 60:1.0 49:1.0 16:1.0 
0.19463976823725687 1089:1.0 6:1.0 23:1.0 20:1.0 
1.0 1:1.0 2:1.0 3:1.0 4:1.0 
0.5601210649820585 1094:1.0 6:1.0 7:1.0 70:1.0 
0.5811648458565569 699:1.0 6:1.0 189:1.0 70:1.0 
1.0 314:1.0 161:1.0 11:1.0 20:1.0 
1.0 61:1.0 22:1.0 162:1.0 31:1.0 
0.3402174546037315 1097:1.0 18:1.0 7:1.0 20:1.0 
0.34021772989338556 1085:1.0 18:1.0 7:1.0 26:1.0 
1.0 314:1.0 161:1.0 3:1.0 20:1.0 
1.0 38:1.0 22:1.0 162:1.0 16:1.0 
1.0 1098:1.0 18:1.0 25:1.0 20:1.0 
1.0 314:1.0 161:1.0 3:1.0 20:1.0 
1.0 61:1.0 22:1.0 162:1.0 31:1.0 
0.29955656692130717 564:1.0 18:1.0 7:1.0 20:1.0 
0.9983662836107835 749:1.0 48:1.0 19:1.0 20:1.0 
0.04797489785519136 1102:1.0 6:1.0 11:1.0 185:1.0 
0.3402156911136309 1103:1.0 6:1.0 173:1.0 191:1.0 
0.07908634690012491 1102:1.0 6:1.0 195:1.0 26:1.0 
0.4293031260763771 1105:1.0 18:1.0 7:1.0 20:1.0 
0.4292771669582874 1106:1.0 171:1.0 25:1.0 257:1.0 
0.3402170018079427 1109:1.0 6:1.0 25:1.0 107:1.0 
0.4312358101160819 1049:1.0 18:1.0 7:1.0 26:1.0 
0.3402166137777143 1112:1.0 6:1.0 173:1.0 75:1.0 
0.48391208497034166 1113:1.0 34:1.0 105:1.0 20:1.0 
0.2575337392607586 1114:1.0 18:1.0 25:1.0 4:1.0 
0.7867392351174617 700:1.0 6:1.0 23:1.0 20:1.0 
1.0 666:1.0 22:1.0 11:1.0 31:1.0 
0.1946399035225711 1090:1.0 6:1.0 7:1.0 185:1.0 
0.21875983451240874 1110:1.0 171:1.0 35:1.0 31:1.0 
0.10267199312054914 1116:1.0 18:1.0 7:1.0 185:1.0 
0.053644663355730364 908:1.0 18:1.0 189:1.0 20:1.0 
0.22680028109045997 1117:1.0 6:1.0 223:1.0 26:1.0 
1.0 84:1.0 171:1.0 3:1.0 257:1.0 
0.04536251790104889 1070:1.0 18:1.0 7:1.0 70:1.0 
0.20411954390462048 1060:1.0 83:1.0 25:1.0 26:1.0 
0.22706447782658262 80:1.0 48:1.0 73:1.0 4:1.0 
0.34021673197431934 1119:1.0 83:1.0 19:1.0 47:1.0 
0.38492245672580966 337:1.0 48:1.0 85:1.0 31:1.0 
1.0 1080:1.0 6:1.0 7:1.0 20:1.0 
1.0 1120:1.0 22:1.0 11:1.0 102:1.0 
0.1941734767769072 1121:1.0 18:1.0 7:1.0 70:1.0 
0.7262611660122164 803:1.0 72:1.0 23:1.0 81:1.0 
0.28244078253990734 1046:1.0 60:1.0 85:1.0 20:1.0 
0.9421600907265378 80:1.0 171:1.0 25:1.0 4:1.0 
0.34021526788629686 1124:1.0 171:1.0 11:1.0 20:1.0 
1.0 50:1.0 22:1.0 173:1.0 31:1.0 
1.0 467:1.0 44:1.0 7:1.0 16:1.0 
1.0 1080:1.0 18:1.0 46:1.0 20:1.0 
0.1745855635942477 1126:1.0 60:1.0 46:1.0 16:1.0 
0.6569030682975393 1127:1.0 6:1.0 23:1.0 33:1.0 
0.22679994171129883 1128:1.0 18:1.0 25:1.0 4:1.0 
0.04069510310033888 1129:1.0 6:1.0 23:1.0 20:1.0 
0.2534843891764007 1130:1.0 34:1.0 11:1.0 31:1.0 
0.15880498353808684 1070:1.0 6:1.0 7:1.0 185:1.0 
0.1698252642718343 1132:1.0 48:1.0 189:1.0 42:1.0 
0.22671173275256987 1133:1.0 44:1.0 49:1.0 4:1.0 
0.22683946683433778 1134:1.0 6:1.0 223:1.0 26:1.0 
0.25352933812246353 1130:1.0 6:1.0 85:1.0 20:1.0 
0.8784473249067869 1136:1.0 34:1.0 85:1.0 20:1.0 
0.12700780496283304 1137:1.0 6:1.0 25:1.0 169:1.0 
0.21887599544782557 1110:1.0 171:1.0 11:1.0 31:1.0 
0.19464483951427136 1121:1.0 18:1.0 7:1.0 185:1.0 
0.3521263696509659 1000:1.0 34:1.0 189:1.0 31:1.0 
0.1452233922542584 1138:1.0 6:1.0 223:1.0 26:1.0 
0.07048254934474343 518:1.0 34:1.0 85:1.0 42:1.0 
0.5361669351552447 1141:1.0 18:1.0 7:1.0 16:1.0 
0.17012325242381 1142:1.0 18:1.0 23:1.0 26:1.0 
1.0 399:1.0 60:1.0 49:1.0 20:1.0 
1.0 1143:1.0 44:1.0 25:1.0 16:1.0 
1.0 402:1.0 18:1.0 46:1.0 42:1.0 
0.17298926836828732 1080:1.0 18:1.0 7:1.0 20:1.0 
0.34021581440651333 1147:1.0 34:1.0 11:1.0 31:1.0 
0.17148812139030256 1080:1.0 18:1.0 571:1.0 169:1.0 
0.5945720585668821 1149:1.0 171:1.0 23:1.0 31:1.0 
0.43091005862186993 1049:1.0 18:1.0 7:1.0 81:1.0 
1.0 666:1.0 22:1.0 85:1.0 159:1.0 
0.5916799725566566 1152:1.0 161:1.0 25:1.0 185:1.0 
1.0 427:1.0 161:1.0 189:1.0 4:1.0 
0.08702037599216585 126:1.0 60:1.0 49:1.0 20:1.0 
1.0 790:1.0 18:1.0 7:1.0 75:1.0 
0.272221434723677 1154:1.0 77:1.0 23:1.0 26:1.0 
0.17177586263145808 1080:1.0 18:1.0 25:1.0 4:1.0 
0.19205751608336302 1155:1.0 48:1.0 19:1.0 42:1.0 
0.7061545614241231 1156:1.0 44:1.0 49:1.0 4:1.0 
0.19402103170543225 681:1.0 6:1.0 46:1.0 185:1.0 
0.3402166199284636 1157:1.0 6:1.0 189:1.0 20:1.0 
1.0 38:1.0 22:1.0 11:1.0 31:1.0 
1.0 1080:1.0 18:1.0 7:1.0 20:1.0 
0.4055752425134211 1158:1.0 48:1.0 19:1.0 4:1.0 
0.14323745337388752 1040:1.0 18:1.0 30:1.0 20:1.0 
1.0 880:1.0 22:1.0 23:1.0 31:1.0 
0.9088215010365039 1047:1.0 18:1.0 25:1.0 70:1.0 
0.05912349786129238 29:1.0 60:1.0 49:1.0 20:1.0 
0.12744233362071267 782:1.0 18:1.0 173:1.0 20:1.0 
0.3738855616412818 1162:1.0 48:1.0 73:1.0 20:1.0 
0.43123581011608186 1049:1.0 18:1.0 7:1.0 70:1.0 
0.15881257270381324 1070:1.0 6:1.0 25:1.0 418:1.0 
1.0 1163:1.0 60:1.0 79:1.0 20:1.0 
0.3402165386221176 1167:1.0 238:1.0 46:1.0 20:1.0 
0.3402159486676026 1168:1.0 238:1.0 25:1.0 185:1.0 
0.3402681893551319 1169:1.0 6:1.0 223:1.0 26:1.0 
1.0 1170:1.0 44:1.0 7:1.0 16:1.0 
1.0 280:1.0 72:1.0 23:1.0 47:1.0 
0.6341526061792454 396:1.0 48:1.0 73:1.0 31:1.0 
0.04820502819132492 917:1.0 6:1.0 46:1.0 26:1.0 
0.09721310119522933 1171:1.0 18:1.0 23:1.0 70:1.0 
0.47525779794863804 280:1.0 72:1.0 23:1.0 31:1.0 
0.22691242699824338 1133:1.0 44:1.0 7:1.0 16:1.0 
0.13578214433909586 1173:1.0 18:1.0 46:1.0 185:1.0 
0.17004293807241408 1174:1.0 48:1.0 189:1.0 12:1.0 
0.8748955096286245 179:1.0 2:1.0 19:1.0 4:1.0 
0.18550911637247644 1175:1.0 6:1.0 7:1.0 169:1.0 
0.34017680866568967 1176:1.0 171:1.0 11:1.0 102:1.0 
0.13612336407050946 1178:1.0 83:1.0 19:1.0 47:1.0 
0.16359862523022475 362:1.0 48:1.0 85:1.0 16:1.0 
0.18961381415746165 386:1.0 48:1.0 23:1.0 31:1.0 
0.33800892125810156 1183:1.0 34:1.0 11:1.0 20:1.0 
0.016122093970154835 61:1.0 22:1.0 35:1.0 31:1.0 
1.0 179:1.0 2:1.0 25:1.0 4:1.0 
0.2267777389708014 1185:1.0 28:1.0 23:1.0 31:1.0 
0.35542994846212145 1186:1.0 72:1.0 420:1.0 47:1.0 
0.17011064261558545 1190:1.0 18:1.0 7:1.0 20:1.0 
0.1165882429314354 377:1.0 48:1.0 23:1.0 16:1.0 
0.22684022091528294 1195:1.0 6:1.0 223:1.0 81:1.0 
0.07527575237555663 1197:1.0 44:1.0 3:1.0 169:1.0 
0.1790644104303894 1198:1.0 171:1.0 46:1.0 31:1.0 
0.3402166784225056 1199:1.0 28:1.0 7:1.0 39:1.0 
0.34021648426839934 1200:1.0 28:1.0 30:1.0 26:1.0 
0.19416122988740192 1201:1.0 28:1.0 3:1.0 169:1.0 
0.15655708178080704 1202:1.0 171:1.0 30:1.0 16:1.0 
0.05186141711416169 1203:1.0 18:1.0 173:1.0 20:1.0 
3.8646983650459515E-4 784:1.0 18:1.0 25:1.0 185:1.0 
0.3402166862144562 1206:1.0 28:1.0 30:1.0 42:1.0 
0.6042359739104359 1207:1.0 44:1.0 30:1.0 185:1.0 
0.2763978682361409 1166:1.0 18:1.0 46:1.0 26:1.0 
0.04925439031239938 518:1.0 48:1.0 30:1.0 16:1.0 
0.11295420429782005 274:1.0 18:1.0 49:1.0 12:1.0 
0.7799103783011889 862:1.0 44:1.0 19:1.0 4:1.0 
1.0 1214:1.0 28:1.0 30:1.0 4:1.0 
1.0 1217:1.0 18:1.0 23:1.0 20:1.0 
1.0 666:1.0 22:1.0 23:1.0 39:1.0 
0.21954507838040555 882:1.0 77:1.0 105:1.0 31:1.0 
0.0539632649757444 1222:1.0 18:1.0 7:1.0 20:1.0 
0.45516581343725904 869:1.0 18:1.0 30:1.0 185:1.0 
1.0 1223:1.0 161:1.0 189:1.0 42:1.0 
0.19417264388205122 1231:1.0 18:1.0 189:1.0 16:1.0 
1.0 1224:1.0 44:1.0 7:1.0 16:1.0 
0.34021647340280936 1243:1.0 60:1.0 35:1.0 81:1.0 
0.18909651661364973 1245:1.0 171:1.0 25:1.0 31:1.0 
1.0 997:1.0 44:1.0 25:1.0 169:1.0 
0.10024543934398226 1249:1.0 171:1.0 189:1.0 31:1.0 
0.224075151931648 1251:1.0 6:1.0 25:1.0 26:1.0 
0.11323967395453767 975:1.0 18:1.0 25:1.0 39:1.0 
0.7337966222532425 1253:1.0 28:1.0 23:1.0 185:1.0 
1.0 1255:1.0 18:1.0 195:1.0 26:1.0 
0.12619343998703716 1137:1.0 18:1.0 46:1.0 102:1.0 
0.10876490584931421 1256:1.0 48:1.0 73:1.0 16:1.0 
0.31742492314314136 772:1.0 18:1.0 49:1.0 20:1.0 
0.1093441546878808 1257:1.0 18:1.0 46:1.0 624:1.0 
0.07324144869056598 859:1.0 60:1.0 35:1.0 12:1.0 
0.10775180205652417 1260:1.0 6:1.0 23:1.0 16:1.0 
0.17010573730356834 1261:1.0 18:1.0 11:1.0 20:1.0 
0.8491756746213784 699:1.0 6:1.0 25:1.0 185:1.0 
1.0 1264:1.0 18:1.0 7:1.0 26:1.0 
1.0 561:1.0 72:1.0 30:1.0 47:1.0 
0.07166966417333741 1267:1.0 18:1.0 223:1.0 20:1.0 
0.03579137401432142 1267:1.0 18:1.0 7:1.0 70:1.0 
0.13229960570265048 1269:1.0 60:1.0 49:1.0 20:1.0 
0.4762790179302344 1132:1.0 60:1.0 86:1.0 20:1.0 
1.0 617:1.0 18:1.0 46:1.0 20:1.0 
0.46639598611341365 1271:1.0 60:1.0 25:1.0 20:1.0 
0.37906611725012085 321:1.0 6:1.0 46:1.0 26:1.0 
1.0 796:1.0 48:1.0 85:1.0 59:1.0 
1.0 80:1.0 77:1.0 105:1.0 31:1.0 
0.14040642738818257 1276:1.0 48:1.0 19:1.0 102:1.0 
0.18908008285312303 1245:1.0 48:1.0 19:1.0 31:1.0 
0.3402162254251044 1277:1.0 18:1.0 7:1.0 26:1.0 
1.0 302:1.0 18:1.0 7:1.0 75:1.0 
0.16632079111359066 591:1.0 77:1.0 23:1.0 20:1.0 
1.0 168:1.0 22:1.0 79:1.0 31:1.0 
0.10126557303134859 960:1.0 171:1.0 25:1.0 39:1.0 
0.7268687070797601 803:1.0 72:1.0 11:1.0 81:1.0 
0.07563037985811524 1197:1.0 44:1.0 3:1.0 47:1.0 
0.22673757336096403 1280:1.0 48:1.0 46:1.0 185:1.0 
0.19464508511986403 1231:1.0 18:1.0 189:1.0 624:1.0 
0.5549914233941734 326:1.0 72:1.0 105:1.0 47:1.0 
0.18145288494747738 1282:1.0 48:1.0 73:1.0 31:1.0 
0.17143955158647348 209:1.0 6:1.0 7:1.0 12:1.0 
0.29545497558062306 431:1.0 6:1.0 86:1.0 70:1.0 
0.0596610026136169 280:1.0 72:1.0 11:1.0 81:1.0 
0.43529421888724745 1286:1.0 48:1.0 85:1.0 31:1.0 
1.0 179:1.0 2:1.0 3:1.0 4:1.0 
0.13488355090345036 188:1.0 6:1.0 7:1.0 4:1.0 
0.1876887824714861 1257:1.0 6:1.0 11:1.0 81:1.0 
0.3402158486753948 1287:1.0 6:1.0 25:1.0 70:1.0 
0.4761063304969085 326:1.0 72:1.0 11:1.0 47:1.0 
0.22667910950954123 1288:1.0 48:1.0 73:1.0 31:1.0 
0.089925220433486 1291:1.0 18:1.0 19:1.0 33:1.0 
0.2099093100428823 1292:1.0 44:1.0 189:1.0 185:1.0 
0.34021572662753036 1293:1.0 44:1.0 189:1.0 4:1.0 
0.0686500218739435 1138:1.0 6:1.0 46:1.0 42:1.0 
0.2100218959400844 1292:1.0 44:1.0 11:1.0 4:1.0 
1.0 1099:1.0 22:1.0 11:1.0 39:1.0 
0.04545567260077495 385:1.0 6:1.0 19:1.0 75:1.0 
0.4770033987575747 826:1.0 83:1.0 79:1.0 20:1.0 
0.10454527738397756 1081:1.0 18:1.0 25:1.0 26:1.0 
1.0 1292:1.0 44:1.0 7:1.0 16:1.0 
0.28206027118589416 1295:1.0 44:1.0 7:1.0 185:1.0 
0.340244936074544 1296:1.0 77:1.0 23:1.0 107:1.0 
0.09922346175358107 1138:1.0 18:1.0 7:1.0 20:1.0 
0.7615541358672924 1297:1.0 18:1.0 25:1.0 185:1.0 
0.09943634099453842 1138:1.0 18:1.0 7:1.0 81:1.0 
0.6359903522368164 1298:1.0 83:1.0 86:1.0 59:1.0 
0.11727287171122552 1202:1.0 77:1.0 30:1.0 31:1.0 
0.3932681494706822 1291:1.0 18:1.0 7:1.0 20:1.0 
0.001766932106219643 701:1.0 77:1.0 420:1.0 16:1.0 
0.2959952394903085 587:1.0 18:1.0 79:1.0 12:1.0 
0.6790285659220135 1255:1.0 6:1.0 223:1.0 185:1.0 
0.22095457319999637 1111:1.0 6:1.0 189:1.0 59:1.0 
0.34025778059285683 1300:1.0 60:1.0 11:1.0 20:1.0 
0.11730676277211916 1257:1.0 18:1.0 7:1.0 191:1.0 
0.08996863081019521 1291:1.0 18:1.0 631:1.0 26:1.0 
0.0596495387578527 1291:1.0 18:1.0 105:1.0 20:1.0 
0.39351051580866275 176:1.0 18:1.0 46:1.0 12:1.0 
1.0 1000:1.0 48:1.0 19:1.0 39:1.0 
0.06034371455937546 1291:1.0 18:1.0 105:1.0 12:1.0 
0.033969546639876017 1309:1.0 18:1.0 46:1.0 185:1.0 
0.4826115816665886 432:1.0 48:1.0 189:1.0 12:1.0 
0.04118782652684548 1311:1.0 6:1.0 7:1.0 59:1.0 
0.2325569711450711 432:1.0 60:1.0 11:1.0 20:1.0 
1.0 1233:1.0 18:1.0 7:1.0 20:1.0 
0.3402476141934243 1234:1.0 44:1.0 311:1.0 307:1.0 
0.2267672919190637 1314:1.0 18:1.0 105:1.0 20:1.0 
0.22692895668270172 1288:1.0 48:1.0 19:1.0 31:1.0 
0.21162039000083088 772:1.0 18:1.0 25:1.0 20:1.0 
1.0 38:1.0 22:1.0 23:1.0 39:1.0 
0.33617233509733474 1321:1.0 161:1.0 3:1.0 169:1.0 
1.0 1291:1.0 18:1.0 7:1.0 26:1.0 
0.34024103385038307 1323:1.0 18:1.0 7:1.0 20:1.0 
0.3934009626790258 1291:1.0 18:1.0 7:1.0 624:1.0 
0.40360383571372643 43:1.0 44:1.0 223:1.0 16:1.0 
0.2268639779974937 1331:1.0 18:1.0 46:1.0 75:1.0 
0.19416508737105606 1332:1.0 48:1.0 19:1.0 39:1.0 
0.3363404810259015 1336:1.0 44:1.0 7:1.0 42:1.0 
1.0 38:1.0 22:1.0 23:1.0 39:1.0 
0.34023417533042416 1342:1.0 44:1.0 79:1.0 12:1.0 
0.3402319751927111 1343:1.0 60:1.0 15:1.0 20:1.0 
1.0 38:1.0 22:1.0 86:1.0 39:1.0 
0.3720345761041017 1344:1.0 6:1.0 25:1.0 20:1.0 
1.0 80:1.0 10:1.0 105:1.0 4:1.0 
0.11995162808882487 1345:1.0 6:1.0 15:1.0 12:1.0 
1.0 1346:1.0 44:1.0 7:1.0 16:1.0 
1.0 883:1.0 6:1.0 30:1.0 26:1.0 
1.0 56:1.0 22:1.0 85:1.0 31:1.0 
0.3402652244774303 1350:1.0 60:1.0 15:1.0 81:1.0 
0.824911091069561 668:1.0 18:1.0 46:1.0 628:1.0 
0.08346225220022657 1353:1.0 34:1.0 30:1.0 39:1.0 
0.3402775239337676 1354:1.0 44:1.0 85:1.0 146:1.0 
0.3402229674530244 1355:1.0 34:1.0 105:1.0 39:1.0 
0.11177500642791996 1351:1.0 28:1.0 35:1.0 39:1.0 
1.0 314:1.0 161:1.0 7:1.0 20:1.0 
0.11253790565260569 1351:1.0 28:1.0 25:1.0 39:1.0 
0.11177500642792002 1351:1.0 28:1.0 3:1.0 39:1.0 
0.27225326820449663 1359:1.0 48:1.0 85:1.0 39:1.0 
0.22405903955363968 1351:1.0 28:1.0 49:1.0 39:1.0 
0.2722590692823284 1361:1.0 77:1.0 420:1.0 81:1.0 
0.15318024093769317 1269:1.0 48:1.0 19:1.0 31:1.0 
0.9861512693967291 883:1.0 18:1.0 7:1.0 31:1.0 
0.27227173936628496 1307:1.0 10:1.0 85:1.0 12:1.0 
0.269300142147037 1297:1.0 6:1.0 46:1.0 26:1.0 
0.15512203850202758 1363:1.0 34:1.0 105:1.0 31:1.0 
0.07146451289291661 840:1.0 6:1.0 189:1.0 59:1.0 
0.6363426054028253 1364:1.0 60:1.0 11:1.0 20:1.0 
0.03345829620605094 214:1.0 6:1.0 7:1.0 102:1.0 
0.22680173232369993 1365:1.0 34:1.0 105:1.0 12:1.0 
0.09266863436969987 1366:1.0 48:1.0 19:1.0 220:1.0 
0.3024169945820728 1367:1.0 18:1.0 223:1.0 418:1.0 
0.34024829138098295 1369:1.0 44:1.0 25:1.0 4:1.0 
0.09237806717795166 1370:1.0 6:1.0 46:1.0 26:1.0 
0.25321813096777845 29:1.0 60:1.0 15:1.0 20:1.0 
0.5472299758202731 283:1.0 44:1.0 223:1.0 4:1.0 
0.34024982289318856 1371:1.0 48:1.0 19:1.0 31:1.0 
0.07189593443331452 840:1.0 6:1.0 189:1.0 39:1.0 
0.3402587109451139 1372:1.0 48:1.0 19:1.0 16:1.0 
0.4244440849857925 1126:1.0 48:1.0 73:1.0 159:1.0 
0.34025718925487203 1374:1.0 60:1.0 11:1.0 20:1.0 
0.224074671947559 1351:1.0 28:1.0 7:1.0 8:1.0 
0.017447936155209853 774:1.0 10:1.0 30:1.0 159:1.0 
0.36416676554658634 984:1.0 161:1.0 15:1.0 4:1.0 
0.57654108913475 774:1.0 18:1.0 46:1.0 418:1.0 
0.34025709566853163 1378:1.0 34:1.0 420:1.0 31:1.0 
0.08334050549684478 707:1.0 171:1.0 15:1.0 31:1.0 
1.0 1382:1.0 44:1.0 7:1.0 16:1.0 
0.1097175584796849 859:1.0 10:1.0 23:1.0 39:1.0 
0.34025578504126996 1384:1.0 48:1.0 19:1.0 31:1.0 
1.0 38:1.0 22:1.0 30:1.0 39:1.0 
0.46869044585170944 883:1.0 6:1.0 30:1.0 12:1.0 
0.27227511637285934 1387:1.0 48:1.0 19:1.0 20:1.0 
0.15656510561540887 170:1.0 171:1.0 25:1.0 39:1.0 
0.026305739121571775 774:1.0 10:1.0 105:1.0 628:1.0 
1.0 568:1.0 331:1.0 631:1.0 4:1.0 
0.67905559307694 1255:1.0 6:1.0 7:1.0 20:1.0 
1.0 883:1.0 18:1.0 30:1.0 26:1.0 
0.13611330910156827 1389:1.0 18:1.0 7:1.0 185:1.0 
0.34025572188832237 1390:1.0 44:1.0 49:1.0 26:1.0 
0.03601300950793313 655:1.0 44:1.0 35:1.0 20:1.0 
0.22680018161352097 1391:1.0 44:1.0 35:1.0 20:1.0 
1.0 179:1.0 1393:1.0 25:1.0 31:1.0 
0.23395258619661333 127:1.0 6:1.0 7:1.0 418:1.0 
0.12260265555982894 215:1.0 34:1.0 85:1.0 12:1.0 
0.09286619940169522 1366:1.0 48:1.0 19:1.0 31:1.0 
0.4648584609298114 1396:1.0 238:1.0 7:1.0 16:1.0 
0.03132549693464585 127:1.0 6:1.0 7:1.0 33:1.0 
0.3402558802152671 1399:1.0 28:1.0 3:1.0 39:1.0 
0.3402510521843505 1400:1.0 34:1.0 105:1.0 12:1.0 
0.020081411726362863 215:1.0 34:1.0 105:1.0 12:1.0 
1.0 996:1.0 48:1.0 19:1.0 31:1.0 
1.0 1370:1.0 6:1.0 7:1.0 20:1.0 
1.0 84:1.0 10:1.0 111:1.0 81:1.0 
0.3402502105068937 1405:1.0 44:1.0 85:1.0 102:1.0 
1.0 179:1.0 2:1.0 35:1.0 75:1.0 
0.18554170236219691 1406:1.0 171:1.0 35:1.0 220:1.0 
0.15717653271087387 834:1.0 18:1.0 223:1.0 81:1.0 
0.1572176551127642 1407:1.0 10:1.0 105:1.0 31:1.0 
0.1480500925737526 889:1.0 18:1.0 7:1.0 12:1.0 
0.40553672786836986 1409:1.0 48:1.0 49:1.0 102:1.0 
0.2268229536046971 1280:1.0 48:1.0 30:1.0 102:1.0 
0.3486336756122972 1411:1.0 48:1.0 49:1.0 31:1.0 
1.0 80:1.0 34:1.0 105:1.0 31:1.0 
1.0 32:1.0 2:1.0 25:1.0 4:1.0 
0.34024963633510175 1414:1.0 6:1.0 7:1.0 26:1.0 
0.2722801200984685 1415:1.0 48:1.0 73:1.0 20:1.0 
0.158784833936421 58:1.0 22:1.0 23:1.0 102:1.0 
0.3402496644051089 1417:1.0 34:1.0 105:1.0 39:1.0 
0.07912648747639563 888:1.0 48:1.0 3:1.0 220:1.0 
0.3401406384393143 1419:1.0 18:1.0 223:1.0 16:1.0 
0.34024864482570966 1420:1.0 18:1.0 23:1.0 185:1.0 
0.3402658468230798 1421:1.0 18:1.0 189:1.0 26:1.0 
0.10971753222060397 859:1.0 10:1.0 30:1.0 102:1.0 
0.6241064148596362 1041:1.0 48:1.0 19:1.0 12:1.0 
1.0 13:1.0 14:1.0 49:1.0 39:1.0 
1.0 32:1.0 2:1.0 25:1.0 16:1.0 
1.0 1433:1.0 28:1.0 30:1.0 39:1.0 
0.1226418917186892 255:1.0 18:1.0 23:1.0 59:1.0 
0.4496618317917749 892:1.0 60:1.0 23:1.0 39:1.0 
1.0 1440:1.0 28:1.0 30:1.0 26:1.0 
0.4658947240887195 1441:1.0 28:1.0 7:1.0 39:1.0 
1.0 373:1.0 28:1.0 30:1.0 20:1.0 
1.0 61:1.0 22:1.0 15:1.0 31:1.0 
0.08833131990533881 1445:1.0 18:1.0 23:1.0 26:1.0 
1.0 80:1.0 77:1.0 111:1.0 220:1.0 
0.6683550242893649 152:1.0 18:1.0 311:1.0 20:1.0 
1.0 38:1.0 22:1.0 23:1.0 31:1.0 
0.006270863308460675 1101:1.0 6:1.0 15:1.0 59:1.0 
1.0 1136:1.0 60:1.0 11:1.0 20:1.0 
0.6684035781486742 695:1.0 6:1.0 260:1.0 33:1.0 
0.13325384429786696 1451:1.0 34:1.0 11:1.0 16:1.0 
0.1885874533313991 1413:1.0 44:1.0 7:1.0 16:1.0 
0.489137717160283 1426:1.0 18:1.0 46:1.0 75:1.0 
1.0 38:1.0 22:1.0 86:1.0 16:1.0 
0.47844531382700906 1456:1.0 18:1.0 25:1.0 39:1.0 
1.0 1457:1.0 22:1.0 30:1.0 31:1.0 
0.43371580898024886 1458:1.0 44:1.0 7:1.0 42:1.0 
1.0 38:1.0 22:1.0 23:1.0 39:1.0 
0.7745651033573067 1461:1.0 44:1.0 46:1.0 185:1.0 
0.22345977307486273 868:1.0 44:1.0 23:1.0 169:1.0 
0.41208707962617286 126:1.0 171:1.0 46:1.0 16:1.0 
0.3402622986984008 1463:1.0 18:1.0 25:1.0 16:1.0 
0.448986092314385 484:1.0 77:1.0 30:1.0 20:1.0 
1.0 1466:1.0 44:1.0 7:1.0 102:1.0 
1.0 38:1.0 22:1.0 35:1.0 39:1.0 
0.2597770669514389 1474:1.0 171:1.0 3:1.0 31:1.0 
1.0 93:1.0 22:1.0 23:1.0 39:1.0 
1.0 50:1.0 22:1.0 1488:1.0 39:1.0 
0.13618535042675567 746:1.0 28:1.0 25:1.0 31:1.0 
0.2340975291613389 1426:1.0 18:1.0 23:1.0 418:1.0 
0.3033013566946936 1233:1.0 60:1.0 86:1.0 200:1.0 
0.2229847350860424 1491:1.0 18:1.0 7:1.0 20:1.0 
0.3402011505707335 1493:1.0 44:1.0 7:1.0 16:1.0 
0.7223290936377025 1494:1.0 18:1.0 46:1.0 75:1.0 
1.0 213:1.0 161:1.0 162:1.0 4:1.0 
1.0 373:1.0 28:1.0 30:1.0 8:1.0 
0.420110222817478 1500:1.0 44:1.0 25:1.0 16:1.0 
0.1981601974071679 560:1.0 18:1.0 46:1.0 26:1.0 
0.5031054167260027 1446:1.0 18:1.0 7:1.0 107:1.0 
0.03957476510841412 219:1.0 10:1.0 105:1.0 39:1.0 
1.0 152:1.0 18:1.0 311:1.0 20:1.0 
1.0 38:1.0 22:1.0 23:1.0 31:1.0 
0.16774167416541452 1503:1.0 44:1.0 7:1.0 624:1.0 
0.2773316341006713 997:1.0 44:1.0 105:1.0 20:1.0 
0.04837788475700214 1101:1.0 6:1.0 7:1.0 169:1.0 
0.49681203739867563 772:1.0 171:1.0 11:1.0 20:1.0 
0.27228216857217563 1506:1.0 18:1.0 23:1.0 12:1.0 
0.78330119867485 456:1.0 48:1.0 19:1.0 39:1.0 
0.060524158286718664 1508:1.0 48:1.0 19:1.0 4:1.0 
0.5592583892073467 516:1.0 44:1.0 189:1.0 16:1.0 
1.0 38:1.0 22:1.0 23:1.0 31:1.0 
0.23393850469178115 1426:1.0 18:1.0 7:1.0 8:1.0 
0.07288901904768771 1101:1.0 6:1.0 19:1.0 81:1.0 
0.3543794779945084 516:1.0 60:1.0 85:1.0 20:1.0 
0.19416898888331288 1510:1.0 6:1.0 7:1.0 26:1.0 
0.3401656830670708 1455:1.0 60:1.0 79:1.0 20:1.0 
1.0 38:1.0 22:1.0 86:1.0 31:1.0 
0.47850224494321997 1456:1.0 18:1.0 7:1.0 20:1.0 
1.0 93:1.0 22:1.0 23:1.0 39:1.0 
0.3402622709662727 1513:1.0 28:1.0 30:1.0 31:1.0 
1.0 38:1.0 22:1.0 46:1.0 31:1.0 
1.0 38:1.0 22:1.0 23:1.0 31:1.0 
0.36799781826199307 296:1.0 18:1.0 7:1.0 20:1.0 
0.17975912143902836 1012:1.0 6:1.0 30:1.0 20:1.0 
1.0 126:1.0 10:1.0 420:1.0 31:1.0 
1.0 38:1.0 22:1.0 23:1.0 39:1.0 
0.34026229451762796 1516:1.0 10:1.0 30:1.0 20:1.0 
0.12264189171868915 255:1.0 18:1.0 23:1.0 20:1.0 
1.0 50:1.0 22:1.0 23:1.0 31:1.0 
0.19350700918765254 1518:1.0 18:1.0 30:1.0 26:1.0 
0.43565819908112313 896:1.0 10:1.0 389:1.0 31:1.0 
0.6701065999018949 1521:1.0 44:1.0 46:1.0 16:1.0 
0.15695609820869885 1522:1.0 18:1.0 46:1.0 16:1.0 
0.2722444791311239 1526:1.0 60:1.0 15:1.0 26:1.0 
0.051085004587370246 170:1.0 18:1.0 23:1.0 418:1.0 
0.08457205517758373 888:1.0 10:1.0 420:1.0 16:1.0 
0.63033010558794 378:1.0 28:1.0 30:1.0 42:1.0 
0.08178902656912013 1535:1.0 44:1.0 30:1.0 16:1.0 
0.7413963473288987 84:1.0 60:1.0 79:1.0 20:1.0 
0.1793543933804918 1260:1.0 34:1.0 105:1.0 20:1.0 
0.0861732739887736 996:1.0 34:1.0 105:1.0 146:1.0 
0.1668492384141114 1537:1.0 6:1.0 7:1.0 33:1.0 
0.07598755012351394 1538:1.0 60:1.0 173:1.0 26:1.0 
0.1335991206336385 391:1.0 10:1.0 30:1.0 4:1.0 
1.0 574:1.0 171:1.0 25:1.0 12:1.0 
0.2722949401786534 1541:1.0 18:1.0 19:1.0 4:1.0 
0.06275364930611702 1542:1.0 6:1.0 23:1.0 31:1.0 
1.0 1543:1.0 28:1.0 7:1.0 39:1.0 
1.0 1544:1.0 28:1.0 30:1.0 8:1.0 
0.3278219116281252 464:1.0 18:1.0 15:1.0 12:1.0 
1.0 38:1.0 22:1.0 23:1.0 39:1.0 
1.0 90:1.0 83:1.0 105:1.0 33:1.0 
0.8109509210636601 84:1.0 48:1.0 30:1.0 20:1.0 
1.0 378:1.0 28:1.0 23:1.0 39:1.0 
0.17002966077169443 1551:1.0 18:1.0 30:1.0 8:1.0 
0.2613767537252861 1297:1.0 18:1.0 85:1.0 4:1.0 
0.2722969142611777 1556:1.0 48:1.0 19:1.0 26:1.0 
0.5461968941708858 385:1.0 18:1.0 30:1.0 39:1.0 
0.340259129567468 1558:1.0 44:1.0 15:1.0 26:1.0 
0.5851960326515604 677:1.0 44:1.0 7:1.0 42:1.0 
0.15937474846812666 385:1.0 18:1.0 46:1.0 185:1.0 
1.0 1560:1.0 44:1.0 7:1.0 42:1.0 
0.15977788889900657 385:1.0 18:1.0 46:1.0 33:1.0 
0.4292547855843026 1562:1.0 60:1.0 86:1.0 20:1.0 
0.2706390882853087 256:1.0 18:1.0 7:1.0 20:1.0 
0.3402577353205773 1563:1.0 18:1.0 7:1.0 12:1.0 
0.33593456190422566 1336:1.0 44:1.0 7:1.0 16:1.0 
0.5599933127846424 931:1.0 18:1.0 46:1.0 26:1.0 
0.3402581556382431 1564:1.0 18:1.0 311:1.0 20:1.0 
1.0 58:1.0 22:1.0 23:1.0 31:1.0 
0.2953658579118217 1567:1.0 10:1.0 30:1.0 12:1.0 
0.010307502352666337 126:1.0 10:1.0 30:1.0 16:1.0 
0.015919638484847197 97:1.0 34:1.0 23:1.0 31:1.0 
0.22326049486357427 843:1.0 44:1.0 7:1.0 8:1.0 
0.3402580719337813 1569:1.0 10:1.0 46:1.0 16:1.0 
1.0 50:1.0 22:1.0 23:1.0 20:1.0 
0.3278219116281252 464:1.0 18:1.0 15:1.0 26:1.0 
0.10254567809207832 1537:1.0 18:1.0 7:1.0 75:1.0 
0.3402578768494918 1572:1.0 60:1.0 86:1.0 8:1.0 
0.09058575579697722 341:1.0 10:1.0 86:1.0 4:1.0 
0.34025670679271813 1573:1.0 6:1.0 15:1.0 59:1.0 
1.0 797:1.0 18:1.0 7:1.0 26:1.0 
0.27080671041644083 256:1.0 18:1.0 7:1.0 26:1.0 
1.0 255:1.0 18:1.0 189:1.0 31:1.0 
0.297770316116448 953:1.0 44:1.0 7:1.0 4:1.0 
0.35006784901653887 214:1.0 6:1.0 46:1.0 33:1.0 
0.5864808741706483 1143:1.0 18:1.0 25:1.0 26:1.0 
0.20699572475521108 1162:1.0 34:1.0 389:1.0 59:1.0 
0.8402099609375 1584:1.0 44:1.0 195:1.0 16:1.0 
0.0923485672277282 230:1.0 171:1.0 23:1.0 31:1.0 
0.21344763258014005 774:1.0 48:1.0 19:1.0 31:1.0 
0.19415876742793092 1587:1.0 569:1.0 7:1.0 16:1.0 
0.5037511515598778 1581:1.0 18:1.0 571:1.0 20:1.0 
0.5632387508530943 1588:1.0 60:1.0 35:1.0 20:1.0 
1.0 758:1.0 22:1.0 86:1.0 159:1.0 
1.0 984:1.0 161:1.0 25:1.0 159:1.0 
0.11138220955057786 1589:1.0 161:1.0 162:1.0 20:1.0 
0.3142923370794227 1056:1.0 309:1.0 223:1.0 185:1.0 
1.0 758:1.0 22:1.0 3:1.0 159:1.0 
0.3402624545963941 1591:1.0 161:1.0 25:1.0 159:1.0 
0.11163672370039318 1589:1.0 161:1.0 162:1.0 33:1.0 
1.0 268:1.0 83:1.0 86:1.0 59:1.0 
0.23410548402326378 473:1.0 60:1.0 85:1.0 26:1.0 
1.0 568:1.0 569:1.0 173:1.0 20:1.0 
1.0 213:1.0 161:1.0 162:1.0 4:1.0 
0.01366125125654876 1273:1.0 18:1.0 7:1.0 20:1.0 
0.5203419481582129 126:1.0 10:1.0 46:1.0 39:1.0 
1.0 464:1.0 18:1.0 30:1.0 16:1.0 
0.2300699716461784 1567:1.0 77:1.0 23:1.0 12:1.0 
0.08794040017984141 859:1.0 48:1.0 85:1.0 31:1.0 
0.8633076547251506 1593:1.0 44:1.0 7:1.0 4:1.0 
0.11339869087940216 905:1.0 34:1.0 389:1.0 102:1.0 
0.08482538091995453 1596:1.0 171:1.0 35:1.0 31:1.0 
0.10282480554822676 1537:1.0 18:1.0 7:1.0 26:1.0 
0.16706255936375458 219:1.0 34:1.0 85:1.0 12:1.0 
0.33800858463031325 1598:1.0 48:1.0 19:1.0 102:1.0 
0.13419894981181396 1599:1.0 44:1.0 35:1.0 12:1.0 
0.404396176785209 561:1.0 72:1.0 189:1.0 81:1.0 
0.3402600224640336 1604:1.0 28:1.0 30:1.0 47:1.0 
0.5360949747374257 1605:1.0 48:1.0 30:1.0 39:1.0 
0.2601619068402642 660:1.0 18:1.0 7:1.0 418:1.0 
0.03155714192110144 360:1.0 6:1.0 7:1.0 33:1.0 
0.16439377140173392 1608:1.0 34:1.0 11:1.0 20:1.0 
0.34026772797672683 1610:1.0 569:1.0 46:1.0 16:1.0 
0.17020560062945647 1142:1.0 18:1.0 571:1.0 26:1.0 
0.04706431914239299 285:1.0 48:1.0 105:1.0 102:1.0 
0.26325244574867684 154:1.0 10:1.0 85:1.0 31:1.0 
0.059768446823422305 1613:1.0 18:1.0 46:1.0 4:1.0 
1.0 1186:1.0 72:1.0 11:1.0 47:1.0 
0.2957888271129802 749:1.0 48:1.0 73:1.0 20:1.0 
0.2721883714278618 1556:1.0 18:1.0 7:1.0 418:1.0 
0.06659155816456203 135:1.0 44:1.0 79:1.0 12:1.0 
1.0 175:1.0 44:1.0 25:1.0 42:1.0 
0.5838954097475583 175:1.0 44:1.0 46:1.0 4:1.0 
0.1275834354308136 782:1.0 18:1.0 223:1.0 81:1.0 
0.08907341386138945 854:1.0 60:1.0 11:1.0 26:1.0 
0.12817743892529904 842:1.0 171:1.0 86:1.0 31:1.0 
0.10733564696606533 1624:1.0 44:1.0 189:1.0 16:1.0 
0.20354041282824653 1057:1.0 18:1.0 46:1.0 75:1.0 
1.0 1625:1.0 83:1.0 79:1.0 59:1.0 
1.0 1627:1.0 28:1.0 25:1.0 39:1.0 
1.0 1629:1.0 28:1.0 30:1.0 39:1.0 
0.3360020122006312 1321:1.0 161:1.0 7:1.0 16:1.0 
1.0 314:1.0 161:1.0 23:1.0 159:1.0 
1.0 1631:1.0 161:1.0 162:1.0 16:1.0 
0.986015719133354 397:1.0 18:1.0 23:1.0 12:1.0 
0.19999565095094635 1249:1.0 48:1.0 19:1.0 20:1.0 
0.27727027941514765 997:1.0 44:1.0 7:1.0 16:1.0 
0.19194870729538713 1622:1.0 18:1.0 46:1.0 16:1.0 
1.0 90:1.0 83:1.0 30:1.0 81:1.0 
1.0 726:1.0 83:1.0 85:1.0 20:1.0 
0.01916182942268921 1633:1.0 18:1.0 7:1.0 70:1.0 
0.13618649175016584 646:1.0 18:1.0 25:1.0 81:1.0 
0.25736429628030233 1535:1.0 83:1.0 23:1.0 16:1.0 
0.9490664273744145 1046:1.0 48:1.0 19:1.0 159:1.0 
1.0 1636:1.0 161:1.0 49:1.0 159:1.0 
1.0 213:1.0 161:1.0 162:1.0 16:1.0 
0.12926472794137167 826:1.0 44:1.0 46:1.0 4:1.0 
0.015814706508430122 530:1.0 18:1.0 260:1.0 20:1.0 
0.7147095030709053 1:1.0 2:1.0 25:1.0 4:1.0 
0.1299004207249168 166:1.0 34:1.0 11:1.0 16:1.0 
1.0 90:1.0 83:1.0 105:1.0 33:1.0 
0.1941708513916681 1645:1.0 44:1.0 19:1.0 42:1.0 
1.0 1627:1.0 28:1.0 25:1.0 39:1.0 
1.0 147:1.0 148:1.0 30:1.0 16:1.0 
0.5478342881724636 984:1.0 161:1.0 46:1.0 4:1.0 
1.0 45:1.0 6:1.0 162:1.0 59:1.0 
1.0 286:1.0 22:1.0 30:1.0 16:1.0 
0.2097312858935728 1653:1.0 60:1.0 15:1.0 20:1.0 
0.14912839868352573 213:1.0 6:1.0 25:1.0 20:1.0 
1.0 1120:1.0 22:1.0 11:1.0 31:1.0 
0.04759288585124927 725:1.0 60:1.0 86:1.0 12:1.0 
0.06566104202246612 215:1.0 48:1.0 19:1.0 12:1.0 
0.23415733498016383 334:1.0 18:1.0 7:1.0 26:1.0 
1.0 1657:1.0 28:1.0 30:1.0 16:1.0 
0.09723064607392679 705:1.0 18:1.0 30:1.0 20:1.0 
1.0 38:1.0 22:1.0 23:1.0 39:1.0 
0.15718716839809663 1659:1.0 83:1.0 3:1.0 42:1.0 
0.2552517654237584 1660:1.0 44:1.0 85:1.0 12:1.0 
0.20955957145738918 397:1.0 18:1.0 7:1.0 31:1.0 
0.12269847533914453 255:1.0 18:1.0 85:1.0 26:1.0 
0.3402590949744512 1664:1.0 18:1.0 223:1.0 26:1.0 
1.0 50:1.0 22:1.0 3:1.0 159:1.0 
0.31315343651649274 314:1.0 161:1.0 25:1.0 16:1.0 
0.5145926868150486 1665:1.0 18:1.0 162:1.0 102:1.0 
0.4657494096151489 54:1.0 18:1.0 7:1.0 75:1.0 
0.20883499750099085 1633:1.0 18:1.0 46:1.0 1668:1.0 
1.0 179:1.0 2:1.0 1671:1.0 20:1.0 
1.0 334:1.0 18:1.0 7:1.0 418:1.0 
0.19219612777609818 1622:1.0 18:1.0 46:1.0 75:1.0 
0.0716889822902044 526:1.0 48:1.0 85:1.0 81:1.0 
0.21479203310180045 1675:1.0 6:1.0 35:1.0 185:1.0 
1.0 38:1.0 22:1.0 11:1.0 31:1.0 
0.7801352128169208 318:1.0 18:1.0 46:1.0 16:1.0 
0.47078098072409164 906:1.0 18:1.0 23:1.0 81:1.0 
0.38300438977592655 1678:1.0 18:1.0 195:1.0 20:1.0 
0.047080345600440235 699:1.0 44:1.0 7:1.0 624:1.0 
0.20928430000631187 397:1.0 18:1.0 7:1.0 146:1.0 
0.6444770066161352 1631:1.0 161:1.0 7:1.0 4:1.0 
0.11240474364011041 528:1.0 48:1.0 19:1.0 42:1.0 
1.0 984:1.0 161:1.0 7:1.0 4:1.0 
0.037203422763888896 1683:1.0 44:1.0 49:1.0 20:1.0 
0.19396746225206685 1684:1.0 18:1.0 7:1.0 418:1.0 
0.23283854519232525 1685:1.0 60:1.0 1671:1.0 12:1.0 
0.34025833356024027 1687:1.0 48:1.0 85:1.0 1668:1.0 
0.287997477681892 1622:1.0 18:1.0 7:1.0 70:1.0 
1.0 1186:1.0 72:1.0 23:1.0 47:1.0 
0.03703590153349307 215:1.0 48:1.0 1671:1.0 12:1.0 
0.29502838350903615 894:1.0 18:1.0 223:1.0 26:1.0 
0.10728396736160527 1363:1.0 48:1.0 85:1.0 102:1.0 
0.025558685146804545 214:1.0 6:1.0 49:1.0 12:1.0 
0.14391507594721176 1622:1.0 18:1.0 23:1.0 26:1.0 
1.0 29:1.0 48:1.0 85:1.0 31:1.0 
0.536088272033913 1694:1.0 44:1.0 25:1.0 4:1.0 
0.1359486646958583 1695:1.0 6:1.0 30:1.0 20:1.0 
0.3402581321871661 1698:1.0 18:1.0 7:1.0 26:1.0 
0.2902135990080743 1700:1.0 18:1.0 46:1.0 16:1.0 
0.3402581535807979 1701:1.0 18:1.0 23:1.0 16:1.0 
0.2721442882932141 1702:1.0 18:1.0 23:1.0 26:1.0 
0.14428353003598995 1622:1.0 18:1.0 23:1.0 20:1.0 
0.22676374082693132 1704:1.0 48:1.0 73:1.0 102:1.0 
0.34026683564239035 1706:1.0 28:1.0 30:1.0 16:1.0 
0.340257637359019 1707:1.0 18:1.0 30:1.0 26:1.0 
0.21221723975603277 1661:1.0 18:1.0 7:1.0 59:1.0 
0.22694473381397648 1029:1.0 60:1.0 23:1.0 26:1.0 
0.34025763684538235 1708:1.0 28:1.0 30:1.0 1392:1.0 
0.20323621032652545 1275:1.0 83:1.0 1671:1.0 26:1.0 
1.0 439:1.0 44:1.0 7:1.0 16:1.0 
0.29622018990183985 1710:1.0 18:1.0 46:1.0 16:1.0 
0.5537250542367529 892:1.0 18:1.0 23:1.0 20:1.0 
0.30648441243460156 1661:1.0 34:1.0 105:1.0 26:1.0 
0.050390498890014034 214:1.0 6:1.0 203:1.0 20:1.0 
0.34025855816705247 1716:1.0 18:1.0 46:1.0 20:1.0 
1.0 880:1.0 22:1.0 23:1.0 31:1.0 
0.2722449756585311 1719:1.0 10:1.0 23:1.0 31:1.0 
0.2822809527909974 1295:1.0 44:1.0 7:1.0 16:1.0 
0.7889145714749335 1726:1.0 77:1.0 105:1.0 16:1.0 
0.1570166276686603 241:1.0 18:1.0 223:1.0 31:1.0 
0.8934643691651439 371:1.0 18:1.0 46:1.0 102:1.0 
0.032750939430485564 285:1.0 10:1.0 105:1.0 102:1.0 
0.1360298519039684 1733:1.0 60:1.0 15:1.0 20:1.0 
1.0 38:1.0 22:1.0 86:1.0 159:1.0 
0.10670629755784221 1738:1.0 60:1.0 15:1.0 20:1.0 
0.4231311434737769 1295:1.0 44:1.0 46:1.0 16:1.0 
1.0 38:1.0 22:1.0 23:1.0 31:1.0 
1.0 224:1.0 10:1.0 105:1.0 329:1.0 
0.10759281626671996 1260:1.0 6:1.0 223:1.0 20:1.0 
0.3749607518644929 225:1.0 18:1.0 46:1.0 26:1.0 
1.0 1057:1.0 18:1.0 7:1.0 20:1.0 
0.3402581878385805 1749:1.0 18:1.0 25:1.0 4:1.0 
0.20132614505934215 723:1.0 6:1.0 23:1.0 185:1.0 
0.0628376886942375 1750:1.0 44:1.0 189:1.0 4:1.0 
0.8175407049833664 772:1.0 18:1.0 23:1.0 185:1.0 
0.04487988781206506 1738:1.0 18:1.0 223:1.0 8:1.0 
0.08385465283048708 847:1.0 10:1.0 23:1.0 20:1.0 
1.0 21:1.0 22:1.0 23:1.0 169:1.0 
0.04564274525822776 518:1.0 171:1.0 25:1.0 16:1.0 
0.11172085050766892 906:1.0 18:1.0 173:1.0 4:1.0 
0.13924692798078153 1753:1.0 6:1.0 23:1.0 146:1.0 
1.0 474:1.0 148:1.0 11:1.0 31:1.0 
0.8250972348224915 668:1.0 18:1.0 46:1.0 8:1.0 
0.824911091069561 668:1.0 18:1.0 46:1.0 191:1.0 
0.8252674935575961 668:1.0 18:1.0 46:1.0 75:1.0 
0.2500147062835741 1285:1.0 44:1.0 79:1.0 102:1.0 
0.23852197553899213 574:1.0 77:1.0 105:1.0 12:1.0 
0.16666666666666663 1285:1.0 44:1.0 85:1.0 26:1.0 
0.15814372835323942 1137:1.0 18:1.0 7:1.0 20:1.0 
0.22680740826604162 1759:1.0 18:1.0 7:1.0 185:1.0 
0.6867657618193874 869:1.0 6:1.0 46:1.0 31:1.0 
0.49601520004339056 1763:1.0 6:1.0 7:1.0 12:1.0 
0.34026823994668726 1764:1.0 48:1.0 19:1.0 236:1.0 
0.06305966609329104 1750:1.0 44:1.0 49:1.0 4:1.0 
0.4361143351786233 1560:1.0 44:1.0 7:1.0 16:1.0 
0.07769021674774648 1769:1.0 18:1.0 23:1.0 26:1.0 
0.7393021245066929 90:1.0 83:1.0 73:1.0 47:1.0 
0.34026242486213554 1777:1.0 44:1.0 35:1.0 26:1.0 
1.0 772:1.0 171:1.0 85:1.0 20:1.0 
1.0 772:1.0 171:1.0 79:1.0 20:1.0 
0.1711832268258497 253:1.0 171:1.0 85:1.0 102:1.0 
1.0 402:1.0 6:1.0 223:1.0 20:1.0 
0.058921593034571854 524:1.0 18:1.0 7:1.0 20:1.0 
0.21010588000832534 1785:1.0 44:1.0 7:1.0 39:1.0 
1.0 326:1.0 72:1.0 30:1.0 47:1.0 
1.0 719:1.0 48:1.0 73:1.0 185:1.0 
1.0 326:1.0 72:1.0 105:1.0 47:1.0 
1.0 542:1.0 6:1.0 46:1.0 20:1.0 
0.2266828630033147 1787:1.0 18:1.0 223:1.0 12:1.0 
1.0 225:1.0 18:1.0 46:1.0 26:1.0 
0.0647281699821035 1240:1.0 18:1.0 46:1.0 8:1.0 
0.4490024853034403 1789:1.0 10:1.0 23:1.0 39:1.0 
0.20248493018036126 892:1.0 18:1.0 30:1.0 12:1.0 
1.0 1792:1.0 18:1.0 46:1.0 16:1.0 
1.0 38:1.0 22:1.0 23:1.0 39:1.0 
1.0 101:1.0 171:1.0 7:1.0 20:1.0 
1.0 38:1.0 22:1.0 23:1.0 39:1.0 
0.17006096539239304 1798:1.0 10:1.0 30:1.0 20:1.0 
0.4055263274183875 1801:1.0 10:1.0 105:1.0 102:1.0 
1.0 734:1.0 104:1.0 15:1.0 185:1.0 
0.5065796690509174 177:1.0 10:1.0 189:1.0 4:1.0 
0.9070432880311872 402:1.0 6:1.0 223:1.0 81:1.0 
0.13953740054541727 1803:1.0 60:1.0 35:1.0 26:1.0 
1.0 88:1.0 22:1.0 23:1.0 31:1.0 
0.01656552387814434 356:1.0 10:1.0 30:1.0 20:1.0 
1.0 38:1.0 22:1.0 15:1.0 159:1.0 
0.8933830230793863 758:1.0 22:1.0 162:1.0 159:1.0 
1.0 568:1.0 569:1.0 86:1.0 20:1.0 
0.6327742194078049 310:1.0 6:1.0 46:1.0 169:1.0 
0.009549421488428215 701:1.0 171:1.0 30:1.0 39:1.0 
0.8125 719:1.0 18:1.0 7:1.0 12:1.0 
0.02971504666283086 1768:1.0 18:1.0 19:1.0 20:1.0 
0.02233298290373715 219:1.0 34:1.0 105:1.0 31:1.0 
0.9274927185725061 719:1.0 18:1.0 7:1.0 12:1.0 
0.8315909306076409 281:1.0 48:1.0 19:1.0 4:1.0 
0.024975613276144906 214:1.0 6:1.0 49:1.0 47:1.0 
0.1427957742278565 578:1.0 48:1.0 11:1.0 185:1.0 
0.12985488743874596 1769:1.0 18:1.0 46:1.0 26:1.0 
0.12992671896659672 1769:1.0 18:1.0 46:1.0 81:1.0 
0.921084656846541 326:1.0 72:1.0 105:1.0 47:1.0 
0.09921455781799343 588:1.0 48:1.0 73:1.0 39:1.0 
0.3835730792485489 1814:1.0 171:1.0 35:1.0 39:1.0 
0.23855967937894076 574:1.0 48:1.0 73:1.0 26:1.0 
0.2722466700175104 1820:1.0 18:1.0 46:1.0 20:1.0 
0.21010588000832534 1785:1.0 44:1.0 7:1.0 4:1.0 
1.0 1586:1.0 18:1.0 7:1.0 26:1.0 
0.04551184130804283 385:1.0 6:1.0 35:1.0 33:1.0 
0.3402384149828002 1824:1.0 28:1.0 30:1.0 26:1.0 
0.17737936183143052 1678:1.0 60:1.0 85:1.0 12:1.0 
1.0 38:1.0 22:1.0 85:1.0 39:1.0 
0.34026672137087555 1827:1.0 28:1.0 25:1.0 39:1.0 
0.3402667426022862 1828:1.0 28:1.0 30:1.0 26:1.0 
0.24966893291092737 698:1.0 171:1.0 25:1.0 185:1.0 
0.004087883586272816 9:1.0 48:1.0 19:1.0 81:1.0 
0.34026635715261994 1834:1.0 28:1.0 79:1.0 39:1.0 
0.3402661695823402 1835:1.0 28:1.0 30:1.0 26:1.0 
0.1432484151182292 1836:1.0 77:1.0 3:1.0 20:1.0 
1.0 1838:1.0 44:1.0 7:1.0 16:1.0 
0.3402668002628208 1839:1.0 18:1.0 46:1.0 16:1.0 
0.4184605681110224 198:1.0 18:1.0 23:1.0 26:1.0 
0.17093563301029635 892:1.0 44:1.0 7:1.0 39:1.0 
0.09737623304205564 1845:1.0 171:1.0 35:1.0 12:1.0 
0.09594857835553842 842:1.0 48:1.0 19:1.0 81:1.0 
1.0 1847:1.0 28:1.0 25:1.0 185:1.0 
0.767248534918006 1848:1.0 28:1.0 189:1.0 12:1.0 
0.5946006923832625 1849:1.0 44:1.0 35:1.0 20:1.0 
1.0 780:1.0 48:1.0 19:1.0 39:1.0 
0.18656285962844793 352:1.0 28:1.0 25:1.0 20:1.0 
0.11226738180469814 1273:1.0 6:1.0 7:1.0 185:1.0 
0.2427172276041688 1853:1.0 28:1.0 189:1.0 26:1.0 
1.0 80:1.0 48:1.0 85:1.0 31:1.0 
1.0 1852:1.0 28:1.0 25:1.0 185:1.0 
0.24318778336092525 1853:1.0 28:1.0 189:1.0 81:1.0 
1.0 32:1.0 2:1.0 105:1.0 4:1.0 
0.31178372242882824 858:1.0 6:1.0 7:1.0 26:1.0 
0.01916182942268929 1633:1.0 18:1.0 7:1.0 16:1.0 
0.41009783065498695 1099:1.0 48:1.0 73:1.0 12:1.0 
1.0 791:1.0 22:1.0 49:1.0 20:1.0 
1.0 695:1.0 18:1.0 7:1.0 31:1.0 
1.0 69:1.0 18:1.0 46:1.0 26:1.0 
0.1361580079942599 1695:1.0 6:1.0 3:1.0 102:1.0 
0.4970023373363124 772:1.0 171:1.0 25:1.0 20:1.0 
0.3401559985707139 1856:1.0 44:1.0 25:1.0 20:1.0 
0.3402660429315164 1859:1.0 18:1.0 571:1.0 16:1.0 
1.0 80:1.0 34:1.0 105:1.0 81:1.0 
1.0 90:1.0 83:1.0 85:1.0 31:1.0 
0.04358681698043099 215:1.0 48:1.0 189:1.0 12:1.0 
0.08505297811071613 1862:1.0 18:1.0 7:1.0 102:1.0 
0.17468072496728132 101:1.0 34:1.0 105:1.0 47:1.0 
0.4995188271381896 1845:1.0 48:1.0 35:1.0 20:1.0 
0.177616513997174 1852:1.0 28:1.0 35:1.0 185:1.0 
0.24313661045726587 1853:1.0 28:1.0 189:1.0 59:1.0 
0.08908445195089214 29:1.0 60:1.0 30:1.0 26:1.0 
0.07939359615064484 285:1.0 48:1.0 105:1.0 31:1.0 
0.3402683126970782 1865:1.0 309:1.0 7:1.0 20:1.0 
0.42029083780050275 1866:1.0 18:1.0 7:1.0 26:1.0 
1.0 314:1.0 161:1.0 7:1.0 20:1.0 
1.0 988:1.0 6:1.0 7:1.0 102:1.0 
0.009683305017641447 908:1.0 18:1.0 7:1.0 16:1.0 
1.0 80:1.0 48:1.0 85:1.0 16:1.0 
0.5822504986785935 1045:1.0 18:1.0 49:1.0 12:1.0 
0.8481249346375032 32:1.0 2:1.0 19:1.0 20:1.0 
0.8563220972451897 76:1.0 34:1.0 105:1.0 75:1.0 
0.07121149075379482 908:1.0 6:1.0 46:1.0 102:1.0 
1.0 80:1.0 34:1.0 105:1.0 26:1.0 
1.0 80:1.0 34:1.0 105:1.0 31:1.0 
0.3378599265043153 910:1.0 6:1.0 420:1.0 26:1.0 
0.8266755726121833 231:1.0 48:1.0 73:1.0 102:1.0 
0.09624024421658438 842:1.0 48:1.0 85:1.0 20:1.0 
0.18385429977727274 255:1.0 18:1.0 223:1.0 26:1.0 
0.7533833318454852 796:1.0 48:1.0 73:1.0 31:1.0 
0.016143839039757857 547:1.0 18:1.0 7:1.0 16:1.0 
0.20276139631756424 253:1.0 48:1.0 73:1.0 102:1.0 
0.10457728196116209 1870:1.0 18:1.0 7:1.0 26:1.0 
1.0 151:1.0 48:1.0 85:1.0 42:1.0 
0.09355966242726106 1871:1.0 48:1.0 19:1.0 31:1.0 
0.08601331797397824 996:1.0 34:1.0 105:1.0 20:1.0 
0.02458658524590766 518:1.0 48:1.0 73:1.0 102:1.0 
0.08165345962306758 1069:1.0 44:1.0 25:1.0 102:1.0 
0.055113778106287876 9:1.0 48:1.0 73:1.0 47:1.0 
0.10538845501459868 888:1.0 60:1.0 35:1.0 39:1.0 
0.44015424217021615 1875:1.0 18:1.0 7:1.0 26:1.0 
0.19417048517854243 1854:1.0 48:1.0 19:1.0 31:1.0 
0.01919496961102747 1633:1.0 18:1.0 7:1.0 159:1.0 
0.1225201565356876 255:1.0 18:1.0 35:1.0 102:1.0 
1.0 780:1.0 48:1.0 73:1.0 20:1.0 
0.18703922549327107 352:1.0 28:1.0 25:1.0 26:1.0 
0.7154626092857809 1877:1.0 44:1.0 85:1.0 102:1.0 
1.0 803:1.0 72:1.0 105:1.0 81:1.0 
0.38962085515905875 780:1.0 48:1.0 85:1.0 102:1.0 
0.42008446484389766 1866:1.0 18:1.0 25:1.0 102:1.0 
0.1946470112360283 1854:1.0 48:1.0 19:1.0 159:1.0 
0.490234375 305:1.0 6:1.0 162:1.0 81:1.0 
0.12252015653568765 255:1.0 18:1.0 49:1.0 102:1.0 
0.38962085515905875 780:1.0 48:1.0 85:1.0 39:1.0 
0.11324916263610263 922:1.0 28:1.0 46:1.0 26:1.0 
0.1273410471701676 1880:1.0 171:1.0 35:1.0 20:1.0 
1.0 38:1.0 22:1.0 173:1.0 39:1.0 
1.0 1:1.0 2:1.0 25:1.0 4:1.0 
0.2865740769118167 1885:1.0 6:1.0 7:1.0 185:1.0 
1.0 921:1.0 28:1.0 30:1.0 8:1.0 
0.45007088054325095 1888:1.0 10:1.0 30:1.0 20:1.0 
1.0 306:1.0 22:1.0 15:1.0 31:1.0 
0.06795539920145607 1889:1.0 238:1.0 7:1.0 20:1.0 
0.2731683947353845 152:1.0 6:1.0 46:1.0 12:1.0 
0.14841472835148584 588:1.0 48:1.0 19:1.0 16:1.0 
0.12468730666198027 591:1.0 10:1.0 389:1.0 169:1.0 
0.22677041624063135 1890:1.0 171:1.0 15:1.0 4:1.0 
0.05047320552047402 214:1.0 6:1.0 173:1.0 20:1.0 
1.0 286:1.0 22:1.0 11:1.0 31:1.0 
0.3402679271043405 1891:1.0 18:1.0 7:1.0 75:1.0 
0.08703887553217554 126:1.0 60:1.0 79:1.0 20:1.0 
1.0 1084:1.0 6:1.0 162:1.0 26:1.0 
0.19178852800811666 452:1.0 6:1.0 7:1.0 20:1.0 
0.28682991707496436 1885:1.0 6:1.0 7:1.0 26:1.0 
0.5146802817394097 385:1.0 6:1.0 7:1.0 20:1.0 
1.0 921:1.0 28:1.0 30:1.0 185:1.0 
0.27229779182041075 1892:1.0 6:1.0 189:1.0 4:1.0 
0.2951773773004979 718:1.0 18:1.0 223:1.0 20:1.0 
0.12600021512995455 847:1.0 10:1.0 105:1.0 20:1.0 
0.11719830646607879 1030:1.0 18:1.0 223:1.0 8:1.0 
0.16411990720675335 1654:1.0 6:1.0 25:1.0 20:1.0 
0.3402674869630518 1896:1.0 10:1.0 11:1.0 20:1.0 
0.1700368695029311 1792:1.0 18:1.0 7:1.0 185:1.0 
0.21382618282469434 1589:1.0 6:1.0 189:1.0 20:1.0 
0.01662244941432403 214:1.0 6:1.0 25:1.0 8:1.0 
0.09397406121626556 1613:1.0 6:1.0 7:1.0 169:1.0 
0.22680097362171117 1898:1.0 171:1.0 11:1.0 220:1.0 
0.5649781677310249 1901:1.0 28:1.0 3:1.0 20:1.0 
0.24746083200030472 1902:1.0 171:1.0 35:1.0 4:1.0 
0.21388398049853466 1589:1.0 6:1.0 173:1.0 20:1.0 
1.0 95:1.0 6:1.0 46:1.0 169:1.0 
1.0 151:1.0 171:1.0 11:1.0 220:1.0 
0.3500208904252241 214:1.0 6:1.0 46:1.0 107:1.0 
0.18550094004428358 1902:1.0 18:1.0 85:1.0 185:1.0 
0.10077736975296091 1904:1.0 48:1.0 189:1.0 185:1.0 
1.0 151:1.0 34:1.0 105:1.0 31:1.0 
1.0 1589:1.0 6:1.0 25:1.0 20:1.0 
0.6430755745165629 1396:1.0 238:1.0 25:1.0 107:1.0 
0.6498874311157458 568:1.0 569:1.0 79:1.0 42:1.0 
0.0708705194461479 895:1.0 44:1.0 571:1.0 16:1.0 
0.10467529296875 1906:1.0 10:1.0 105:1.0 20:1.0 
0.15692601731483602 1907:1.0 171:1.0 25:1.0 31:1.0 
0.6432211022593278 1396:1.0 238:1.0 25:1.0 75:1.0 
0.157119755678289 1907:1.0 171:1.0 25:1.0 220:1.0 
0.10597719083588458 1909:1.0 18:1.0 25:1.0 185:1.0 
0.1171983064660789 1030:1.0 18:1.0 223:1.0 75:1.0 
0.18565090826657202 1902:1.0 77:1.0 111:1.0 185:1.0 
0.26181364048233025 1907:1.0 18:1.0 189:1.0 185:1.0 
0.1008401203212663 1904:1.0 48:1.0 189:1.0 16:1.0 
0.06702971284902379 1633:1.0 18:1.0 49:1.0 185:1.0 
0.3383714082818594 1911:1.0 18:1.0 7:1.0 59:1.0 
0.05582092753258268 264:1.0 60:1.0 23:1.0 20:1.0 
1.0 568:1.0 331:1.0 79:1.0 42:1.0 
0.22407467194755895 1351:1.0 28:1.0 105:1.0 8:1.0 
0.05069621352666854 365:1.0 10:1.0 30:1.0 16:1.0 
0.45880464051286696 718:1.0 18:1.0 15:1.0 20:1.0 
1.0 175:1.0 44:1.0 25:1.0 4:1.0 
0.2721975904592502 1506:1.0 6:1.0 46:1.0 185:1.0 
0.050369412495688055 1916:1.0 18:1.0 25:1.0 16:1.0 
0.2240857538505653 1351:1.0 28:1.0 223:1.0 81:1.0 
1.0 1:1.0 2:1.0 79:1.0 20:1.0 
0.7129658121558978 360:1.0 6:1.0 7:1.0 418:1.0 
0.19442774329492585 783:1.0 10:1.0 420:1.0 20:1.0 
0.08146649393620163 215:1.0 10:1.0 105:1.0 31:1.0 
0.5649333629481345 1901:1.0 28:1.0 105:1.0 102:1.0 
0.09435807682986418 1613:1.0 6:1.0 7:1.0 26:1.0 
1.0 80:1.0 10:1.0 105:1.0 4:1.0 
0.2534222374649159 1130:1.0 171:1.0 15:1.0 4:1.0 
0.5123339319416285 24:1.0 6:1.0 173:1.0 102:1.0 
0.05153217823686452 1311:1.0 6:1.0 223:1.0 42:1.0 
0.05154415899740106 1311:1.0 6:1.0 223:1.0 59:1.0 
0.1567239967196117 170:1.0 60:1.0 11:1.0 31:1.0 
0.21261490959848162 385:1.0 18:1.0 23:1.0 31:1.0 
0.01693069576985471 214:1.0 6:1.0 25:1.0 169:1.0 
0.3402669165452122 1925:1.0 171:1.0 11:1.0 20:1.0 
1.0 61:1.0 22:1.0 173:1.0 39:1.0 
1.0 38:1.0 22:1.0 30:1.0 39:1.0 
0.40548301152691424 1791:1.0 10:1.0 11:1.0 220:1.0 
0.34026675937999856 1927:1.0 18:1.0 7:1.0 20:1.0 
0.06159507001770829 736:1.0 18:1.0 7:1.0 169:1.0 
0.34026607968017075 1928:1.0 171:1.0 23:1.0 31:1.0 
0.5601173990958909 1930:1.0 44:1.0 11:1.0 185:1.0 
0.10573296972048694 737:1.0 171:1.0 189:1.0 42:1.0 
0.05032588881925308 1931:1.0 44:1.0 173:1.0 4:1.0 
1.0 24:1.0 6:1.0 46:1.0 26:1.0 
1.0 151:1.0 10:1.0 105:1.0 102:1.0 
0.1946523587927151 1332:1.0 48:1.0 3:1.0 39:1.0 
1.0 74:1.0 44:1.0 7:1.0 16:1.0 
0.8736126415795636 1932:1.0 18:1.0 46:1.0 220:1.0 
0.5415622658094131 1934:1.0 6:1.0 189:1.0 8:1.0 
0.08170457256852653 1678:1.0 171:1.0 15:1.0 12:1.0 
0.12348940758303668 1885:1.0 18:1.0 7:1.0 169:1.0 
0.9975536492159994 1929:1.0 44:1.0 7:1.0 4:1.0 
1.0 1:1.0 2:1.0 15:1.0 20:1.0 
0.18151930517026896 766:1.0 171:1.0 105:1.0 39:1.0 
0.06819808034414497 1889:1.0 238:1.0 7:1.0 33:1.0 
0.7599517116571741 151:1.0 10:1.0 111:1.0 39:1.0 
1.0 67:1.0 2:1.0 3:1.0 16:1.0 
1.0 314:1.0 18:1.0 7:1.0 8:1.0 
0.01683495327066635 870:1.0 10:1.0 23:1.0 16:1.0 
0.2722985916139324 1939:1.0 18:1.0 223:1.0 26:1.0 
0.42138363557907016 1269:1.0 60:1.0 79:1.0 81:1.0 
0.02846284454598913 895:1.0 44:1.0 85:1.0 20:1.0 
1.0 38:1.0 22:1.0 30:1.0 39:1.0 
0.1570239414629478 958:1.0 60:1.0 23:1.0 236:1.0 
0.10195999639734701 1889:1.0 238:1.0 86:1.0 12:1.0 
1.0 198:1.0 6:1.0 23:1.0 42:1.0 
0.9544491320611842 175:1.0 44:1.0 11:1.0 4:1.0 
0.05165197670917769 1311:1.0 6:1.0 223:1.0 8:1.0 
0.06546464401476379 870:1.0 18:1.0 85:1.0 16:1.0 
1.0 56:1.0 22:1.0 3:1.0 31:1.0 
1.0 38:1.0 22:1.0 23:1.0 39:1.0 
0.07246389923053159 303:1.0 161:1.0 15:1.0 20:1.0 
1.0 93:1.0 22:1.0 162:1.0 31:1.0 
1.0 38:1.0 22:1.0 11:1.0 220:1.0 
0.12311832520858998 1885:1.0 18:1.0 223:1.0 185:1.0 
1.0 67:1.0 2:1.0 15:1.0 16:1.0 
0.22680145725817644 1945:1.0 18:1.0 7:1.0 20:1.0 
0.04157034587028208 1311:1.0 6:1.0 7:1.0 185:1.0 
1.0 9:1.0 10:1.0 105:1.0 12:1.0 
1.0 13:1.0 14:1.0 15:1.0 102:1.0 
0.14635550739968747 859:1.0 171:1.0 105:1.0 20:1.0 
0.34026614135185024 1947:1.0 18:1.0 25:1.0 185:1.0 
0.13420088114865045 1599:1.0 44:1.0 79:1.0 12:1.0 
0.12754249299853698 1948:1.0 48:1.0 19:1.0 26:1.0 
1.0 56:1.0 22:1.0 3:1.0 31:1.0 
0.025974444474617955 365:1.0 10:1.0 105:1.0 220:1.0 
0.3402664165573708 1949:1.0 18:1.0 223:1.0 20:1.0 
1.0 61:1.0 22:1.0 23:1.0 31:1.0 
0.27218764639034726 1892:1.0 18:1.0 7:1.0 81:1.0 
1.0 38:1.0 22:1.0 85:1.0 16:1.0 
1.0 1098:1.0 18:1.0 25:1.0 20:1.0 
0.12348940758303667 1885:1.0 18:1.0 23:1.0 169:1.0 
0.34026607796425423 1952:1.0 171:1.0 23:1.0 107:1.0 
0.43752328593636364 960:1.0 77:1.0 111:1.0 31:1.0 
0.17010184865065517 1792:1.0 18:1.0 189:1.0 185:1.0 
0.34016529282143315 1953:1.0 44:1.0 189:1.0 20:1.0 
1.0 32:1.0 2:1.0 25:1.0 16:1.0 
0.08233122641520696 380:1.0 18:1.0 7:1.0 185:1.0 
0.5404851276041679 1954:1.0 6:1.0 189:1.0 20:1.0 
1.0 168:1.0 22:1.0 11:1.0 31:1.0 
0.04118782652684531 1311:1.0 6:1.0 7:1.0 26:1.0 
0.06563712782891207 365:1.0 48:1.0 85:1.0 31:1.0 
0.06823963243442267 870:1.0 18:1.0 7:1.0 20:1.0 
1.0 32:1.0 2:1.0 25:1.0 20:1.0 
0.272186989944985 1939:1.0 6:1.0 7:1.0 26:1.0 
1.0 314:1.0 161:1.0 3:1.0 16:1.0 
1.0 58:1.0 22:1.0 23:1.0 31:1.0 
0.09422818085389605 1613:1.0 6:1.0 7:1.0 31:1.0 
0.04113909969460837 1311:1.0 6:1.0 7:1.0 8:1.0 
0.7828866620757435 622:1.0 22:1.0 105:1.0 102:1.0 
0.0655136431442375 683:1.0 171:1.0 15:1.0 39:1.0 
1.0 168:1.0 22:1.0 23:1.0 220:1.0 
0.12355541506165887 1885:1.0 18:1.0 223:1.0 8:1.0 
1.0 1413:1.0 10:1.0 23:1.0 220:1.0 
0.38203120991805656 1955:1.0 18:1.0 223:1.0 81:1.0 
0.6428869688241848 796:1.0 10:1.0 105:1.0 329:1.0 
1.0 568:1.0 331:1.0 15:1.0 42:1.0 
0.3402661382916248 1957:1.0 569:1.0 189:1.0 26:1.0 
1.0 61:1.0 22:1.0 260:1.0 39:1.0 
0.9253058333567271 1962:1.0 44:1.0 7:1.0 26:1.0 
0.22680154789910215 1959:1.0 28:1.0 7:1.0 26:1.0 
0.3517332382107705 892:1.0 18:1.0 7:1.0 1965:1.0 
1.0 1:1.0 2:1.0 15:1.0 4:1.0 
0.357506783424501 774:1.0 6:1.0 7:1.0 20:1.0 
0.13419894981181396 1599:1.0 44:1.0 105:1.0 20:1.0 
1.0 1:1.0 2:1.0 25:1.0 4:1.0 
0.6906726535903803 774:1.0 6:1.0 7:1.0 26:1.0 
0.1360637932571135 1973:1.0 18:1.0 7:1.0 329:1.0 
0.8298547694007101 568:1.0 331:1.0 23:1.0 4:1.0 
0.17548870316527265 1700:1.0 6:1.0 333:1.0 26:1.0 
0.2550797932145232 1660:1.0 44:1.0 23:1.0 26:1.0 
0.3823228530715344 1955:1.0 18:1.0 25:1.0 16:1.0 
0.3845764480973158 952:1.0 18:1.0 23:1.0 20:1.0 
0.8335896044949404 474:1.0 148:1.0 85:1.0 102:1.0 
0.5094783830652033 97:1.0 34:1.0 105:1.0 220:1.0 
0.34026710458444276 1982:1.0 44:1.0 223:1.0 16:1.0 
0.6031971386053441 1700:1.0 18:1.0 25:1.0 169:1.0 
0.1681547639418125 719:1.0 171:1.0 23:1.0 159:1.0 
0.6267392914223913 314:1.0 161:1.0 173:1.0 26:1.0 
0.17008193920544373 1969:1.0 18:1.0 49:1.0 26:1.0 
0.022357491541676627 219:1.0 34:1.0 105:1.0 102:1.0 
0.25753355913731824 1987:1.0 6:1.0 105:1.0 12:1.0 
1.0 62:1.0 77:1.0 105:1.0 59:1.0 
1.0 1993:1.0 60:1.0 79:1.0 12:1.0 
0.10173170920685472 314:1.0 161:1.0 35:1.0 20:1.0 
0.2266824353173318 1997:1.0 18:1.0 7:1.0 20:1.0 
0.3402666236462633 1985:1.0 28:1.0 23:1.0 26:1.0 
0.22680129012957165 2005:1.0 18:1.0 105:1.0 628:1.0 
1.0 796:1.0 10:1.0 85:1.0 20:1.0 
0.0021509821258464054 824:1.0 83:1.0 25:1.0 81:1.0 
1.0 796:1.0 10:1.0 85:1.0 31:1.0 
0.13750118918392068 1156:1.0 44:1.0 7:1.0 159:1.0 
1.0 1275:1.0 83:1.0 1671:1.0 26:1.0 
0.12422602028574292 219:1.0 48:1.0 19:1.0 12:1.0 
0.22692960341914395 2005:1.0 6:1.0 627:1.0 628:1.0 
1.0 50:1.0 22:1.0 23:1.0 31:1.0 
0.34025176449883554 2019:1.0 18:1.0 420:1.0 102:1.0 
0.3681640625 504:1.0 83:1.0 35:1.0 169:1.0 
0.253424038465757 1130:1.0 48:1.0 19:1.0 102:1.0 
0.17021680322705596 1969:1.0 18:1.0 105:1.0 16:1.0 
0.15709464617795882 1870:1.0 18:1.0 23:1.0 81:1.0 
0.48293808710535435 397:1.0 18:1.0 46:1.0 39:1.0 
0.017420423560393857 76:1.0 10:1.0 105:1.0 102:1.0 
0.4055318148174655 2021:1.0 48:1.0 73:1.0 20:1.0 
0.03427433439836366 715:1.0 18:1.0 7:1.0 26:1.0 
1.0 655:1.0 44:1.0 35:1.0 102:1.0 
0.17011311607992788 1969:1.0 18:1.0 25:1.0 26:1.0 
0.136124113862532 1695:1.0 6:1.0 23:1.0 31:1.0 
0.5901458570764421 1662:1.0 48:1.0 85:1.0 31:1.0 
0.1361934950361624 1309:1.0 18:1.0 7:1.0 26:1.0 
0.18388017005348056 255:1.0 18:1.0 173:1.0 26:1.0 
1.0 766:1.0 48:1.0 19:1.0 20:1.0 
0.4993729333158819 591:1.0 48:1.0 73:1.0 257:1.0 
0.09039279078585083 285:1.0 34:1.0 85:1.0 12:1.0 
0.34026665389023364 2031:1.0 44:1.0 7:1.0 16:1.0 
0.12271766366749788 1678:1.0 171:1.0 35:1.0 20:1.0 
1.0 335:1.0 48:1.0 73:1.0 81:1.0 
0.3402674493186695 2033:1.0 6:1.0 25:1.0 26:1.0 
1.0 38:1.0 22:1.0 3:1.0 42:1.0 
1.0 1676:1.0 44:1.0 25:1.0 4:1.0 
1.0 152:1.0 6:1.0 46:1.0 26:1.0 
1.0 314:1.0 161:1.0 79:1.0 16:1.0 
0.07434164420051584 225:1.0 18:1.0 162:1.0 418:1.0 
1.0 29:1.0 77:1.0 420:1.0 20:1.0 
0.0013736790257011869 101:1.0 48:1.0 19:1.0 39:1.0 
0.197315596636198 154:1.0 10:1.0 105:1.0 16:1.0 
0.4291309941301996 98:1.0 18:1.0 15:1.0 16:1.0 
1.0 286:1.0 22:1.0 23:1.0 102:1.0 
1.0 2035:1.0 83:1.0 46:1.0 418:1.0 
0.3402661266192152 2036:1.0 83:1.0 79:1.0 31:1.0 
0.27226360979244857 2037:1.0 18:1.0 23:1.0 26:1.0 
0.27223331489320846 2038:1.0 10:1.0 105:1.0 1668:1.0 
1.0 403:1.0 171:1.0 1671:1.0 31:1.0 
0.20421825272644423 2043:1.0 161:1.0 189:1.0 4:1.0 
0.13583763604841353 2043:1.0 161:1.0 11:1.0 159:1.0 
0.11163672370039321 1589:1.0 161:1.0 162:1.0 31:1.0 
1.0 38:1.0 22:1.0 23:1.0 63:1.0 
0.09057044667857311 2045:1.0 18:1.0 23:1.0 102:1.0 
0.21788865802800958 367:1.0 18:1.0 7:1.0 1668:1.0 
0.13614567256970586 2045:1.0 6:1.0 7:1.0 33:1.0 
0.2636595730997702 154:1.0 10:1.0 85:1.0 20:1.0 
0.23397986881156208 2049:1.0 44:1.0 7:1.0 16:1.0 
0.18150455635136648 2045:1.0 60:1.0 7:1.0 16:1.0 
0.34026751538409905 2050:1.0 18:1.0 86:1.0 102:1.0 
1.0 38:1.0 22:1.0 79:1.0 16:1.0 
0.27230019132916317 2051:1.0 18:1.0 25:1.0 75:1.0 
0.3645117140478421 984:1.0 161:1.0 79:1.0 4:1.0 
0.34026780059865946 2053:1.0 6:1.0 7:1.0 75:1.0 
0.125 1223:1.0 161:1.0 25:1.0 4:1.0 
0.19418499259650185 2055:1.0 44:1.0 79:1.0 26:1.0 
0.19462813592004205 2055:1.0 44:1.0 79:1.0 102:1.0 
1.0 67:1.0 2:1.0 7:1.0 16:1.0 
1.0 38:1.0 22:1.0 23:1.0 31:1.0 
0.27218856538906105 2051:1.0 6:1.0 7:1.0 20:1.0 
0.03923295999108775 1608:1.0 77:1.0 105:1.0 20:1.0 
0.1360427262897304 2045:1.0 6:1.0 46:1.0 20:1.0 
0.47891031863207384 80:1.0 77:1.0 23:1.0 16:1.0 
0.09078809875951291 2045:1.0 18:1.0 35:1.0 16:1.0 
1.0 666:1.0 22:1.0 25:1.0 102:1.0 
0.046500571273975125 984:1.0 161:1.0 35:1.0 4:1.0 
0.5600513154006765 2059:1.0 161:1.0 1671:1.0 4:1.0 
0.8172385815761922 45:1.0 6:1.0 162:1.0 185:1.0 
1.0 984:1.0 161:1.0 49:1.0 4:1.0 
0.26137675372528607 1297:1.0 18:1.0 7:1.0 75:1.0 
0.09069752031435693 2045:1.0 18:1.0 105:1.0 102:1.0 
0.5600391819898966 2063:1.0 44:1.0 79:1.0 26:1.0 
1.0 38:1.0 22:1.0 23:1.0 16:1.0 
0.3402668347581109 2064:1.0 18:1.0 25:1.0 81:1.0 
0.2722083502596267 2038:1.0 60:1.0 195:1.0 16:1.0 
0.1362612421343408 2043:1.0 161:1.0 23:1.0 159:1.0 
0.11127683920793928 1589:1.0 161:1.0 162:1.0 4:1.0 
1.0 38:1.0 22:1.0 35:1.0 63:1.0 
0.01895531743565873 1633:1.0 18:1.0 7:1.0 102:1.0 
0.07476068720456375 777:1.0 6:1.0 173:1.0 418:1.0 
0.5037058711397804 2069:1.0 171:1.0 35:1.0 185:1.0 
1.0 213:1.0 161:1.0 162:1.0 42:1.0 
1.0 568:1.0 331:1.0 49:1.0 42:1.0 
0.17010082188955677 2071:1.0 44:1.0 333:1.0 20:1.0 
1.0 80:1.0 77:1.0 23:1.0 16:1.0 
1.0 2073:1.0 22:1.0 35:1.0 31:1.0 
0.34026687165579983 2074:1.0 44:1.0 7:1.0 16:1.0 
0.13586757641447555 586:1.0 18:1.0 46:1.0 102:1.0 
0.8871203289210615 280:1.0 72:1.0 105:1.0 418:1.0 
1.0 280:1.0 72:1.0 420:1.0 47:1.0 
1.0 1:1.0 2:1.0 25:1.0 20:1.0 
1.0 175:1.0 44:1.0 85:1.0 81:1.0 
0.5492947306039402 644:1.0 44:1.0 85:1.0 42:1.0 
0.5492900238461752 644:1.0 44:1.0 46:1.0 16:1.0 
0.08707024584502694 1909:1.0 6:1.0 23:1.0 185:1.0 
1.0 314:1.0 161:1.0 25:1.0 16:1.0 
0.5037081457127756 2077:1.0 18:1.0 162:1.0 185:1.0 
1.0 1:1.0 2:1.0 46:1.0 20:1.0 
0.09367731022975383 1909:1.0 6:1.0 7:1.0 418:1.0 
0.7213060766924257 2079:1.0 44:1.0 7:1.0 39:1.0 
1.0 321:1.0 18:1.0 30:1.0 1485:1.0 
0.11045012092554193 1987:1.0 18:1.0 7:1.0 75:1.0 
0.10890989636737008 842:1.0 34:1.0 105:1.0 20:1.0 
0.09831258314174059 488:1.0 2:1.0 25:1.0 159:1.0 
0.754993118876266 1099:1.0 22:1.0 162:1.0 31:1.0 
0.2777133989724967 204:1.0 60:1.0 49:1.0 12:1.0 
0.3402648154453399 2083:1.0 18:1.0 25:1.0 20:1.0 
1.0 1286:1.0 18:1.0 7:1.0 81:1.0 
1.0 80:1.0 77:1.0 85:1.0 31:1.0 
0.13603645924997498 708:1.0 18:1.0 223:1.0 146:1.0 
0.3402131379020475 2087:1.0 18:1.0 7:1.0 185:1.0 
1.0 2088:1.0 18:1.0 25:1.0 63:1.0 
1.0 38:1.0 22:1.0 85:1.0 39:1.0 
1.0 984:1.0 161:1.0 30:1.0 16:1.0 
0.5776274075842489 427:1.0 161:1.0 19:1.0 185:1.0 
0.1104501209255419 1987:1.0 18:1.0 7:1.0 8:1.0 
0.36454546383205516 984:1.0 161:1.0 15:1.0 31:1.0 
0.1941760309672563 2096:1.0 18:1.0 7:1.0 185:1.0 
0.3402630781294253 2097:1.0 18:1.0 7:1.0 42:1.0 
1.0 286:1.0 22:1.0 15:1.0 31:1.0 
0.34919140512587327 2100:1.0 44:1.0 7:1.0 42:1.0 
0.5238633828544771 2100:1.0 44:1.0 46:1.0 16:1.0 
0.525527544869773 179:1.0 1393:1.0 49:1.0 31:1.0 
0.01919496961102747 1633:1.0 18:1.0 7:1.0 20:1.0 
0.016914820936553276 214:1.0 6:1.0 25:1.0 12:1.0 
0.3538266282703193 431:1.0 18:1.0 19:1.0 185:1.0 
0.5258326266878449 179:1.0 1393:1.0 189:1.0 31:1.0 
0.3402563992158083 2101:1.0 6:1.0 7:1.0 185:1.0 
0.47303348711877863 1491:1.0 171:1.0 25:1.0 31:1.0 
0.3678293802940235 29:1.0 171:1.0 49:1.0 31:1.0 
0.11020596882265457 1987:1.0 18:1.0 7:1.0 191:1.0 
0.1359761030698062 2105:1.0 44:1.0 195:1.0 26:1.0 
0.14068002980528613 2106:1.0 6:1.0 7:1.0 102:1.0 
0.05548104761911374 2107:1.0 18:1.0 7:1.0 20:1.0 
1.0 214:1.0 6:1.0 7:1.0 418:1.0 
0.13852086381628242 1909:1.0 60:1.0 86:1.0 102:1.0 
1.0 45:1.0 6:1.0 189:1.0 20:1.0 
1.0 58:1.0 22:1.0 11:1.0 102:1.0 
1.0 841:1.0 22:1.0 85:1.0 102:1.0 
1.0 74:1.0 44:1.0 85:1.0 16:1.0 
0.09960754958953855 591:1.0 18:1.0 7:1.0 31:1.0 
0.9865754712708085 207:1.0 18:1.0 7:1.0 418:1.0 
0.31142017461036076 858:1.0 18:1.0 23:1.0 20:1.0 
1.0 1273:1.0 6:1.0 25:1.0 185:1.0 
0.34027488945827994 2111:1.0 77:1.0 85:1.0 31:1.0 
1.0 568:1.0 331:1.0 85:1.0 26:1.0 
0.030298958953719868 285:1.0 34:1.0 105:1.0 20:1.0 
0.05044970289645945 1916:1.0 18:1.0 46:1.0 1668:1.0 
0.05264813091013168 2113:1.0 309:1.0 7:1.0 16:1.0 
0.3113215906810141 858:1.0 18:1.0 311:1.0 185:1.0 
0.1974867786051906 154:1.0 10:1.0 105:1.0 20:1.0 
1.0 93:1.0 22:1.0 162:1.0 31:1.0 
0.006399489172650402 95:1.0 18:1.0 7:1.0 16:1.0 
1.0 168:1.0 22:1.0 49:1.0 39:1.0 
1.0 80:1.0 77:1.0 85:1.0 81:1.0 
0.2721976650116979 2037:1.0 6:1.0 46:1.0 185:1.0 
0.7323963293811991 154:1.0 10:1.0 1488:1.0 20:1.0 
0.512100640745016 1665:1.0 6:1.0 7:1.0 20:1.0 
0.34020289531223186 2117:1.0 6:1.0 7:1.0 12:1.0 
0.8320052764825183 281:1.0 48:1.0 19:1.0 31:1.0 
0.09081685077833071 2045:1.0 18:1.0 7:1.0 20:1.0 
0.27230108247142104 2118:1.0 60:1.0 15:1.0 102:1.0 
0.22049364351712486 338:1.0 72:1.0 105:1.0 102:1.0 
0.12737914497211117 1660:1.0 44:1.0 7:1.0 16:1.0 
0.43156670301162114 894:1.0 18:1.0 46:1.0 185:1.0 
0.300492395082119 1084:1.0 18:1.0 46:1.0 185:1.0 
1.0 80:1.0 34:1.0 189:1.0 31:1.0 
0.8560839836661357 76:1.0 34:1.0 105:1.0 8:1.0 
1.0 80:1.0 10:1.0 35:1.0 42:1.0 
0.2554801241141562 1660:1.0 44:1.0 15:1.0 31:1.0 
0.12788101009094513 1660:1.0 44:1.0 7:1.0 42:1.0 
0.14730635935998368 2079:1.0 44:1.0 46:1.0 16:1.0 
1.0 179:1.0 2:1.0 49:1.0 4:1.0 
0.22691843517658603 952:1.0 6:1.0 7:1.0 20:1.0 
1.0 93:1.0 22:1.0 11:1.0 4:1.0 
0.25865932357680516 80:1.0 48:1.0 73:1.0 31:1.0 
0.2921336592516622 404:1.0 18:1.0 25:1.0 102:1.0 
0.03391483492605199 367:1.0 18:1.0 23:1.0 75:1.0 
1.0 29:1.0 77:1.0 23:1.0 16:1.0 
0.006739929945383416 166:1.0 48:1.0 19:1.0 20:1.0 
0.7397060461023819 231:1.0 48:1.0 189:1.0 102:1.0 
0.11148763067851526 166:1.0 77:1.0 105:1.0 102:1.0 
0.05930337477921632 1608:1.0 77:1.0 189:1.0 20:1.0 
1.0 367:1.0 18:1.0 23:1.0 75:1.0 
1.0 80:1.0 48:1.0 79:1.0 102:1.0 
0.10243645586223352 207:1.0 6:1.0 25:1.0 418:1.0 
0.6702948412732195 2127:1.0 83:1.0 420:1.0 102:1.0 
0.7148934530059488 303:1.0 161:1.0 25:1.0 159:1.0 
0.4688585081256516 1654:1.0 161:1.0 162:1.0 4:1.0 
0.5362730226246175 1605:1.0 48:1.0 35:1.0 31:1.0 
0.030416572923385076 285:1.0 34:1.0 105:1.0 33:1.0 
0.34027429678179744 2129:1.0 44:1.0 616:1.0 102:1.0 
0.41489037073324225 796:1.0 171:1.0 35:1.0 81:1.0 
0.4149565317922533 796:1.0 171:1.0 85:1.0 31:1.0 
0.0640536448793298 1240:1.0 18:1.0 46:1.0 26:1.0 
0.35006784901653887 214:1.0 6:1.0 46:1.0 26:1.0 
0.9756698182955504 280:1.0 72:1.0 85:1.0 47:1.0 
0.038679557007737404 826:1.0 44:1.0 7:1.0 159:1.0 
1.0 80:1.0 34:1.0 420:1.0 20:1.0 
0.01996436540242426 1875:1.0 18:1.0 7:1.0 33:1.0 
0.2723018763973338 2134:1.0 18:1.0 195:1.0 146:1.0 
0.0946719384825294 117:1.0 60:1.0 15:1.0 42:1.0 
0.13616882060081367 2105:1.0 44:1.0 86:1.0 102:1.0 
1.0 80:1.0 48:1.0 85:1.0 31:1.0 
0.34015658172303054 2137:1.0 6:1.0 7:1.0 26:1.0 
0.012622841690732939 281:1.0 48:1.0 85:1.0 102:1.0 
1.0 80:1.0 48:1.0 19:1.0 220:1.0 
0.08327115363752399 2107:1.0 18:1.0 46:1.0 20:1.0 
1.0 38:1.0 22:1.0 35:1.0 39:1.0 
0.021814673632776612 230:1.0 48:1.0 85:1.0 102:1.0 
0.8569016154593432 803:1.0 72:1.0 105:1.0 1668:1.0 
0.14944286660595493 1909:1.0 18:1.0 7:1.0 4:1.0 
0.2278040391205228 749:1.0 34:1.0 105:1.0 20:1.0 
0.3162623139315449 76:1.0 48:1.0 189:1.0 16:1.0 
1.0 38:1.0 22:1.0 49:1.0 47:1.0 
1.0 38:1.0 22:1.0 49:1.0 31:1.0 
0.2723027364429781 2143:1.0 18:1.0 7:1.0 81:1.0 
0.35621255551288533 660:1.0 171:1.0 189:1.0 102:1.0 
1.0 13:1.0 14:1.0 105:1.0 39:1.0 
0.7231887191862159 2146:1.0 83:1.0 85:1.0 75:1.0 
0.8447062631603945 2147:1.0 18:1.0 7:1.0 26:1.0 
0.1560669103563022 660:1.0 48:1.0 19:1.0 102:1.0 
1.0 13:1.0 14:1.0 105:1.0 39:1.0 
0.10455090214611532 2150:1.0 44:1.0 7:1.0 16:1.0 
0.34026590575701154 2151:1.0 18:1.0 46:1.0 26:1.0 
0.15699241572197542 1870:1.0 18:1.0 223:1.0 20:1.0 
0.3111415934267638 1276:1.0 171:1.0 25:1.0 4:1.0 
0.17484098572542944 1518:1.0 6:1.0 173:1.0 26:1.0 
1.0 803:1.0 72:1.0 111:1.0 1485:1.0 
1.0 61:1.0 22:1.0 35:1.0 16:1.0 
0.45192828967724774 1195:1.0 18:1.0 25:1.0 20:1.0 
1.0 984:1.0 161:1.0 25:1.0 42:1.0 
0.1700178941683743 2154:1.0 6:1.0 46:1.0 4:1.0 
0.34027539525246414 2156:1.0 18:1.0 223:1.0 75:1.0 
0.5453429896714957 772:1.0 77:1.0 23:1.0 20:1.0 
1.0 61:1.0 22:1.0 35:1.0 31:1.0 
0.8640676703048327 1710:1.0 18:1.0 7:1.0 26:1.0 
1.0 61:1.0 22:1.0 85:1.0 31:1.0 
0.2432517794371396 405:1.0 18:1.0 7:1.0 26:1.0 
1.0 914:1.0 34:1.0 1671:1.0 102:1.0 
0.2554438361894125 1660:1.0 44:1.0 79:1.0 26:1.0 
0.03920752518917094 285:1.0 10:1.0 105:1.0 1485:1.0 
0.13024559888152512 842:1.0 10:1.0 1488:1.0 31:1.0 
1.0 38:1.0 22:1.0 66:1.0 31:1.0 
0.5360664130103339 655:1.0 44:1.0 85:1.0 26:1.0 
0.2734375 984:1.0 161:1.0 189:1.0 4:1.0 
0.17027017738636716 2154:1.0 6:1.0 162:1.0 169:1.0 
0.09737623304205563 1845:1.0 171:1.0 11:1.0 81:1.0 
1.0 38:1.0 22:1.0 260:1.0 31:1.0 
0.1361474523628053 1695:1.0 6:1.0 1671:1.0 31:1.0 
0.7360145959326143 458:1.0 48:1.0 73:1.0 102:1.0 
0.2475120697050407 1406:1.0 10:1.0 105:1.0 102:1.0 
0.22680158159422062 2162:1.0 18:1.0 46:1.0 20:1.0 
0.08511300193730054 1454:1.0 44:1.0 25:1.0 185:1.0 
0.34026764889498773 2163:1.0 60:1.0 189:1.0 4:1.0 
0.1516187464808359 2164:1.0 6:1.0 86:1.0 75:1.0 
0.07312329162100906 1101:1.0 6:1.0 30:1.0 4:1.0 
0.22080900031769204 1631:1.0 6:1.0 11:1.0 185:1.0 
0.22331345692241772 868:1.0 44:1.0 223:1.0 42:1.0 
0.5600400059365519 2166:1.0 44:1.0 46:1.0 16:1.0 
1.0 1412:1.0 18:1.0 7:1.0 59:1.0 
0.23162373109778692 1757:1.0 60:1.0 23:1.0 20:1.0 
1.0 274:1.0 18:1.0 46:1.0 4:1.0 
0.05190217872803034 2167:1.0 6:1.0 23:1.0 20:1.0 
1.0 61:1.0 22:1.0 11:1.0 31:1.0 
0.15717988153390955 2169:1.0 18:1.0 46:1.0 20:1.0 
1.0 50:1.0 22:1.0 23:1.0 42:1.0 
0.22692933212182562 2162:1.0 18:1.0 25:1.0 20:1.0 
0.5601275369873383 2172:1.0 18:1.0 25:1.0 4:1.0 
0.43606901589985525 2173:1.0 6:1.0 23:1.0 75:1.0 
0.5473252676957434 283:1.0 44:1.0 85:1.0 31:1.0 
0.9153420886505469 1954:1.0 18:1.0 46:1.0 12:1.0 
0.4083725359768213 274:1.0 18:1.0 46:1.0 20:1.0 
0.5601143001007518 2175:1.0 18:1.0 7:1.0 20:1.0 
0.17601162890055003 2177:1.0 6:1.0 30:1.0 8:1.0 
1.0 196:1.0 28:1.0 25:1.0 39:1.0 
0.03685014371729023 2183:1.0 28:1.0 30:1.0 39:1.0 
1.0 2188:1.0 28:1.0 30:1.0 20:1.0 
0.3402752958047377 2189:1.0 28:1.0 30:1.0 20:1.0 
0.4806752104856417 753:1.0 18:1.0 23:1.0 16:1.0 
0.2669062385573515 1240:1.0 18:1.0 23:1.0 26:1.0 
1.0 803:1.0 72:1.0 23:1.0 47:1.0 
0.340275177175906 2197:1.0 60:1.0 49:1.0 31:1.0 
0.3402120408095031 2200:1.0 6:1.0 23:1.0 70:1.0 
1.0 803:1.0 72:1.0 11:1.0 47:1.0 
1.0 29:1.0 48:1.0 73:1.0 102:1.0 
0.7787130758062724 790:1.0 34:1.0 105:1.0 81:1.0 
0.3504282633463542 1397:1.0 48:1.0 85:1.0 102:1.0 
0.6688705994574555 1457:1.0 22:1.0 105:1.0 31:1.0 
0.3090397994120305 730:1.0 44:1.0 7:1.0 16:1.0 
0.34027454537201346 2210:1.0 18:1.0 46:1.0 102:1.0 
0.1543214163772955 547:1.0 18:1.0 46:1.0 26:1.0 
0.17601162890055005 2177:1.0 6:1.0 30:1.0 4:1.0 
0.22080900031769202 1631:1.0 6:1.0 11:1.0 20:1.0 
0.051678854503488164 2167:1.0 6:1.0 7:1.0 8:1.0 
0.14994830671958892 2177:1.0 6:1.0 46:1.0 70:1.0 
0.0899498764565751 603:1.0 60:1.0 35:1.0 12:1.0 
1.0 1625:1.0 83:1.0 3:1.0 42:1.0 
1.0 175:1.0 44:1.0 85:1.0 42:1.0 
0.1501085535825757 2177:1.0 6:1.0 46:1.0 81:1.0 
1.0 80:1.0 34:1.0 11:1.0 220:1.0 
0.10448212669181675 2169:1.0 18:1.0 11:1.0 4:1.0 
0.1692247331602595 98:1.0 10:1.0 11:1.0 26:1.0 
0.11044936517551293 1114:1.0 6:1.0 46:1.0 75:1.0 
0.2723055345496093 2224:1.0 18:1.0 46:1.0 26:1.0 
1.0 314:1.0 161:1.0 3:1.0 16:1.0 
0.2481072304261761 577:1.0 18:1.0 2228:1.0 75:1.0 
0.18140911299257725 766:1.0 10:1.0 105:1.0 20:1.0 
0.3731747545639512 2231:1.0 18:1.0 25:1.0 20:1.0 
0.30343348220296273 1233:1.0 60:1.0 49:1.0 185:1.0 
0.05994361207901804 603:1.0 60:1.0 7:1.0 16:1.0 
0.5601422810883282 2233:1.0 18:1.0 86:1.0 20:1.0 
1.0 2234:1.0 44:1.0 25:1.0 42:1.0 
1.0 2213:1.0 44:1.0 46:1.0 4:1.0 
1.0 74:1.0 44:1.0 7:1.0 42:1.0 
0.5891331900322915 45:1.0 6:1.0 46:1.0 70:1.0 
0.3838624850649276 1586:1.0 6:1.0 7:1.0 20:1.0 
0.10637991670617192 1638:1.0 6:1.0 46:1.0 20:1.0 
1.0 2088:1.0 18:1.0 25:1.0 169:1.0 
1.0 90:1.0 83:1.0 23:1.0 75:1.0 
0.029803396129973816 526:1.0 77:1.0 85:1.0 20:1.0 
0.17645613598295862 1904:1.0 171:1.0 25:1.0 42:1.0 
1.0 56:1.0 22:1.0 11:1.0 102:1.0 
1.0 93:1.0 22:1.0 30:1.0 39:1.0 
0.3402736392851571 2244:1.0 18:1.0 30:1.0 8:1.0 
0.12352580648686855 285:1.0 10:1.0 23:1.0 102:1.0 
0.01626713317440865 547:1.0 18:1.0 7:1.0 8:1.0 
0.624266279670256 2245:1.0 83:1.0 15:1.0 59:1.0 
0.2324325764863887 1411:1.0 48:1.0 19:1.0 26:1.0 
1.0 314:1.0 161:1.0 7:1.0 20:1.0 
1.0 50:1.0 22:1.0 162:1.0 31:1.0 
0.11345281368380611 2250:1.0 44:1.0 79:1.0 31:1.0 
0.4346080043675784 2251:1.0 10:1.0 23:1.0 26:1.0 
0.565885939748352 456:1.0 77:1.0 420:1.0 42:1.0 
0.022846638646073524 518:1.0 10:1.0 11:1.0 31:1.0 
0.04043313562149585 1222:1.0 18:1.0 46:1.0 20:1.0 
1.0 76:1.0 60:1.0 23:1.0 81:1.0 
0.17641391952810537 1904:1.0 171:1.0 85:1.0 42:1.0 
0.11044936517551295 1114:1.0 6:1.0 46:1.0 26:1.0 
0.12524582003179238 2269:1.0 10:1.0 105:1.0 31:1.0 
0.7390410296822848 648:1.0 83:1.0 111:1.0 8:1.0 
1.0 38:1.0 22:1.0 23:1.0 31:1.0 
1.0 846:1.0 22:1.0 3:1.0 31:1.0 
0.15715981581039457 1009:1.0 6:1.0 7:1.0 31:1.0 
1.0 796:1.0 10:1.0 23:1.0 8:1.0 
1.0 314:1.0 161:1.0 15:1.0 20:1.0 
1.0 168:1.0 22:1.0 162:1.0 31:1.0 
0.27682650451900626 1101:1.0 18:1.0 23:1.0 418:1.0 
0.15711279997543545 958:1.0 60:1.0 86:1.0 12:1.0 
0.11292853242187831 1132:1.0 48:1.0 19:1.0 31:1.0 
1.0 796:1.0 10:1.0 105:1.0 31:1.0 
1.0 1217:1.0 18:1.0 7:1.0 26:1.0 
1.0 38:1.0 22:1.0 23:1.0 39:1.0 
0.3238864143629575 1588:1.0 171:1.0 79:1.0 102:1.0 
0.6798469926177532 1650:1.0 44:1.0 7:1.0 159:1.0 
0.7403229425306345 1223:1.0 161:1.0 46:1.0 4:1.0 
0.736891050284445 1273:1.0 6:1.0 162:1.0 159:1.0 
0.7406459041144842 1223:1.0 161:1.0 11:1.0 4:1.0 
1.0 160:1.0 161:1.0 189:1.0 59:1.0 
0.16780609070734565 410:1.0 60:1.0 162:1.0 20:1.0 
0.1360372024089801 2286:1.0 6:1.0 46:1.0 107:1.0 
0.7437099710456008 2035:1.0 83:1.0 111:1.0 33:1.0 
0.948826317146539 314:1.0 161:1.0 35:1.0 185:1.0 
0.08516331922737894 1377:1.0 44:1.0 7:1.0 20:1.0 
1.0 38:1.0 22:1.0 46:1.0 39:1.0 
1.0 1650:1.0 44:1.0 7:1.0 159:1.0 
0.5018080682144475 2288:1.0 161:1.0 311:1.0 4:1.0 
0.11338962831140109 873:1.0 60:1.0 35:1.0 81:1.0 
0.011188543508994231 170:1.0 6:1.0 7:1.0 33:1.0 
1.0 88:1.0 22:1.0 86:1.0 31:1.0 
0.18571324596219152 2284:1.0 6:1.0 7:1.0 20:1.0 
1.0 38:1.0 22:1.0 11:1.0 39:1.0 
0.993169395779012 1853:1.0 28:1.0 25:1.0 169:1.0 
0.04294403515982369 215:1.0 171:1.0 30:1.0 12:1.0 
0.34027342936516913 2293:1.0 18:1.0 7:1.0 20:1.0 
1.0 38:1.0 22:1.0 23:1.0 39:1.0 
1.0 168:1.0 22:1.0 11:1.0 39:1.0 
0.22270144634441322 2302:1.0 18:1.0 46:1.0 20:1.0 
1.0 38:1.0 22:1.0 30:1.0 39:1.0 
1.0 50:1.0 22:1.0 3:1.0 39:1.0 
0.22680934298516614 2305:1.0 28:1.0 25:1.0 31:1.0 
0.15693628090684136 2169:1.0 18:1.0 7:1.0 8:1.0 
0.38840540496313253 1305:1.0 18:1.0 15:1.0 20:1.0 
0.10400390625 488:1.0 2:1.0 25:1.0 16:1.0 
1.0 38:1.0 22:1.0 23:1.0 39:1.0 
0.651618746480836 2164:1.0 6:1.0 162:1.0 20:1.0 
0.0757336162694289 2311:1.0 18:1.0 46:1.0 26:1.0 
0.17689213953578078 2312:1.0 44:1.0 195:1.0 16:1.0 
0.19417601580687394 2317:1.0 60:1.0 15:1.0 42:1.0 
0.1941709323076037 2318:1.0 44:1.0 86:1.0 185:1.0 
0.22674805810244958 2319:1.0 18:1.0 223:1.0 8:1.0 
0.782900768471061 622:1.0 22:1.0 15:1.0 220:1.0 
1.0 1143:1.0 18:1.0 46:1.0 26:1.0 
0.2902217557049348 1700:1.0 18:1.0 7:1.0 81:1.0 
1.0 2245:1.0 83:1.0 23:1.0 31:1.0 
0.3402734418284598 2322:1.0 18:1.0 23:1.0 39:1.0 
0.1946418554388473 2317:1.0 60:1.0 15:1.0 185:1.0 
0.5615297116212892 177:1.0 60:1.0 189:1.0 20:1.0 
1.0 1457:1.0 22:1.0 86:1.0 220:1.0 
0.29021945361699336 1195:1.0 18:1.0 223:1.0 26:1.0 
0.07232239466183811 870:1.0 10:1.0 111:1.0 16:1.0 
0.14065323335852647 1938:1.0 18:1.0 15:1.0 8:1.0 
0.18898577843988906 2311:1.0 18:1.0 30:1.0 191:1.0 
0.3344185925097565 695:1.0 6:1.0 195:1.0 20:1.0 
0.06168980998862706 638:1.0 10:1.0 105:1.0 12:1.0 
0.17026260512437605 1174:1.0 48:1.0 19:1.0 20:1.0 
1.0 38:1.0 22:1.0 49:1.0 39:1.0 
1.0 1809:1.0 18:1.0 46:1.0 20:1.0 
0.22692889648033437 992:1.0 44:1.0 7:1.0 16:1.0 
0.4350046917163771 1452:1.0 18:1.0 223:1.0 26:1.0 
1.0 61:1.0 22:1.0 3:1.0 39:1.0 
0.09326592585736114 1909:1.0 6:1.0 7:1.0 8:1.0 
0.526450211965693 774:1.0 10:1.0 11:1.0 31:1.0 
0.2268012054076718 2333:1.0 48:1.0 85:1.0 220:1.0 
0.12857396585934353 588:1.0 18:1.0 223:1.0 20:1.0 
1.0 880:1.0 22:1.0 23:1.0 16:1.0 
0.3402733060198286 2335:1.0 48:1.0 19:1.0 31:1.0 
0.15693580580255467 1659:1.0 83:1.0 79:1.0 59:1.0 
1.0 38:1.0 22:1.0 23:1.0 31:1.0 
1.0 9:1.0 77:1.0 7:1.0 20:1.0 
1.0 168:1.0 22:1.0 79:1.0 31:1.0 
1.0 425:1.0 18:1.0 7:1.0 2225:1.0 
0.1018683471271779 1311:1.0 18:1.0 2228:1.0 39:1.0 
0.13865187960954545 1909:1.0 60:1.0 15:1.0 20:1.0 
1.0 38:1.0 22:1.0 86:1.0 159:1.0 
1.0 38:1.0 22:1.0 11:1.0 39:1.0 
1.0 67:1.0 2:1.0 23:1.0 4:1.0 
0.1940024256879697 686:1.0 10:1.0 105:1.0 12:1.0 
0.1426023912235142 926:1.0 48:1.0 19:1.0 220:1.0 
0.2723091050203528 2341:1.0 6:1.0 25:1.0 20:1.0 
1.0 38:1.0 22:1.0 11:1.0 16:1.0 
1.0 255:1.0 18:1.0 25:1.0 191:1.0 
0.34020712539689024 2342:1.0 6:1.0 195:1.0 26:1.0 
0.9550061458136222 175:1.0 44:1.0 3:1.0 70:1.0 
0.2721890432197353 2341:1.0 18:1.0 46:1.0 26:1.0 
0.06247413548935988 840:1.0 18:1.0 46:1.0 16:1.0 
0.25833407067541597 290:1.0 18:1.0 23:1.0 8:1.0 
0.3869900897069258 101:1.0 10:1.0 23:1.0 200:1.0 
1.0 1:1.0 2:1.0 25:1.0 4:1.0 
0.22816564919935756 2344:1.0 6:1.0 7:1.0 33:1.0 
1.0 38:1.0 22:1.0 86:1.0 4:1.0 
0.301607842626642 2345:1.0 6:1.0 25:1.0 20:1.0 
0.021050464986437388 225:1.0 18:1.0 7:1.0 20:1.0 
1.0 38:1.0 22:1.0 23:1.0 31:1.0 
1.0 645:1.0 83:1.0 30:1.0 70:1.0 
0.4759492210657672 326:1.0 72:1.0 85:1.0 47:1.0 
0.173785970721551 1376:1.0 60:1.0 49:1.0 20:1.0 
0.15268984492738413 2107:1.0 6:1.0 223:1.0 33:1.0 
0.3053112207375877 1057:1.0 18:1.0 311:1.0 20:1.0 
0.4327962729686926 310:1.0 18:1.0 23:1.0 20:1.0 
1.0 21:1.0 22:1.0 23:1.0 16:1.0 
0.17002877420908016 1810:1.0 18:1.0 25:1.0 26:1.0 
0.46447688967906664 98:1.0 18:1.0 7:1.0 8:1.0 
0.18707607196449677 1344:1.0 10:1.0 23:1.0 20:1.0 
0.18550197267502633 2284:1.0 6:1.0 23:1.0 185:1.0 
0.2722206905199845 2357:1.0 171:1.0 79:1.0 31:1.0 
0.828750487974342 58:1.0 83:1.0 85:1.0 26:1.0 
0.07573361626942891 2311:1.0 18:1.0 46:1.0 16:1.0 
0.22721836622551242 205:1.0 60:1.0 189:1.0 42:1.0 
0.3402740462808929 2361:1.0 44:1.0 86:1.0 185:1.0 
0.503897878318167 896:1.0 60:1.0 189:1.0 20:1.0 
1.0 843:1.0 44:1.0 7:1.0 16:1.0 
0.24021427399721548 1875:1.0 18:1.0 46:1.0 20:1.0 
0.03732665717159445 840:1.0 18:1.0 7:1.0 8:1.0 
0.13023964595566798 344:1.0 10:1.0 23:1.0 26:1.0 
1.0 38:1.0 22:1.0 203:1.0 39:1.0 
1.0 38:1.0 22:1.0 11:1.0 31:1.0 
0.1276598351394628 1454:1.0 44:1.0 189:1.0 75:1.0 
0.42011787496671865 2367:1.0 569:1.0 79:1.0 20:1.0 
1.0 38:1.0 22:1.0 189:1.0 39:1.0 
0.20941325759823884 2369:1.0 77:1.0 30:1.0 20:1.0 
0.19436632687473138 2371:1.0 60:1.0 85:1.0 26:1.0 
0.14587419180041417 783:1.0 77:1.0 105:1.0 31:1.0 
1.0 427:1.0 161:1.0 7:1.0 4:1.0 
0.12530919888059988 2269:1.0 10:1.0 11:1.0 39:1.0 
1.0 730:1.0 83:1.0 85:1.0 146:1.0 
0.8942576000970881 147:1.0 148:1.0 85:1.0 31:1.0 
0.22048203498878424 2373:1.0 60:1.0 35:1.0 20:1.0 
0.48104493424881073 753:1.0 18:1.0 23:1.0 185:1.0 
0.8445635678169554 1511:1.0 44:1.0 79:1.0 12:1.0 
1.0 561:1.0 72:1.0 189:1.0 81:1.0 
0.10328061640354688 1311:1.0 6:1.0 30:1.0 33:1.0 
1.0 564:1.0 10:1.0 105:1.0 220:1.0 
1.0 38:1.0 22:1.0 3:1.0 39:1.0 
0.1360372024089801 2286:1.0 6:1.0 46:1.0 169:1.0 
0.04314726749662851 215:1.0 171:1.0 11:1.0 12:1.0 
0.24743766134178352 447:1.0 48:1.0 19:1.0 31:1.0 
0.05085625420742429 725:1.0 48:1.0 189:1.0 16:1.0 
0.02742038020932673 701:1.0 34:1.0 23:1.0 16:1.0 
0.41232460244489055 2383:1.0 83:1.0 79:1.0 59:1.0 
0.4066572620936699 564:1.0 60:1.0 85:1.0 26:1.0 
1.0 1584:1.0 44:1.0 7:1.0 39:1.0 
0.33834655695711013 1581:1.0 6:1.0 23:1.0 20:1.0 
1.0 38:1.0 22:1.0 11:1.0 39:1.0 
0.04309659058097733 285:1.0 48:1.0 85:1.0 20:1.0 
0.1294776155933068 2387:1.0 18:1.0 7:1.0 418:1.0 
0.2958700189725352 207:1.0 6:1.0 86:1.0 20:1.0 
0.21177423089038472 1136:1.0 10:1.0 11:1.0 20:1.0 
1.0 38:1.0 22:1.0 15:1.0 31:1.0 
0.4810449342488107 753:1.0 18:1.0 23:1.0 47:1.0 
0.716337589004681 1726:1.0 48:1.0 23:1.0 102:1.0 
0.15708641944183033 2389:1.0 18:1.0 23:1.0 26:1.0 
0.10455648985424842 2389:1.0 18:1.0 7:1.0 75:1.0 
0.23168724523856626 2390:1.0 77:1.0 23:1.0 20:1.0 
0.34027090641483854 2391:1.0 171:1.0 25:1.0 31:1.0 
0.046792126086264506 665:1.0 6:1.0 25:1.0 31:1.0 
0.10477861061999316 2389:1.0 18:1.0 7:1.0 70:1.0 
1.0 337:1.0 18:1.0 25:1.0 185:1.0 
0.028972013358274235 253:1.0 10:1.0 105:1.0 31:1.0 
1.0 648:1.0 83:1.0 30:1.0 26:1.0 
0.34026740397398525 2397:1.0 18:1.0 7:1.0 20:1.0 
0.3402701925717506 2402:1.0 60:1.0 49:1.0 12:1.0 
0.4579364718774693 207:1.0 18:1.0 25:1.0 20:1.0 
0.3402750591899697 2403:1.0 18:1.0 7:1.0 16:1.0 
0.3216864994391165 2404:1.0 18:1.0 23:1.0 39:1.0 
0.17012298969926887 2407:1.0 60:1.0 79:1.0 26:1.0 
1.0 2245:1.0 83:1.0 3:1.0 31:1.0 
1.0 488:1.0 2:1.0 85:1.0 42:1.0 
0.25701546448418777 140:1.0 60:1.0 79:1.0 39:1.0 
0.060994611347501115 2416:1.0 44:1.0 30:1.0 16:1.0 
0.09654769623097673 710:1.0 18:1.0 46:1.0 26:1.0 
1.0 313:1.0 22:1.0 49:1.0 159:1.0 
1.0 305:1.0 6:1.0 162:1.0 20:1.0 
1.0 1641:1.0 18:1.0 7:1.0 16:1.0 
0.5700823272600181 1186:1.0 72:1.0 105:1.0 81:1.0 
0.47884566043148585 29:1.0 48:1.0 19:1.0 31:1.0 
1.0 56:1.0 22:1.0 3:1.0 31:1.0 
0.3402197210104999 2425:1.0 18:1.0 30:1.0 102:1.0 
0.24668180063188658 790:1.0 48:1.0 73:1.0 31:1.0 
1.0 1:1.0 2:1.0 49:1.0 16:1.0 
0.34026094621827363 2426:1.0 18:1.0 7:1.0 26:1.0 
0.6700882470599618 2427:1.0 83:1.0 3:1.0 31:1.0 
0.38092582825345894 790:1.0 18:1.0 25:1.0 20:1.0 
0.3402342230088303 2429:1.0 6:1.0 46:1.0 107:1.0 
0.2722013872258877 1526:1.0 10:1.0 111:1.0 31:1.0 
0.34024579802378163 2430:1.0 44:1.0 30:1.0 16:1.0 
0.2267670153184776 2431:1.0 18:1.0 46:1.0 169:1.0 
0.19789585673893495 1041:1.0 171:1.0 23:1.0 16:1.0 
1.0 784:1.0 18:1.0 173:1.0 16:1.0 
0.645067062625199 710:1.0 18:1.0 23:1.0 20:1.0 
0.14079678327475065 2106:1.0 6:1.0 23:1.0 33:1.0 
0.636214584309492 1364:1.0 60:1.0 35:1.0 31:1.0 
0.18666239847673385 2433:1.0 18:1.0 7:1.0 20:1.0 
1.0 56:1.0 22:1.0 23:1.0 169:1.0 
0.4266913887977845 914:1.0 171:1.0 25:1.0 102:1.0 
0.7368404913454392 1273:1.0 6:1.0 162:1.0 26:1.0 
1.0 730:1.0 83:1.0 15:1.0 159:1.0 
0.41871087004620017 984:1.0 161:1.0 85:1.0 4:1.0 
1.0 38:1.0 22:1.0 11:1.0 31:1.0 
1.0 91:1.0 18:1.0 7:1.0 39:1.0 
0.4499214390192365 1888:1.0 10:1.0 105:1.0 20:1.0 
1.0 50:1.0 22:1.0 105:1.0 31:1.0 
0.30045610299992453 1084:1.0 18:1.0 7:1.0 20:1.0 
0.405562873066934 2440:1.0 171:1.0 15:1.0 4:1.0 
0.3402785188659641 2442:1.0 18:1.0 189:1.0 185:1.0 
0.08202618219794285 1678:1.0 171:1.0 15:1.0 20:1.0 
0.34027948756296106 2449:1.0 18:1.0 7:1.0 20:1.0 
0.17017994879937298 2451:1.0 18:1.0 46:1.0 20:1.0 
0.3402683041327603 2455:1.0 18:1.0 86:1.0 8:1.0 
0.2600454871625086 2458:1.0 10:1.0 105:1.0 102:1.0 
0.18562347820542804 600:1.0 10:1.0 30:1.0 185:1.0 
1.0 55:1.0 10:1.0 189:1.0 31:1.0 
1.0 91:1.0 18:1.0 7:1.0 20:1.0 
1.0 622:1.0 22:1.0 23:1.0 39:1.0 
0.37731127610641735 2459:1.0 10:1.0 30:1.0 220:1.0 
0.7970003966320228 2460:1.0 18:1.0 223:1.0 81:1.0 
0.405598398733197 2461:1.0 10:1.0 189:1.0 81:1.0 
1.0 38:1.0 22:1.0 85:1.0 220:1.0 
0.3402790809826912 2463:1.0 171:1.0 23:1.0 20:1.0 
0.34027957012923893 2464:1.0 48:1.0 7:1.0 20:1.0 
0.34027903607050647 2466:1.0 6:1.0 25:1.0 20:1.0 
1.0 950:1.0 22:1.0 11:1.0 16:1.0 
0.45573715177574364 2468:1.0 60:1.0 11:1.0 20:1.0 
1.0 2469:1.0 22:1.0 86:1.0 31:1.0 
0.32367886932537004 681:1.0 18:1.0 7:1.0 20:1.0 
1.0 50:1.0 22:1.0 23:1.0 31:1.0 
0.05388330061061494 699:1.0 44:1.0 7:1.0 16:1.0 
0.3005101762869034 1084:1.0 18:1.0 46:1.0 20:1.0 
0.34027851809186194 2470:1.0 18:1.0 7:1.0 20:1.0 
